1
512
1.142576
0.541577
-1.627148
-0.803021
0.872246
-1.638620
-1.991193
-0.991285
0.608858
1.124528
-0.614081
-0.071979
0.631699
1.802953
-0.302890
-0.255185
-0.141786
0.139801
0.927229
0.972070
-0.579779
-0.147306
-0.344635
-1.150572
2.289986
0.822189
0.048209
1.323142
-1.569656
1.592051
0.906772
0.281458
0.337895
-0.041129
1.057610
1.184803
-1.419496
0.778401
0.822715
0.348217
0.631648
-0.123475
-0.709117
0.531516
0.403487
0.954973
-0.689891
0.999665
-1.603656
1.127399
0.542958
-0.288868
1.123250
0.605999
0.751723
0.090684
-1.457613
0.918278
-0.288215
0.457820
0.727425
0.714868
0.072462
-0.625336
-0.395933
0.449815
0.084347
0.045540
0.747594
-0.894728
0.103936
-0.052358
-0.773751
1.015907
-1.564606
-0.089061
-0.625827
-0.327479
-0.446558
-0.555783
-0.888986
-0.060157
0.181643
2.050370
-0.549823
-1.621258
1.484546
1.836250
-0.645176
-0.126086
0.452981
1.570461
-0.844435
0.231594
0.781563
0.942055
0.614830
-1.412930
-0.854078
-0.809402
1.980979
-0.385571
0.109841
-0.812634
-0.300469
1.277107
0.852112
-0.231255
1.600899
-0.324173
0.041106
-0.727755
-0.463613
-0.653943
-1.121360
0.398350
-0.940160
0.041874
1.671244
2.933537
0.627582
0.679053
-0.655363
0.705206
1.392432
-0.385170
-0.466931
0.550364
0.003060
-0.279347
1.408297
0.644113
1.104337
-0.032763
0.870174
-2.201400
0.247483
-0.243993
-0.271218
-1.790513
1.319109
-1.239606
-0.560112
-1.628786
0.403040
-0.093226
0.889543
-0.473516
0.323812
1.812925
-0.774854
-0.038717
0.392366
0.262760
3.595349
0.558060
-0.765535
0.023798
0.717790
-0.002414
-0.677561
-0.120206
-0.033843
-1.308707
-0.157952
0.529679
0.145933
-0.740825
0.154501
0.256217
-0.989002
-0.708829
-1.893289
0.412973
-1.586714
-0.185682
-0.805151
-0.643707
0.927892
0.982609
0.164407
0.102503
0.693554
-0.081965
-1.912468
1.344426
2.575497
0.171856
-0.389469
1.701590
0.895912
-1.558159
-1.733319
0.019065
-2.096546
0.679669
0.820700
-0.901437
0.015605
-0.943790
0.797418
0.993678
1.292721
0.457980
-0.651138
-0.942048
-1.405390
-1.133634
0.184285
-1.962307
0.581989
0.210886
-0.611519
-0.242041
-0.294608
-0.735397
0.796500
0.932328
0.849062
-1.126476
0.457500
-2.141325
-0.037577
0.732146
0.396937
1.338669
-2.331719
0.689548
-0.676801
-0.758422
-0.008962
-1.185784
1.412973
-1.508547
1.623305
2.240083
1.276000
1.105210
-0.692787
-1.187782
-0.703069
-0.949679
0.845631
-0.125251
2.560898
1.197036
0.728872
0.238231
0.731448
-0.656137
-0.345050
-1.521798
-0.684159
-2.040410
0.016227
-1.243047
1.371868
-1.270557
1.185737
0.630501
-0.572438
1.391925
-1.156214
-0.086273
0.817771
-0.741432
0.154125
0.028096
-1.236463
-0.622659
-1.598809
-0.061133
-2.237813
1.700343
-1.685617
0.173725
-0.644288
-0.806896
0.350319
1.173513
-0.132698
0.088222
0.055842
1.437911
0.842734
-0.530522
1.243104
1.308976
-0.390460
0.335359
0.039244
0.689831
-0.464710
0.258947
0.811046
0.111797
-0.368195
-0.087374
1.427288
-0.855985
-0.791329
0.751114
1.473825
-0.723328
0.706590
0.409920
-1.207247
0.298189
-0.838981
-0.389972
-0.064424
-0.608756
0.949734
0.427686
-0.709914
0.374489
1.252933
-0.618115
0.073611
0.740444
-1.270635
-1.483991
-0.804514
0.944437
-0.686903
-1.239665
-1.244575
-0.265579
0.323831
-0.801074
1.636628
-0.536119
0.506117
-0.105783
0.158229
0.336387
-0.187239
0.662363
2.267891
1.105071
1.837217
0.954284
0.256195
-0.322008
1.011404
-0.491531
-0.360824
-2.375802
-1.657917
2.044106
0.083307
-0.696638
1.447601
-0.844433
0.210470
-0.935103
-0.301855
0.769171
-0.332231
-1.085304
-0.848976
0.390810
1.309412
-0.192050
0.649275
-0.816335
0.449072
0.277575
-0.524767
1.823632
1.325307
-0.702193
-0.237536
-0.264051
-0.171189
-0.535605
0.210420
-0.435159
0.287329
-0.154031
-1.226853
0.047954
0.540655
0.902751
-1.115937
-0.720786
1.663204
-0.690226
1.267313
-0.698577
-0.531073
0.546967
0.216736
0.901002
0.324445
1.910525
1.083387
0.132009
-0.913577
-0.243212
0.652268
-0.559193
0.884679
-0.572504
0.275926
0.354300
-1.763321
-0.383218
-1.469664
-0.395659
-0.372196
0.886985
-1.439009
1.061723
-0.237122
-0.769354
2.589477
-0.745496
-0.305385
0.745025
-1.790836
-2.027815
-0.509769
-0.067810
-0.562943
0.186576
0.662526
-0.615809
0.097739
0.377132
0.552893
0.108830
-0.627113
1.164862
-0.497433
-0.248385
-0.002451
-2.068750
-0.201756
0.078653
-0.142752
1.933880
1.017591
-0.490963
1.702724
0.067876
0.027002
1.856184
0.094053
0.662144
-0.445496
1.561557
0.171439
-1.006870
-0.120821
-0.866136
-0.371377
0.737870
-0.131403
-0.341353
-0.534070
0.744799
-0.999309
-0.336687
0.289447
1.298174
0.729907
-1.399640
-2.380524
1.352480
-0.830148
-0.046529
0.286229
-0.135590
-1.048578
0.839732
-1.326888
0.268091
1.010870
0.559638
1.275961
1.710009
0.302549
-1.264118
-0.475577
1.278214
-1.546261
-0.631650
-0.167051
0.581614
1.119778
2.465222
1.552009
-0.188773
-0.356230
0.496569
0.291755
-0.079199
0.300136
-0.146689
-0.264296
-1.838074
-2.764339
1.310940
1.012065
0.230769
-1.838410
-0.536733
1.137694
1.085546
0.714320
-1.617466
