1
512
-1.000779
1.443832
-0.055986
-0.475320
-1.177906
0.189581
0.533987
0.513808
-0.719270
-0.025228
0.989720
0.344959
0.325567
-0.869308
0.137326
1.370645
0.152153
0.903678
-0.813761
-0.994728
-0.043205
-1.227044
1.777187
1.426930
-1.224174
-0.017927
-2.256807
0.799346
-0.163530
1.211514
2.352117
-1.476478
-0.347587
-0.003314
-1.951686
0.186937
0.456395
0.075533
-0.001269
0.293060
-0.038454
-0.956935
0.053388
-0.104535
-0.536072
-0.222106
-0.086001
0.479460
0.982306
-1.382114
-0.992100
-0.909464
0.837218
1.559963
-1.075711
0.619202
0.874869
-0.883374
0.372909
-2.079650
-1.065915
-1.262154
0.211799
2.340235
0.451449
0.470074
-0.916449
1.467439
-0.715909
-0.372700
-0.200934
1.552823
0.732986
-1.304671
1.116133
-0.919235
-0.801737
0.072372
-0.018777
0.145517
-0.362765
-1.603527
-0.803355
-1.087812
-1.429878
-1.790158
1.720613
2.535304
0.610474
1.076112
1.296264
-0.003672
0.647930
0.082033
1.505894
1.611258
-0.891593
-1.049355
0.426955
-1.423755
-1.201008
-0.957551
1.777413
-2.059204
0.036164
-0.574686
0.492381
-0.490260
0.089449
0.132242
-0.090392
-0.085629
-0.637077
-0.358902
0.521874
1.828346
-1.541122
-0.769419
0.142788
-1.123665
0.420019
0.388373
-0.803294
-0.453539
-1.193012
0.062406
-1.537298
-0.874415
-0.107187
-0.903838
-0.010690
0.289621
-0.988751
-0.180890
-1.106536
0.484335
0.167355
0.674307
0.075177
0.425964
-1.195941
2.051894
0.293692
0.407965
-0.517687
0.530036
-2.704549
-0.663649
-1.668271
0.111435
0.282728
0.319402
0.321431
1.685429
0.457997
0.258556
0.301073
1.081384
1.788181
-0.490303
0.899694
-0.522915
-0.588034
-0.484960
2.324407
-0.074034
-0.977205
0.676721
1.604050
1.123789
-0.050064
-0.855846
1.506917
0.478727
-0.170721
0.788386
0.964339
1.203827
0.677753
-1.420849
0.116532
1.457111
1.216276
-0.530160
0.153982
-0.642292
0.116103
-1.205976
1.117830
0.046320
-0.332776
2.499108
0.650040
-0.263157
2.489472
-0.144927
-0.284784
-0.615621
0.798104
0.191266
0.769938
0.951478
-0.575057
0.432893
0.980535
0.930919
1.129183
-1.352014
-0.452892
-1.337823
0.958532
-0.653957
-0.960687
-1.043421
0.945732
-1.282188
0.606855
0.442180
0.124195
-2.238740
-1.174510
0.527997
0.201894
-0.066426
-0.552263
0.751530
-0.835150
0.666427
0.406864
-0.338247
0.487435
-0.375433
0.800417
-1.173431
1.096622
-0.009525
-0.898403
0.813420
0.419610
0.940699
-0.196606
-0.015803
-1.801072
-0.191404
0.255366
0.354917
0.958613
0.552167
1.232447
0.043884
0.156146
0.446944
0.818133
1.462617
0.903435
-0.510858
0.395158
0.124853
-1.596710
-1.250146
0.897319
-0.659922
2.126098
-0.323782
1.296822
0.064705
-2.747505
-3.040053
-0.519448
-0.940137
-0.387355
0.033314
0.250271
0.439583
-0.229673
0.617881
0.492505
-0.452913
-1.504222
1.347941
0.622689
-0.017526
1.157608
0.374856
0.077886
0.351363
0.735134
-1.329719
-0.213614
-1.005227
0.996247
0.395778
0.269358
1.432785
-0.572551
-0.155937
1.789244
1.258565
1.374076
-0.817600
-1.653131
-1.079204
1.552605
0.759648
0.806032
-0.587561
0.565212
1.290575
0.800411
-1.582059
0.287436
1.389222
-1.077696
0.718902
1.070914
-1.060233
0.308979
-0.082324
-0.188915
0.498370
0.262935
-0.693813
0.123500
-1.873406
1.495481
0.958788
0.574227
-1.267698
0.192713
2.058319
1.187827
-0.819916
-0.008153
0.077094
1.529792
0.748585
0.010660
1.120649
-1.886905
-0.451483
0.976928
-0.879176
-1.106814
0.714340
1.454298
-0.111751
1.248428
-0.411630
0.750254
-2.026910
0.092998
-0.259862
-0.709621
-0.454799
-0.261000
-0.553554
1.296484
0.143086
0.602423
-0.423886
0.808048
1.566031
-0.871754
1.773659
-1.950765
0.981460
-2.009273
-0.038092
-0.727478
-0.203237
-1.611800
0.864638
0.312766
0.318906
-0.013936
-0.498715
-0.517620
1.163874
0.305776
-0.322917
-0.419773
0.826769
-0.865649
0.498074
0.212383
0.113569
0.715154
-0.405027
-2.194891
0.493757
1.340753
0.149432
-0.767188
0.522659
-0.137442
0.998530
-0.167145
0.526008
0.424766
-0.011220
-0.809350
1.545841
-2.194415
-0.844335
1.155214
-0.650705
-0.101417
-1.552925
-0.929752
0.130330
-0.881323
0.725790
0.275170
-1.345032
-1.001305
0.111601
-0.011518
1.803106
0.041526
2.253095
0.342331
0.895335
-0.453311
-0.661668
-0.140920
-1.294933
-0.070297
1.271246
-1.248683
-0.925414
0.374591
-0.450208
0.682801
1.935093
1.628890
1.250854
0.478929
-0.249122
0.020346
0.225125
-1.687094
0.645735
1.211769
-0.773165
-1.215064
0.281389
-0.316550
0.452166
-0.238867
-0.003237
-0.178505
0.280543
-0.607185
-1.527460
-0.169001
-0.277205
0.546200
0.377600
-0.615869
-0.667318
0.491238
-1.292799
2.181080
0.694465
-0.656228
0.164585
-0.740705
-1.552735
0.329019
1.080035
-0.615257
-0.192189
-0.675890
1.230099
0.192471
0.985621
-0.758856
-0.655921
-0.115911
-0.860305
0.705602
1.161377
1.196647
0.964864
-0.061734
-0.214286
-0.691429
-0.415358
1.685954
1.546151
-0.636541
0.238901
0.053155
1.049529
0.515376
0.055091
-1.029732
-0.813013
-0.296413
1.031868
-0.412099
-1.442730
1.425435
1.287671
2.312593
0.410089
1.139362
0.642993
0.455801
0.322593
-1.207984
-0.619547
