2
512
7
0.038247
0.079160
-0.001150
0.100274
0.069648
0.088967
0.042761
-0.024195
0.000255
-0.031110
-0.018723
-0.109741
0.023824
-0.116630
0.026647
0.010537
0.011257
0.015635
0.057590
0.059830
-0.038131
0.006574
0.003513
-0.029664
0.007984
0.023300
-0.012728
0.035701
-0.022651
0.010128
0.049365
0.029373
0.032115
0.050840
-0.064360
-0.037752
0.052711
-0.000612
0.015660
-0.088968
-0.122167
0.016329
0.059818
-0.007187
0.020890
0.029609
-0.087913
0.017661
0.021757
0.016681
-0.034049
0.042620
-0.041722
-0.066690
-0.025569
-0.047391
0.014780
-0.058341
-0.061257
0.047597
-0.006851
0.053066
-0.024490
-0.092165
-0.038634
-0.098515
0.007682
0.012815
-0.036128
0.038916
0.012625
-0.053392
-0.004532
0.003001
-0.000875
0.047962
-0.128387
0.019065
-0.041578
-0.009501
-0.005709
-0.051659
0.008584
0.000961
-0.001053
0.032906
0.048348
0.005882
-0.002134
0.036019
-0.034769
-0.012439
-0.060734
0.020917
-0.025856
-0.009374
0.057956
-0.056375
-0.028907
-0.053275
0.017982
-0.097994
-0.032854
-0.047901
-0.041977
-0.052349
0.027092
0.024460
0.039241
-0.038322
0.045434
-0.020818
-0.022009
0.050762
-0.002379
0.038914
-0.046331
0.067611
0.046101
-0.081096
0.005493
-0.020951
-0.036487
-0.020118
-0.056680
-0.014806
-0.054033
0.029754
-0.111240
-0.004150
-0.010784
0.038721
-0.005324
-0.007168
0.062810
0.004257
0.042597
0.011118
0.031629
0.057381
0.007867
0.043594
0.065989
-0.123839
0.002646
0.054670
0.032578
0.007351
-0.058389
-0.025071
-0.005710
-0.020928
0.012484
-0.031911
-0.043304
0.025075
0.021128
0.039760
-0.025255
0.061882
-0.077792
-0.023729
-0.009761
0.039792
0.025555
0.022996
0.045796
-0.024618
-0.010305
0.008525
0.014708
0.039253
0.045877
0.005438
-0.025421
-0.037586
0.008818
-0.076254
0.002858
0.048635
0.074085
-0.026020
0.077979
0.004650
-0.061013
-0.019878
-0.017188
-0.028725
-0.004219
0.022317
-0.029050
0.015763
0.032715
0.051426
-0.000144
-0.007186
0.038150
0.040480
0.010947
-0.036648
-0.078734
0.011435
0.033467
-0.002559
0.029155
0.005988
0.037110
0.014955
0.058704
-0.008597
0.018244
-0.031547
0.049280
0.006581
-0.027052
-0.012982
-0.016702
0.037430
0.009558
0.041489
-0.047955
0.028264
0.041442
0.032293
-0.042872
-0.037984
-0.006429
-0.066158
-0.002279
-0.105294
-0.050713
0.042327
-0.029654
-0.094478
0.038119
0.057792
0.002640
-0.014692
-0.000146
0.016581
0.004952
-0.050739
0.026903
-0.006395
0.010722
-0.023213
-0.001223
-0.003986
-0.035686
0.026787
-0.024456
-0.003942
-0.058639
0.015749
-0.022206
-0.011289
-0.017135
-0.006296
-0.076276
0.002300
0.030870
0.037022
0.013601
0.045470
0.041505
-0.096158
-0.014746
0.025926
0.003925
-0.000036
-0.070214
-0.021209
-0.016803
-0.088145
-0.062493
-0.004674
-0.004716
-0.116745
-0.005621
0.037948
0.036302
0.044498
0.052345
0.005015
-0.038322
0.019310
-0.038270
-0.029265
0.036308
-0.029217
0.072332
-0.007212
0.031769
-0.004305
-0.032080
0.012560
0.004727
0.057789
-0.000991
0.064861
-0.068721
-0.005904
0.006188
-0.022621
-0.010547
-0.006484
-0.014158
0.063814
-0.029735
-0.091020
-0.049951
-0.050888
0.045825
-0.062277
-0.020114
-0.010686
0.022518
-0.054649
0.004101
-0.010805
0.021585
-0.013861
0.043465
-0.065269
0.050146
-0.008618
0.058539
0.020463
-0.022420
0.007417
0.051630
0.089060
0.040765
0.007498
0.008161
-0.042079
0.006396
-0.031260
-0.077915
-0.031858
-0.045348
0.020068
0.030391
0.017219
0.062779
-0.012472
-0.039894
0.017105
-0.078443
0.059153
-0.057804
0.048954
-0.023768
-0.013737
-0.022031
-0.034376
0.003422
0.023150
0.132886
0.106476
0.039333
0.051959
0.007155
0.048905
-0.023697
-0.000500
-0.032066
-0.000574
-0.068501
-0.006437
-0.176293
0.013697
0.070427
-0.004415
0.034117
-0.016152
0.036621
-0.108410
-0.014516
-0.017307
-0.027596
-0.092818
0.066728
-0.027498
0.038267
0.030335
-0.008080
-0.007414
0.021446
-0.001632
0.054901
-0.043042
-0.002656
0.044247
-0.001901
-0.018814
-0.020523
0.056018
-0.054374
-0.038626
0.026521
0.056539
-0.034102
0.010150
-0.032799
0.002614
-0.035050
0.040979
-0.003350
0.023863
-0.015389
-0.061875
-0.000271
0.001572
0.023700
0.011413
-0.074644
0.043584
-0.001286
0.012128
-0.000994
0.053197
-0.029874
-0.055384
0.037396
-0.026417
-0.061419
0.019190
-0.010516
0.051902
-0.004936
0.028028
0.070676
0.018576
-0.000020
0.008869
-0.044969
-0.011128
0.027152
0.065223
0.020366
-0.010509
0.013282
0.054421
0.007216
0.063321
0.012987
-0.141339
-0.005741
0.013140
-0.031623
0.046854
-0.035058
0.022791
0.003065
-0.063112
-0.006854
0.019919
0.029315
-0.036331
0.042059
-0.171019
-0.029766
-0.032121
0.006254
-0.063659
0.037302
0.072746
0.011395
-0.036269
-0.039106
0.022200
0.008034
-0.002851
-0.009848
0.024569
-0.010606
-0.023984
0.002427
-0.009977
0.040005
0.033745
0.028057
0.026826
0.036861
0.005561
-0.050401
-0.011853
-0.058714
-0.055495
0.022485
-0.050556
-0.044420
0.006437
0.023813
0.016534
-0.008722
-0.039939
-0.017470
0.023060
-0.012431
-0.030866
0.017365
-0.000452
-0.054990
-0.027422
0.077005
-0.031146
-0.035449
-0.008854
-0.084217
0.009046
0.010895
-0.002158
0.011839
0.034242
-0.040037
0.013270
0.007146
-0.013102
-0.019004
0.042390
-0.072183
0.033961
-0.100833
-0.035198
0.069656
-0.025309
-0.004036
-0.010953
0.004113
-0.020073
0.059256
0.069739
0.034766
0.107087
0.073782
0.061919
-0.009992
0.007849
-0.013344
0.012891
-0.002602
0.012606
-0.026264
-0.022970
-0.078801
-0.046766
0.061815
0.033034
0.010785
-0.040906
-0.004023
-0.019483
0.008775
-0.021622
-0.026828
0.010518
-0.061256
-0.032344
-0.057877
-0.100892
0.033171
0.016464
0.024369
0.057793
0.002858
-0.031784
-0.013547
0.042094
-0.038101
-0.044611
0.005171
-0.043625
-0.012524
-0.002056
0.010611
-0.023154
0.014007
-0.000741
-0.016093
0.032928
-0.073846
0.057197
0.063082
-0.054590
0.017391
0.065433
0.042055
0.014254
0.005506
0.055346
0.002009
0.053655
0.073115
0.028168
-0.103447
-0.052521
0.013655
-0.032599
-0.069682
0.012837
0.044744
0.030195
0.023125
0.050314
-0.052690
-0.008152
-0.003338
0.029125
-0.027609
0.039939
0.012463
-0.055438
-0.005988
-0.063871
0.002346
-0.058864
-0.000664
-0.021798
-0.071791
0.044694
-0.121224
0.026856
0.002575
-0.012202
-0.009315
-0.025558
-0.027664
-0.013192
-0.047904
0.036185
-0.074950
0.014400
-0.079073
0.072178
0.020285
0.020175
-0.022469
0.058845
-0.007555
0.032937
0.046849
-0.079358
0.032916
0.023793
0.033074
0.014661
-0.021275
0.044472
-0.030061
-0.049233
-0.008622
0.000453
0.059117
-0.003242
0.047396
-0.063599
0.020507
0.036490
0.079137
0.034755
0.000968
0.012643
-0.097494
0.048383
0.090000
-0.023988
0.014596
0.044633
0.021209
-0.047145
-0.013495
0.014893
0.110181
0.010610
0.008108
0.063217
-0.136949
-0.017069
0.019737
-0.067879
0.015677
-0.088134
-0.000089
0.003665
-0.063215
-0.002518
0.026566
-0.043361
0.010415
0.029091
-0.040395
0.052356
-0.041869
0.051979
-0.031701
0.077706
0.013000
0.035421
-0.072491
0.013219
0.029546
0.011446
0.025322
-0.079090
-0.006033
-0.062951
0.079129
-0.044337
0.098557
-0.004456
-0.008636
0.018124
-0.036870
0.023671
-0.002569
0.038445
0.053795
-0.007575
-0.130346
0.019579
-0.031160
-0.009266
0.003664
0.032475
0.003135
0.010678
-0.036724
0.015681
0.057979
0.049968
0.007141
0.090909
0.118602
0.056525
-0.085585
-0.046612
0.026909
0.060110
0.086730
-0.061607
-0.054304
-0.015300
0.039127
0.020841
0.023317
0.033088
-0.035382
-0.013656
-0.039882
-0.056185
0.055940
0.004519
-0.040619
0.018118
-0.034128
-0.033508
-0.010010
0.040675
0.060768
-0.005977
-0.013402
-0.020981
0.042390
-0.033223
-0.014244
-0.033557
-0.009728
-0.047325
-0.049042
-0.012571
0.044008
0.002231
0.035566
-0.000679
-0.080570
0.006405
0.009601
-0.030607
0.019739
0.038889
-0.054029
-0.002993
0.037078
-0.018891
-0.029690
0.026414
0.011002
0.029013
0.050736
-0.064952
0.040255
-0.061602
-0.009882
-0.043689
-0.013612
0.013934
-0.078901
-0.018535
0.016085
0.011824
-0.076655
0.046978
0.057496
-0.004455
-0.001742
-0.031217
-0.009042
-0.028353
0.047396
-0.036723
-0.043841
-0.058805
-0.059585
0.026631
0.084171
0.072881
0.016777
-0.026499
-0.022369
0.044850
0.002328
-0.033494
-0.043126
0.078513
-0.039519
-0.057516
-0.005369
0.043022
0.004168
-0.019228
-0.020265
-0.022184
0.067047
0.042965
0.092084
0.037660
-0.009199
-0.005387
0.001566
-0.009541
0.034021
-0.001626
0.083812
-0.057588
0.004160
-0.092263
0.053744
0.000001
0.002606
-0.032756
0.009453
-0.020501
-0.052496
-0.013667
-0.044811
-0.036007
-0.004696
-0.002553
-0.018620
-0.063195
0.035826
-0.042267
-0.029376
0.055631
0.045444
-0.012005
-0.025467
0.004594
-0.048702
-0.075113
-0.008147
-0.035560
0.044219
0.045811
0.007137
-0.027800
-0.034066
-0.011551
0.015831
-0.004596
0.062377
0.019724
0.077438
0.039086
0.028029
0.050581
-0.055579
-0.000817
-0.011347
0.085369
0.057834
-0.022236
0.003275
-0.035135
-0.008088
0.048659
0.004797
-0.027948
0.030769
0.007877
-0.008381
-0.052496
0.029153
0.015488
-0.039936
0.101861
0.011584
0.001568
0.054041
0.026637
0.033732
0.054100
-0.044244
0.051667
-0.090308
-0.054823
-0.006244
0.013962
-0.023079
0.057554
0.039174
0.076557
0.082574
-0.050517
0.009819
0.041212
0.006822
-0.011705
-0.011133
-0.029197
0.072112
-0.024744
0.031403
0.036535
0.023912
-0.024521
-0.030747
-0.006077
-0.030485
-0.007698
-0.047493
0.003187
0.141019
0.033751
0.034655
-0.034139
-0.050637
-0.023028
-0.000563
0.032715
0.002273
0.002505
-0.025105
-0.019410
0.049424
0.008442
0.005828
0.011733
-0.045002
-0.020800
0.001954
0.003670
0.074664
-0.006253
0.012038
-0.015063
-0.065783
0.007140
-0.099195
-0.034851
-0.005187
-0.015392
0.023916
0.006876
-0.012711
-0.054030
0.090055
0.017927
-0.007908
0.023077
0.021991
0.022785
-0.004909
0.012361
-0.072120
0.034363
0.020337
0.062518
0.002898
-0.059165
0.014415
-0.081148
-0.042027
0.054888
-0.048700
0.001207
-0.058720
-0.019267
-0.034237
-0.021858
-0.013179
-0.002724
-0.004413
-0.049322
0.015440
0.037514
0.000776
0.028332
0.018880
-0.022332
-0.040050
-0.026991
0.066386
-0.034451
0.047757
0.028917
-0.073324
0.023294
-0.034299
-0.032853
-0.008861
0.029213
0.002046
-0.046191
0.064147
-0.061139
-0.050013
0.069002
0.034922
-0.075186
-0.035454
0.034748
-0.040862
-0.113198
0.037430
0.041388
-0.011559
0.038687
-0.016368
0.018578
-0.032286
0.053767
0.013621
-0.016905
0.039151
0.035577
0.024925
0.018165
-0.034035
-0.043186
-0.010075
0.031993
-0.011855
-0.027683
-0.024323
0.021575
-0.061029
0.050789
0.064780
-0.001898
-0.070503
-0.019415
-0.011483
0.056828
0.071616
-0.006284
0.035513
0.009548
-0.060736
0.070005
0.052127
0.035114
0.023722
-0.029934
-0.016052
-0.096834
-0.008347
0.020915
-0.010609
-0.035691
-0.085690
-0.005370
0.013045
-0.056545
-0.005504
0.012530
-0.004092
-0.039582
0.022553
0.014670
-0.086184
-0.054855
0.046936
-0.018978
0.027777
-0.050030
-0.008387
0.018385
-0.016382
-0.051606
-0.035964
0.029342
0.052458
-0.049644
0.056046
0.084469
0.042445
0.027034
0.049431
0.064791
-0.018531
0.054651
-0.035188
0.097184
-0.023919
0.005701
0.066660
0.002875
-0.023694
-0.003820
-0.052848
0.003504
0.018448
-0.027393
0.010655
-0.034809
-0.027579
0.001611
-0.029748
-0.080139
-0.016061
0.001130
0.023227
0.032553
-0.014339
0.020433
0.045920
0.059666
0.019720
-0.000752
0.075672
0.071075
-0.001305
0.043845
0.036721
0.015922
0.015261
0.068586
0.039216
0.038232
0.006125
0.064453
-0.003701
0.025302
-0.051059
0.038659
0.064745
0.019813
0.043538
-0.082350
0.002802
-0.057182
0.035363
0.029824
-0.038777
-0.028577
-0.041313
-0.065270
-0.079595
0.035613
0.031867
-0.010067
-0.029202
-0.070700
-0.000333
0.063380
0.015261
0.062744
-0.017785
0.007329
-0.066000
-0.022975
0.017505
0.005156
-0.024890
-0.044020
-0.006324
0.003616
-0.004726
-0.074383
-0.029514
-0.001513
-0.003604
0.057653
-0.004610
0.064303
0.038920
0.017061
0.004070
-0.019551
-0.010034
-0.002887
-0.032070
-0.024910
-0.055463
-0.004376
-0.108687
0.006369
-0.016281
-0.008790
0.026521
0.021239
0.024211
-0.056129
-0.026336
-0.055833
0.008525
0.044228
-0.019306
-0.014898
-0.026054
0.031812
-0.005877
-0.092001
0.012839
-0.027352
-0.041568
-0.017911
-0.039090
0.025697
-0.029716
-0.009551
-0.026229
-0.026390
-0.018469
-0.016616
0.021411
0.070285
0.000599
0.019249
-0.018341
-0.012438
0.036708
0.022993
-0.016708
-0.032678
0.124099
0.040933
0.056298
0.035421
0.014448
0.021773
-0.020425
0.011161
-0.034613
0.025910
0.018500
-0.006987
-0.003774
-0.034044
-0.009311
0.047018
-0.015249
-0.053093
0.016612
-0.009941
0.061094
0.078448
-0.005608
0.061407
0.039391
-0.039901
0.017898
-0.027124
0.038426
-0.001939
0.008753
0.032410
-0.096105
-0.007468
-0.041345
-0.009918
-0.008076
-0.008267
-0.038696
0.014130
0.028974
-0.014083
-0.008075
0.023752
-0.051556
-0.039334
0.027230
0.018923
0.018366
-0.012305
-0.046963
-0.000473
-0.057084
-0.086387
0.002813
0.015407
0.042915
0.053103
-0.011978
0.000393
0.089047
-0.020115
-0.005779
0.004470
0.031435
0.010578
0.068638
-0.029959
-0.005946
-0.007958
-0.009501
-0.092235
-0.057268
-0.086035
-0.050183
-0.028196
0.063895
0.095046
0.101058
-0.002112
0.067756
-0.114379
-0.061531
0.014396
-0.062558
-0.004452
-0.029873
0.039528
-0.015350
0.020260
0.022530
0.037749
-0.006194
0.041405
0.050727
-0.051950
-0.031260
-0.023537
0.018168
0.028038
-0.049702
0.034474
-0.059376
-0.039308
-0.067993
-0.067518
0.054860
-0.070898
-0.027198
-0.015528
0.060397
0.001260
0.078997
-0.023213
0.007624
0.080513
-0.008319
-0.007288
-0.017567
-0.020363
0.060425
-0.009969
-0.068347
0.039878
-0.041688
-0.034150
-0.098029
-0.110071
-0.092912
0.012622
0.007839
-0.071138
0.092516
-0.029633
0.029791
0.029888
0.028465
-0.019377
0.030926
0.052169
0.055233
-0.002469
0.016746
0.016807
-0.106730
0.017109
0.035052
0.047235
-0.033760
-0.000120
0.143632
0.001252
0.023018
0.016149
0.007836
0.001154
-0.041351
0.053104
-0.098420
0.008170
0.014450
0.021856
-0.003433
-0.068355
0.042521
-0.014492
0.058889
-0.010011
0.049810
0.033543
-0.085049
-0.042082
0.009038
-0.026896
0.023337
0.059077
0.040079
-0.051476
-0.012894
-0.057639
-0.018390
0.043924
0.028778
0.032051
0.046363
0.030337
-0.028460
0.045292
0.049767
0.076279
0.075748
-0.040696
0.008759
-0.003961
0.068319
0.011100
-0.002093
0.038295
-0.037300
-0.051777
-0.098559
0.022212
0.112757
-0.021006
0.060427
0.077517
-0.030325
-0.003580
0.031924
0.069232
0.015122
0.030541
0.018771
-0.039916
-0.020742
0.014255
-0.064240
0.032488
0.005389
0.048772
-0.029575
-0.022873
0.055064
0.005080
0.062986
0.027056
-0.037159
0.007653
-0.189177
-0.002633
-0.035549
-0.018204
0.059752
-0.046736
-0.014668
-0.026280
-0.081935
0.029340
0.049155
0.024261
-0.046059
0.039923
0.012927
0.022970
0.047246
0.015352
-0.011500
0.016465
-0.023068
0.025492
-0.007081
0.039548
-0.124930
0.043252
0.007930
-0.025547
-0.132827
-0.046594
-0.023096
-0.013882
0.020652
-0.060427
-0.004214
-0.011819
0.002081
-0.003234
0.050924
0.019167
-0.107364
0.022269
-0.178312
0.017858
-0.007264
-0.026838
-0.003411
0.050803
0.030987
0.009414
0.104352
-0.011747
-0.074530
-0.046636
-0.049097
0.115468
0.019504
-0.020087
0.012461
0.075701
0.090175
0.050442
-0.063239
0.045310
-0.002338
-0.055177
0.057493
0.033225
0.011464
-0.013182
0.030964
0.089445
0.042244
0.018863
-0.001311
0.026523
-0.012759
0.015320
-0.022248
0.015543
0.037083
-0.008677
-0.077919
0.035810
-0.012701
0.009179
0.061441
-0.041775
-0.026541
-0.062065
0.000707
-0.039269
0.047002
0.018435
-0.024560
0.037918
-0.062630
-0.023943
0.012970
-0.051624
-0.007626
0.006146
0.063733
-0.051889
-0.017889
-0.020939
-0.025392
-0.008418
-0.032696
0.064194
-0.009991
-0.002358
0.049702
0.111678
0.069857
0.041208
0.008601
-0.019076
0.015427
-0.015368
0.006921
-0.010972
0.080591
0.014039
-0.005590
-0.011035
-0.126382
-0.059694
0.016729
0.059182
0.038446
-0.066784
-0.060674
-0.020854
-0.032545
-0.008942
-0.060261
0.038758
-0.033654
-0.012814
0.044068
-0.022358
0.043352
-0.041823
0.001368
0.023024
0.105245
0.024268
0.023547
0.011543
-0.021301
-0.000399
0.009054
-0.002500
-0.125626
-0.016904
-0.058504
0.033309
-0.014335
-0.007599
-0.022441
0.007453
0.115941
0.020051
0.047771
0.063046
-0.034761
-0.015209
-0.029750
-0.004246
0.055318
-0.038154
-0.021974
-0.068270
0.003249
0.023165
-0.006375
-0.024775
-0.061815
-0.075246
-0.051065
0.033889
-0.032565
0.032810
0.014566
-0.037459
0.044335
0.025280
-0.044722
-0.029387
-0.029521
-0.020017
-0.001822
-0.010429
-0.004875
0.004882
0.009817
0.018738
-0.006706
0.070475
0.038155
0.022922
0.055058
-0.041500
0.073867
-0.078401
0.005103
-0.068891
0.038168
0.054322
0.024194
-0.003317
0.007753
0.029969
0.001546
-0.030019
-0.015196
0.027657
-0.019329
-0.012694
0.043786
-0.068154
-0.018378
0.074477
0.070304
-0.023049
0.086222
0.028336
-0.043798
0.045565
0.002201
0.024817
-0.049724
0.028251
-0.012135
-0.002330
0.024508
0.035236
0.012453
-0.012275
-0.028418
0.033438
0.022771
-0.029493
0.061132
-0.018609
0.023275
0.034966
-0.000294
0.082215
-0.016698
-0.038989
-0.104760
0.005573
0.033934
0.045862
0.006216
-0.021155
0.026100
-0.034385
0.045310
-0.037579
0.061144
-0.014757
0.003859
0.060452
0.022379
0.040434
0.035795
-0.064021
-0.037988
0.003895
-0.039738
-0.011842
-0.037322
0.006032
-0.027949
-0.033185
0.070391
0.052117
-0.038303
0.005426
-0.060594
0.005370
0.015226
-0.060458
0.008169
-0.109086
0.020906
0.012312
0.029858
0.048804
-0.011827
0.033694
-0.111726
0.039001
0.023850
0.016425
-0.019995
-0.101158
0.043805
-0.050796
0.006480
0.057986
0.020635
0.023613
0.009286
0.045445
0.034443
0.035707
0.009320
0.034777
-0.024219
-0.074788
0.086479
0.065800
-0.051208
0.004793
0.066825
0.001552
0.033752
0.001612
-0.007022
0.043036
0.032231
0.065408
0.086761
-0.050193
0.045816
-0.071557
-0.008180
0.008624
0.069000
-0.073470
-0.081051
-0.016786
0.068659
0.053023
0.064614
-0.013938
-0.018680
0.012121
0.069325
0.007612
-0.087370
0.003223
-0.062513
-0.066281
-0.027910
-0.058171
0.034553
0.010154
-0.029332
-0.044513
0.077109
-0.038711
0.008138
-0.052582
0.074777
0.085012
0.049765
0.044891
0.033430
-0.005536
-0.039693
-0.030053
-0.014957
0.012279
0.021225
0.012714
-0.007280
-0.026526
0.033944
0.038608
0.021455
0.075055
0.006411
0.073980
-0.027942
-0.028918
-0.024634
-0.010132
0.026392
0.034834
-0.066714
-0.045515
-0.026803
0.072110
-0.046873
-0.009121
0.000379
0.056923
-0.014239
0.025328
0.058013
0.001483
-0.084188
0.087622
-0.028435
-0.033360
-0.025796
-0.027767
-0.048169
-0.021408
-0.023602
0.039179
-0.009912
0.034200
0.008122
0.003576
0.042858
0.029662
0.008184
0.036877
0.024424
-0.065731
0.055934
0.026103
-0.055673
0.002677
-0.012205
-0.013022
0.038055
-0.017785
-0.026535
-0.059782
0.029434
-0.102375
0.008368
0.031553
-0.003322
0.044964
-0.057126
0.046838
-0.071595
0.015846
0.015156
-0.052703
-0.008456
-0.064150
-0.046780
-0.017550
0.037168
0.002156
0.032302
-0.022576
0.019655
0.002618
-0.085205
0.061007
-0.027516
0.033253
0.030348
-0.020526
0.035808
-0.144455
0.027478
0.045186
-0.029218
-0.000704
-0.019101
-0.030489
-0.012250
-0.025575
0.000766
0.048765
0.039424
-0.019090
-0.026343
-0.005463
-0.020462
0.070500
-0.010783
0.075709
-0.086126
-0.034617
-0.003718
0.030876
0.043578
0.066879
-0.003919
-0.043271
-0.015751
-0.071224
0.036793
0.053030
0.044917
-0.022457
0.006371
-0.071283
-0.076732
0.095257
0.020410
0.006202
-0.005227
-0.042448
0.024952
0.083693
-0.018435
0.051954
0.000194
0.011993
-0.091696
0.022960
0.015479
0.062280
-0.009852
-0.003947
0.064551
-0.062894
0.056493
-0.033969
-0.082614
-0.034425
0.039281
-0.027134
0.029205
0.054560
-0.016089
0.029071
-0.045258
0.097181
-0.010049
-0.040850
0.042518
-0.030908
0.040729
0.007924
-0.038228
0.003352
-0.037626
0.032151
0.017797
-0.030952
-0.004571
0.011358
-0.053270
-0.004890
-0.008479
0.052753
-0.037151
0.107715
-0.011971
-0.030136
-0.021397
-0.020893
-0.014794
-0.002247
0.093833
0.085634
-0.024842
0.008702
0.031355
0.002490
0.034511
0.006994
0.056387
0.017256
-0.023985
0.089782
0.021760
0.073621
-0.013990
0.060230
0.023659
0.089391
0.052147
0.044304
0.003067
-0.031033
0.047679
0.031301
0.023629
0.027383
0.046260
-0.060820
-0.025172
-0.006839
-0.013200
-0.003881
-0.014888
-0.075772
0.002406
-0.005289
-0.108237
-0.019299
0.067131
0.010481
0.082520
-0.033533
0.048173
0.074679
-0.033512
0.008748
-0.016401
-0.060361
-0.073120
-0.065872
-0.061573
-0.009200
-0.028444
0.032633
0.007489
-0.017383
-0.065768
-0.009742
-0.017696
0.001151
0.012747
-0.095844
-0.048910
0.019813
0.043760
-0.018984
0.035946
0.048012
-0.013469
0.059193
0.022185
0.034660
0.056443
-0.007554
0.044160
-0.029674
-0.032776
-0.002332
0.034189
0.058334
0.014611
0.059896
0.016019
-0.031810
-0.055833
0.042929
0.006155
0.009355
-0.019746
0.011851
-0.016938
0.021488
0.022910
0.001065
-0.032192
0.039394
-0.014298
-0.047959
-0.009888
0.030635
0.006565
0.054446
-0.057872
0.024086
0.002987
0.050040
0.037734
0.037133
-0.051029
0.084344
-0.078163
-0.066351
0.066832
0.024829
-0.000086
0.003929
0.002215
-0.087510
0.043991
-0.006515
0.044259
-0.016337
0.020134
0.017067
0.002652
0.013996
0.025805
0.041600
0.048180
0.011671
0.001749
-0.137569
-0.040915
0.044417
0.062565
0.030447
-0.019385
-0.050789
-0.078837
0.034921
0.030232
-0.041041
0.011071
-0.001801
-0.055601
-0.070715
0.030754
0.010827
0.010318
-0.024567
0.056323
-0.023931
0.010298
-0.027755
0.000550
0.013832
0.003204
-0.001113
-0.030280
-0.001387
0.061667
0.064950
0.078049
-0.004373
0.082547
-0.065905
-0.085136
0.007404
0.052258
-0.015025
0.074600
-0.036220
0.069962
-0.074177
0.004043
-0.028672
0.009178
0.020089
-0.011552
-0.007884
-0.082490
-0.011379
0.025470
0.001729
-0.005000
0.027966
0.025370
-0.027240
-0.015602
0.040728
0.000725
0.058536
-0.037548
-0.051110
0.054631
-0.053768
-0.020093
-0.026741
-0.055260
-0.019697
0.008165
0.006896
0.046577
0.062117
0.054777
-0.014014
0.020680
-0.046398
0.086727
0.031277
-0.014962
-0.010584
0.020411
0.008347
0.068031
-0.025275
-0.025179
0.070561
-0.004689
-0.060865
0.006549
-0.017340
-0.033788
0.006569
-0.076627
0.089151
0.031857
-0.018558
0.063324
-0.008312
0.012770
0.015495
-0.023528
-0.064462
-0.047194
0.042409
-0.046694
0.035095
0.001248
-0.006700
-0.046815
-0.008828
-0.006885
0.020595
-0.041156
-0.004677
0.000280
0.004630
-0.056318
-0.048153
0.055883
-0.003351
0.040439
-0.043460
-0.053290
0.012675
0.005092
-0.058537
0.009851
0.022786
-0.012693
-0.003169
0.018763
0.059226
-0.039544
0.052308
0.020379
-0.039801
0.029968
0.055870
0.069266
-0.018143
-0.040138
-0.043310
-0.015479
0.006722
0.065709
-0.000253
-0.081925
0.011777
0.021427
0.046571
-0.021030
0.045727
-0.024244
-0.080059
-0.046794
-0.019762
0.003850
0.025454
-0.091704
0.042213
0.057026
-0.007933
-0.018141
0.097433
0.003837
0.037861
-0.078225
-0.005751
-0.106633
0.014833
-0.036298
-0.041739
-0.092250
0.057363
-0.022876
-0.056093
-0.034218
0.026336
0.025284
0.011934
0.092822
0.079152
-0.019466
-0.018664
-0.019886
0.012867
-0.086137
0.015104
-0.079243
0.021369
-0.033569
0.109636
-0.003936
-0.035444
0.013651
-0.021776
-0.012164
-0.008769
0.012659
-0.090246
-0.070131
-0.032825
-0.007678
0.003571
0.036735
0.000592
0.032805
-0.040868
-0.021710
-0.056886
-0.024020
-0.022006
-0.028967
0.071105
-0.056628
-0.046774
-0.002063
0.024517
0.006419
-0.031775
0.014518
0.009097
0.080301
-0.063838
-0.030007
0.030210
-0.029317
0.038863
-0.063000
0.053664
-0.037789
0.005265
-0.017139
0.114273
0.014675
0.100122
-0.021801
0.037647
-0.043458
-0.030056
-0.005475
-0.029904
0.014029
-0.014029
-0.001194
-0.023942
0.023709
-0.041995
0.037083
-0.035778
0.034973
-0.069291
0.007171
0.050884
-0.010869
0.029459
0.007595
-0.013396
0.013204
0.058533
0.067533
-0.002314
0.051166
0.001468
0.010169
0.065934
0.021206
-0.065595
0.001235
0.075805
-0.003903
-0.021390
0.028692
-0.022757
-0.059198
0.047066
0.016345
-0.007743
0.057052
0.025833
-0.096274
0.008373
0.024839
0.002250
0.036355
0.044120
-0.043844
0.041026
0.006375
-0.038616
-0.008666
-0.070429
-0.003579
-0.012257
0.025237
0.002099
0.007907
0.059881
0.010542
-0.016128
-0.076933
0.041376
-0.006985
0.013552
-0.003355
-0.027858
0.022757
0.025616
-0.024228
-0.000918
-0.079166
0.019066
0.004126
0.078878
0.009407
0.035062
-0.036960
0.054171
0.061587
0.050644
0.017309
-0.001359
-0.014722
-0.059237
-0.042865
0.006418
0.027634
0.021809
0.033736
-0.090902
0.039464
0.005870
0.053065
0.044489
-0.019589
-0.026150
-0.094321
-0.044013
-0.010878
0.017007
-0.059204
-0.015307
-0.082657
-0.036882
0.006961
0.066352
0.034249
-0.005806
-0.002172
0.002670
-0.008676
0.041275
0.032364
0.005949
-0.004936
-0.019559
0.016839
-0.043688
-0.005917
0.009728
0.001379
0.032401
0.019064
0.072136
-0.003435
-0.024948
0.015987
0.016301
-0.032394
-0.000367
0.033465
0.030280
-0.037437
0.036196
0.012498
-0.037931
-0.007170
-0.058138
0.012761
-0.009193
0.032373
0.107353
-0.084979
0.004448
-0.047552
0.018213
-0.025904
-0.005534
0.040623
-0.014508
-0.018574
-0.141682
-0.003786
-0.025038
0.066202
0.035222
-0.054248
0.067239
-0.004478
0.023783
-0.003572
0.048994
0.068023
0.001282
-0.009057
-0.123090
-0.027718
-0.073771
-0.007333
-0.002230
0.068718
0.014958
0.061898
0.044305
0.040279
-0.004523
-0.058025
-0.004239
-0.020691
0.050225
-0.009896
-0.011570
-0.036911
-0.001964
-0.054332
0.096583
-0.105130
0.043872
0.068611
-0.034029
-0.048248
-0.010085
0.049227
0.044742
-0.032378
0.027493
-0.018412
-0.075312
-0.003883
0.092260
-0.026685
-0.058604
0.020147
0.056613
0.055967
0.026336
0.010429
-0.071107
-0.020225
0.000272
-0.025007
0.030813
0.093499
-0.038087
-0.097425
0.065855
-0.040220
-0.003246
0.039734
-0.037889
-0.109430
-0.056786
-0.059119
-0.090811
0.054557
0.075372
-0.005917
0.039817
0.004027
-0.013137
-0.052137
0.041907
0.054854
0.009205
0.032609
-0.008023
0.035634
0.058994
0.014428
-0.022266
0.054374
0.043930
0.047653
-0.037671
-0.081713
0.092010
0.004502
0.090720
-0.026855
-0.035394
-0.000058
-0.052540
0.045966
0.029810
-0.052805
0.016287
-0.058139
0.010319
-0.014980
0.001489
-0.042205
-0.028041
0.004188
-0.096778
-0.018720
-0.040731
0.009899
-0.047846
0.000197
-0.027055
0.022724
0.083405
-0.003554
0.056361
0.001958
0.007892
0.031069
-0.075402
0.041068
0.017779
-0.017712
0.047201
0.027274
-0.090285
0.073143
-0.040598
0.033974
0.065250
0.014556
-0.065613
0.003277
0.009751
0.006268
-0.002198
-0.036792
0.094860
0.021007
0.042101
0.022610
0.003969
0.016025
0.029688
0.069945
-0.004028
0.009965
-0.006596
0.025277
-0.023689
0.015686
0.010021
0.021989
-0.011345
-0.042523
-0.061656
-0.020631
0.000506
-0.011712
0.038073
0.004269
-0.004738
0.014004
0.050407
-0.010567
-0.030940
-0.001397
-0.050936
-0.035951
-0.019123
0.019227
0.064002
0.070446
-0.051399
0.063803
-0.017932
-0.032839
0.000337
0.017214
0.034087
-0.023015
0.014892
-0.088041
0.027257
0.009492
0.093969
-0.012658
-0.092604
-0.034447
-0.048149
-0.013222
0.100181
0.004849
-0.054477
-0.112650
-0.025526
-0.069447
-0.043763
0.034357
0.029046
-0.003974
-0.006462
0.073101
0.046711
-0.016351
0.032721
0.001468
0.014087
-0.034124
-0.054611
-0.030797
-0.069776
0.000393
0.008347
0.046877
-0.077463
0.063953
0.038082
-0.004410
-0.038713
-0.026005
0.107576
0.026986
-0.093532
-0.066922
-0.068081
-0.026418
-0.026231
0.005704
-0.070794
0.003722
0.045074
0.018873
-0.003731
0.045968
0.002580
-0.059458
0.062835
0.043497
0.001800
0.006518
0.019967
0.043368
0.050443
0.094208
-0.019264
0.008209
-0.029936
-0.002876
0.016338
-0.027371
0.002158
0.011392
-0.028257
-0.001714
0.043731
0.036039
-0.090495
-0.042068
0.063114
-0.004841
-0.028936
-0.043916
0.039748
-0.014725
-0.011473
0.039526
0.122845
0.012622
0.013956
0.031775
0.012883
-0.011063
-0.107209
-0.018619
0.022089
-0.010183
0.009240
0.024922
0.041268
-0.022947
-0.005239
-0.006464
0.022350
0.025532
-0.003562
0.019972
-0.057362
-0.030305
-0.041773
0.073849
0.062447
-0.075515
0.041615
-0.161655
-0.035471
-0.054159
0.058280
-0.051052
0.084704
-0.029512
0.051296
-0.027588
-0.154076
0.019179
0.049305
0.004709
-0.001868
-0.022608
-0.045142
-0.025559
0.000376
-0.035022
-0.064225
-0.001687
-0.004861
-0.037112
-0.026028
0.032744
0.035971
-0.056167
0.016363
-0.008791
0.012382
0.034123
0.058376
0.039831
-0.004165
0.078844
-0.163279
0.003755
-0.023779
-0.049085
0.063079
-0.026263
0.000294
-0.029519
0.041771
-0.062833
0.000592
-0.012954
-0.093041
-0.011721
-0.108602
-0.017068
0.060499
0.011304
-0.012831
0.016909
-0.055543
-0.011505
0.005206
-0.043429
0.020231
0.001232
0.083418
-0.054007
-0.111061
0.047669
-0.042994
0.052170
0.061613
-0.006666
0.080360
0.010504
0.003088
0.003294
0.001334
0.044510
-0.034965
0.026402
-0.054723
0.029783
0.043766
0.022147
0.027861
0.062216
0.046204
-0.142268
-0.004390
0.049052
0.034171
-0.022849
-0.018902
-0.022435
-0.094940
-0.003319
0.050013
-0.066220
0.004512
-0.034372
0.060051
-0.064723
0.047213
0.023340
0.056968
0.026740
0.008567
0.044516
-0.099863
0.043447
-0.026381
-0.022279
0.005183
-0.036241
0.029458
0.007645
-0.029470
-0.053787
0.040248
0.002651
0.009909
0.075123
0.012421
0.007471
0.022044
0.056707
-0.025713
0.002793
-0.053190
-0.005126
-0.042464
-0.025725
0.003823
-0.014395
-0.060857
-0.132964
-0.003932
-0.079650
-0.009762
-0.041108
0.028792
0.040006
0.046104
-0.020717
-0.014128
-0.025821
-0.038286
-0.048064
-0.071056
0.052422
-0.071844
0.025873
-0.023737
0.001425
-0.030413
0.045482
-0.056936
0.007007
-0.024906
0.097436
-0.018213
0.027108
-0.028939
-0.089965
-0.012182
0.015400
-0.002008
-0.028301
-0.013251
-0.043080
-0.000585
0.003270
-0.026100
0.048435
-0.023453
-0.024264
-0.091313
-0.018765
0.018521
0.017768
0.034836
0.058599
-0.028161
-0.049480
0.027616
-0.026607
-0.005874
0.006743
-0.029291
-0.010887
-0.050401
-0.020818
0.029904
-0.013231
-0.009447
0.010952
0.014103
0.012048
0.001549
-0.026527
-0.049108
0.002545
0.041472
0.031686
-0.063905
0.035016
-0.006291
0.042124
0.017975
0.056542
0.045198
-0.018664
0.013134
0.013667
0.000497
-0.028400
-0.012116
-0.023450
0.000802
0.015011
-0.015678
0.079646
-0.043393
0.071259
0.053367
0.009109
0.069017
-0.010092
-0.020144
-0.038501
-0.016385
-0.008647
0.018699
0.000289
-0.068598
-0.029332
0.005950
0.019136
-0.031854
0.014763
0.041459
0.020641
0.015739
-0.009223
-0.054135
0.001677
0.014428
-0.010184
0.003461
0.027859
0.010967
0.081831
0.050031
-0.037070
-0.010965
0.056930
-0.005382
-0.008351
0.018336
-0.062192
-0.004536
0.004972
-0.134920
-0.016685
-0.013984
-0.005173
0.024980
0.032456
0.002183
-0.021216
-0.022727
-0.039771
0.052673
-0.025496
0.065478
0.020397
-0.042207
-0.021471
0.025579
-0.002920
-0.052987
0.028771
-0.001355
0.003260
0.047067
0.038437
0.034587
-0.003990
-0.011363
-0.032119
-0.050576
-0.016971
0.054310
-0.012810
-0.054333
-0.071165
0.005811
-0.048126
-0.021639
-0.016979
-0.008777
-0.026147
-0.086014
0.043961
-0.048690
-0.025177
0.030364
0.034646
-0.021034
0.089198
-0.012557
-0.000314
0.014617
0.014537
-0.077130
0.030847
-0.002210
-0.006108
-0.094497
0.067377
-0.090750
-0.109043
-0.015131
0.018951
-0.029397
0.034117
0.025322
-0.047278
0.059610
-0.046799
0.000678
0.024878
-0.006147
-0.020983
-0.009287
-0.040364
-0.027722
0.049730
-0.012110
-0.033141
0.026959
0.001621
0.036966
0.061279
-0.005484
0.026273
0.033328
0.029130
-0.019602
0.080937
-0.017944
-0.011671
0.011813
-0.049763
0.065261
-0.001141
0.042175
-0.024918
-0.027741
-0.035897
0.052909
-0.000839
0.037426
-0.012786
0.015638
-0.024471
-0.047483
-0.008346
0.049787
-0.017969
-0.060728
0.034097
0.004095
0.040543
-0.024819
-0.013167
-0.030976
0.022482
-0.011256
-0.017667
-0.017993
-0.035150
-0.016326
0.034834
-0.008293
0.071007
-0.023612
-0.067231
-0.018472
0.000732
0.000057
0.026223
0.087575
0.103758
0.019478
0.005014
0.004203
-0.015407
0.013078
0.055351
0.001281
0.013875
-0.017031
0.037474
0.082710
0.052136
-0.062887
0.037057
0.037440
-0.004229
-0.040471
-0.002927
0.026531
-0.069960
-0.013986
-0.018019
-0.070007
-0.020040
-0.026618
0.072869
-0.012325
-0.058963
0.030449
-0.012572
-0.017167
0.033962
0.004135
-0.014371
-0.000304
-0.052843
0.011324
0.032759
0.000851
-0.028411
-0.022453
0.013926
-0.035237
-0.080267
-0.008941
0.040685
0.057782
0.003675
-0.057721
0.035724
-0.120165
0.009665
0.029575
-0.013629
-0.045674
-0.090760
-0.099069
-0.033297
-0.015076
-0.012317
-0.039811
0.017655
-0.025772
0.045286
-0.055844
0.063801
-0.002290
0.026763
-0.042036
0.083165
-0.010632
-0.078963
0.004507
0.001836
0.066713
0.038992
0.012823
-0.008386
-0.019641
0.037757
0.006113
0.082284
0.032274
0.016761
0.023233
0.078853
0.007076
0.044942
0.015253
0.046513
0.010286
0.066790
-0.048737
0.021113
0.011994
-0.033955
0.081136
0.090688
-0.037975
0.011064
0.035084
-0.001955
0.033722
0.027801
0.050248
0.010300
-0.069928
0.100053
0.001168
-0.011662
-0.079711
0.005246
-0.021681
-0.088763
-0.003803
0.045339
-0.010346
0.036214
-0.024683
0.017568
-0.040667
0.015751
-0.007205
-0.027662
-0.009272
-0.049406
-0.007126
0.017443
-0.011871
0.059115
0.039467
-0.035551
-0.059823
0.024239
0.004505
-0.003965
-0.069266
-0.012096
0.020651
0.009225
-0.001600
-0.009183
0.023951
-0.017400
-0.004821
-0.019836
-0.007271
-0.015480
-0.136648
-0.013062
-0.062146
-0.042041
0.088633
0.019676
0.041717
0.029747
-0.010679
0.036455
0.012076
0.092708
-0.036315
-0.010971
-0.034743
-0.069550
0.001104
0.053494
-0.034149
0.048414
-0.032311
0.020370
-0.023707
0.011725
-0.061748
-0.053199
0.029995
0.043026
-0.061751
-0.004117
0.044792
0.022584
0.029867
-0.067439
0.004442
-0.114388
-0.009525
-0.000669
0.010351
-0.017619
-0.089371
0.034375
-0.097932
-0.058776
-0.008997
-0.042285
0.052497
-0.065816
0.103860
0.074230
-0.009750
-0.021914
-0.006781
-0.082671
-0.068304
0.085458
-0.009977
0.029092
0.019592
0.060236
0.051555
-0.012141
0.043502
0.010733
0.058061
0.015863
0.037500
0.006407
-0.001793
0.009084
-0.100719
-0.020757
-0.073114
-0.001722
-0.003678
-0.027327
-0.037440
0.048771
-0.056674
-0.053845
-0.080623
-0.053082
-0.046418
-0.004387
0.008209
0.037155
0.007526
-0.021179
-0.027741
-0.008842
0.042151
0.011011
0.107414
0.050960
-0.026033
-0.039935
-0.018537
-0.040742
0.043118
-0.032273
0.045415
0.019191
0.091796
0.012558
-0.065686
-0.015833
0.042693
0.040763
0.012656
0.003647
0.027372
0.047183
-0.060094
0.044873
-0.008337
0.013727
0.004463
-0.006660
-0.108462
-0.019316
-0.001099
0.020199
0.004699
0.004301
0.005546
-0.006800
0.058562
0.032958
0.084533
0.026496
0.030602
0.021989
0.075698
0.060458
0.019646
-0.070541
-0.031014
0.031822
0.001920
-0.018671
0.011787
-0.014836
0.041492
0.066864
0.034865
-0.007348
0.064995
-0.040935
0.038495
-0.004602
0.018841
-0.028618
-0.040246
0.053638
0.053337
0.007408
-0.003627
-0.020659
0.001474
-0.046507
0.038588
-0.009991
-0.044624
0.032786
-0.004547
0.051854
-0.034891
0.019170
0.030551
0.006074
0.012137
-0.025807
-0.013600
-0.057791
0.008951
-0.068043
0.023287
-0.024660
0.055447
0.043081
-0.005217
-0.048687
-0.033142
-0.108290
0.020238
-0.029332
0.032753
-0.001266
-0.045182
0.036221
0.082258
0.020120
0.052451
-0.051158
-0.002469
0.013051
0.084072
