2
40
7
0.085272
0.056907
0.043679
-0.019155
-0.154310
0.083796
-0.018241
-0.089364
0.053337
0.011485
-0.253831
0.200796
-0.000965
0.387058
0.268322
0.300339
0.135757
-0.193266
0.227454
-0.225383
-0.167826
0.268628
-0.027812
-0.248777
-0.202351
0.039748
0.047710
0.108242
0.331055
-0.130980
0.023741
-0.127682
0.068788
-0.058355
0.160564
-0.235279
0.064128
-0.092192
-0.012205
0.302904
-0.090840
0.141109
0.157710
0.266692
0.142018
-0.123032
0.059353
0.071839
-0.204637
0.016160
-0.011040
-0.038198
-0.087168
-0.025148
0.341430
0.260104
0.049253
0.059017
-0.233799
-0.058117
-0.248733
-0.128075
-0.334846
-0.044231
-0.142640
-0.028333
-0.015703
0.365223
-0.146398
0.129519
0.119863
-0.013634
0.225666
0.118435
0.084619
-0.040404
0.144710
0.116351
0.059816
0.082159
-0.041860
0.072756
0.042878
-0.115319
0.039637
-0.344368
-0.215891
0.147881
-0.071264
-0.239531
-0.219360
-0.000206
-0.239443
-0.079494
0.221401
0.142644
-0.238610
0.154271
0.211497
-0.257732
-0.029460
-0.002965
0.218742
0.164273
-0.116522
-0.288025
0.057491
-0.118227
0.217591
-0.124754
0.200495
0.204383
0.165352
0.117958
-0.021947
0.120467
-0.012106
0.008219
-0.265448
0.208705
0.256817
0.140076
0.144919
0.184974
-0.032810
-0.271281
-0.121067
-0.343423
0.240648
-0.057870
0.035038
-0.048142
-0.110206
-0.074980
0.255910
-0.088738
0.383038
-0.053695
0.266530
-0.149513
-0.197562
0.172487
-0.055112
-0.165627
-0.021300
0.029624
0.055599
0.140229
-0.038984
-0.134231
-0.170693
0.098408
-0.179371
0.107175
-0.322156
-0.120660
-0.070218
0.071079
0.043799
-0.115254
0.032588
0.137335
0.045881
0.010845
0.072182
0.020858
-0.131126
0.091298
-0.091144
0.055160
-0.082471
-0.004073
0.214124
0.147139
0.067057
-0.122067
0.046872
-0.013088
-0.007328
-0.014503
0.185573
0.124433
-0.250077
-0.048851
-0.183796
0.021181
-0.127609
0.184321
0.202541
0.185972
-0.068784
-0.130884
-0.000153
0.128210
0.161253
0.225961
0.090619
0.015041
0.145390
-0.079273
-0.067874
-0.168289
0.070652
-0.256976
0.029510
0.165427
-0.000566
-0.103300
0.125195
0.112355
-0.178211
-0.056309
-0.050536
0.098873
0.053444
0.306061
0.187416
0.091250
-0.014677
-0.091177
0.268896
-0.281543
-0.281531
-0.144123
0.185156
-0.209008
0.101942
0.304193
-0.042425
-0.199964
-0.075057
-0.139370
-0.197126
0.125411
0.142663
0.152933
-0.133791
0.345150
-0.144666
0.061418
-0.105945
0.167972
-0.148136
-0.056384
-0.058543
-0.221732
-0.152222
0.152217
-0.165730
-0.075020
0.133747
-0.171664
-0.044342
-0.236859
-0.013915
0.061705
0.018225
-0.040538
0.091232
-0.209143
-0.271397
-0.113134
0.300425
-0.014623
-0.009787
0.510858
0.237743
0.055060
0.012834
-0.085276
0.005982
0.148211
-0.212826
0.089246
0.120858
0.087136
0.085768
0.042046
-0.023264
-0.208395
