2
147
512
0.214170
0.046751
-0.050512
-0.120287
-0.167592
-0.114557
0.069852
-0.052714
-0.090448
-0.027532
-0.002263
-0.073047
0.098341
-0.027758
0.008553
-0.015431
0.081386
0.054592
0.038316
-0.025723
-0.153766
0.141699
-0.136944
-0.021383
-0.017562
0.066430
0.018272
0.146717
-0.081000
-0.067064
0.033951
-0.099715
-0.039761
0.043869
0.002133
0.019815
-0.033837
0.091451
0.121348
-0.020710
-0.110721
-0.042535
-0.118468
0.006199
0.108264
-0.080406
-0.063836
0.043830
0.044944
-0.137374
0.036834
-0.104355
0.064625
-0.091818
0.005011
-0.043903
0.100825
0.073524
-0.145001
0.041666
-0.024578
0.013317
0.064498
0.080412
0.087333
0.032567
-0.162677
0.118790
-0.035315
-0.054495
-0.022837
0.072005
-0.067477
-0.051603
-0.053777
0.012439
0.044966
-0.092133
-0.133364
0.084543
0.061719
0.193021
-0.175311
0.080414
-0.036490
0.068775
0.004386
0.024876
0.134405
-0.033751
-0.082878
-0.012831
-0.055677
0.051865
0.115715
-0.100827
0.053529
0.003239
-0.166741
0.091343
-0.145515
0.045325
-0.018547
0.030151
-0.002979
0.101709
-0.030087
-0.032556
0.090392
-0.017530
-0.029317
-0.056852
-0.089418
-0.124848
0.001038
-0.056829
-0.104797
-0.012550
-0.081340
-0.059547
-0.056157
0.069160
-0.033551
-0.026000
-0.022443
0.060050
0.006617
-0.092202
-0.099536
-0.009580
0.014650
-0.106961
-0.028506
-0.121057
-0.011220
-0.058579
0.037449
-0.023667
0.120948
-0.088416
0.055748
0.239223
-0.054442
-0.073509
-0.046532
0.052051
-0.168738
-0.185999
-0.009609
-0.012675
0.037479
-0.076660
-0.080557
0.013339
0.025219
-0.071350
-0.074792
-0.065749
0.015847
-0.085174
0.114515
-0.157545
0.049631
0.102236
-0.116656
-0.103732
-0.153851
-0.005340
-0.029355
-0.032867
-0.116662
0.093975
0.105847
-0.042191
0.072946
0.039517
-0.192108
0.074024
-0.055462
-0.028487
-0.012314
0.004958
0.053973
0.105910
-0.017830
0.155498
-0.002012
-0.062087
0.087314
0.064249
-0.017982
0.064358
-0.003833
-0.041083
-0.090229
-0.159007
-0.068022
-0.015607
-0.122872
-0.014852
-0.050715
0.012517
0.106107
-0.025246
0.046763
-0.127398
-0.078881
-0.095244
-0.042838
0.084012
-0.092998
-0.050763
-0.009823
0.071244
-0.020358
-0.184438
0.047465
0.021407
0.132761
0.063233
0.020461
0.064285
0.068316
0.088843
-0.007163
0.043691
0.021316
0.080185
0.086763
-0.007088
0.118795
-0.085808
0.077285
-0.086445
0.079570
0.004542
0.000562
0.162931
-0.006258
0.024703
0.026834
-0.043418
0.090290
0.003663
-0.192183
0.027726
-0.052756
-0.102414
0.046199
-0.049431
-0.017617
0.024004
-0.051154
-0.009135
0.027988
-0.003155
-0.054280
0.111892
0.032579
0.056160
0.014238
-0.104755
-0.187721
-0.082741
0.077630
0.123887
-0.056809
-0.030715
-0.047781
-0.017382
-0.005329
-0.085375
0.083035
-0.054976
-0.064615
0.046538
0.039241
0.056917
0.133616
0.144841
-0.067238
-0.168041
0.009974
0.119564
-0.065080
-0.177530
-0.146241
-0.046373
0.013623
-0.037400
0.041681
0.052921
-0.062580
-0.032412
-0.139849
-0.147100
0.054097
0.001016
0.056009
0.117778
-0.057572
0.068655
-0.152136
0.064625
0.061885
-0.065836
0.070881
-0.047780
0.003404
-0.030310
-0.038882
-0.051490
0.051768
0.018306
0.030404
-0.109367
-0.015118
-0.093507
0.072786
0.089371
-0.018246
0.071133
0.025845
0.027244
0.058630
-0.069375
-0.025293
-0.128363
-0.023689
0.160713
0.018148
-0.080081
0.048797
0.043868
-0.096511
0.154723
-0.067351
-0.093331
0.015226
0.078568
0.089257
0.062045
0.043679
0.007078
-0.021521
0.040537
-0.091846
-0.121524
-0.123257
-0.020829
0.043197
0.088278
0.070074
0.102776
-0.071410
0.005032
-0.032291
-0.039104
-0.077183
-0.080018
-0.001948
0.137894
-0.075292
0.116860
-0.131643
-0.033179
-0.063852
-0.020933
0.048213
-0.085738
0.184499
-0.030043
0.067991
0.000618
-0.007704
-0.128445
-0.008298
0.027396
0.050920
0.086837
-0.014094
-0.002582
0.041155
0.144577
0.058619
-0.119168
-0.009359
-0.001387
-0.019282
0.052493
0.090586
-0.133891
0.080306
0.069712
0.062239
-0.006423
-0.027886
-0.019645
-0.049824
-0.108197
0.051640
0.143345
-0.005064
0.024654
-0.093613
-0.017076
0.099195
-0.107930
-0.015295
-0.046763
0.088848
0.160953
0.020840
-0.098515
-0.144712
-0.207843
0.079929
0.006906
-0.052906
-0.081688
-0.161314
0.117975
0.015443
0.069127
-0.238155
-0.003823
0.052942
0.099201
0.061319
0.062913
-0.063562
-0.066713
-0.020981
0.024754
0.094136
0.041481
0.047787
0.114142
0.010764
0.090241
-0.099225
-0.050766
0.110349
0.071721
0.026827
0.122495
0.049437
-0.047405
-0.043215
-0.058540
-0.037643
0.044890
-0.051095
0.041240
0.080506
0.076426
-0.004668
0.075311
-0.088908
0.021907
0.090962
-0.148016
-0.049553
0.071826
0.027127
-0.013365
0.003668
0.055264
-0.062262
0.056507
0.160142
0.150678
0.073211
0.008155
-0.099648
0.063936
0.060630
0.022952
0.126259
-0.104103
0.043997
-0.003729
0.073411
-0.065822
0.114711
0.043967
-0.004113
-0.028173
-0.079071
-0.239137
-0.077602
-0.130921
0.011386
-0.023338
0.083966
0.072190
-0.015839
-0.056437
0.038877
0.038600
0.079605
-0.080761
0.058002
-0.048068
-0.093079
-0.040498
0.023468
-0.051742
0.041323
0.115031
-0.094631
-0.100422
-0.192491
0.048283
0.095781
0.054316
0.025759
0.016749
-0.017734
0.054250
0.022462
-0.036245
0.025253
-0.108515
0.031725
0.044872
0.043695
-0.091467
-0.063341
-0.035320
-0.070431
-0.092442
0.064070
-0.010427
-0.052671
0.124599
-0.038395
-0.027676
-0.053129
-0.053396
0.002806
-0.028970
0.039507
0.107248
0.080556
0.036833
0.131052
-0.055488
-0.083731
-0.098500
-0.035914
0.061620
0.031452
0.093145
0.180062
0.045483
-0.104394
-0.018804
0.034938
0.097154
0.093403
0.069556
0.032785
-0.037099
0.135266
0.062957
-0.042960
-0.061407
-0.112470
-0.014018
-0.093399
0.111139
0.143678
-0.102539
0.045866
0.112088
0.068129
0.068939
-0.058803
0.066532
0.157682
0.020805
-0.054174
0.074595
0.053350
-0.017202
-0.110651
0.007958
0.136330
-0.080417
-0.086878
0.003241
-0.174117
-0.011921
0.173147
-0.124807
-0.140861
0.024471
0.029663
0.036568
-0.071235
-0.129178
0.076867
0.031201
0.038563
0.140975
-0.055838
-0.014941
0.091152
-0.098652
0.116399
-0.016840
-0.109095
-0.101077
0.025190
0.124173
0.092557
-0.159286
-0.002553
0.151539
-0.051108
-0.050476
0.070424
-0.075539
0.181987
-0.183250
-0.041437
0.053620
0.027399
0.005623
0.023294
-0.011377
0.052793
-0.051772
-0.076454
-0.269681
0.111969
0.003365
0.160204
0.140153
0.062398
-0.073400
-0.003612
-0.047683
0.177474
0.117614
0.040973
0.066494
0.122432
-0.104232
-0.009999
-0.152041
-0.100611
0.015585
0.190232
-0.070761
-0.053334
0.042496
-0.110690
-0.111912
0.021393
-0.012643
0.042816
-0.002426
-0.126475
-0.051526
-0.113770
-0.223509
0.046315
-0.022642
0.228766
-0.047237
-0.058063
0.102487
0.083201
0.089942
0.086382
-0.065530
-0.026204
-0.005802
0.015325
-0.097420
-0.003741
-0.070506
0.088902
-0.125696
0.021645
-0.054479
-0.024893
0.073343
-0.011421
-0.045762
0.032237
0.107666
-0.142938
0.042444
0.023625
-0.131142
-0.055380
0.045125
0.126494
0.028341
0.113806
0.042383
0.005222
0.055925
0.083931
0.004113
0.029035
-0.056435
0.003328
-0.092742
0.120258
0.285820
0.150440
0.052409
0.092205
0.045088
0.008991
-0.140074
0.004580
-0.096993
-0.000217
0.071769
-0.118057
0.001426
0.135412
0.140797
-0.045033
0.097924
0.174159
0.141479
-0.019460
0.111264
0.169268
-0.097686
0.060958
-0.068715
-0.177304
-0.022558
-0.108417
-0.146356
-0.013284
-0.048012
-0.095224
0.032593
0.085115
-0.003882
0.044820
-0.156680
-0.034917
-0.166776
0.035488
0.094683
-0.032736
0.072789
-0.093562
0.035097
-0.012945
-0.037188
-0.067723
0.146305
0.053882
-0.027446
0.063576
0.086522
0.051438
-0.004947
0.116059
0.023478
-0.120241
0.022262
-0.126253
0.024124
-0.088277
-0.012998
0.058882
-0.100008
0.035683
-0.157012
-0.041673
0.042641
0.019492
0.040793
-0.083790
0.041494
0.076012
-0.027679
0.038945
0.026790
-0.018098
0.097453
0.009605
-0.004777
-0.022081
0.113613
-0.052211
0.031560
-0.010659
-0.050032
0.083750
-0.018103
-0.121181
-0.080404
-0.040521
0.003105
-0.042743
0.140323
-0.006544
-0.029682
0.006126
0.097134
-0.004843
0.023027
-0.011610
0.106012
-0.030702
0.044243
0.124251
0.003632
0.017019
0.082926
0.040520
0.052156
0.092212
-0.010770
-0.032524
-0.233771
-0.138125
-0.023454
-0.086017
0.004851
0.023047
0.028748
0.022286
0.049728
-0.066914
-0.013574
-0.066615
-0.030207
0.084357
0.047066
0.053742
-0.019613
0.119919
-0.040461
0.016772
-0.148525
0.101136
0.005378
-0.123266
0.067603
0.003639
0.112902
-0.052401
-0.043105
0.054237
-0.050323
0.033307
0.030043
-0.057069
0.018310
-0.068594
-0.166711
0.103851
0.011933
-0.039319
-0.168565
0.127537
-0.089812
-0.091375
-0.053653
0.169542
-0.102513
0.096254
-0.102010
-0.009445
-0.059933
0.028872
0.105496
-0.045345
-0.025315
-0.162634
-0.084432
0.012721
-0.059266
0.021825
0.000546
0.056876
-0.022245
-0.076128
0.016153
-0.057368
0.031168
0.051567
0.035288
-0.130596
0.105833
-0.053631
0.061875
0.005380
0.023302
0.005982
-0.048265
-0.090430
-0.099261
-0.248348
0.001969
0.004358
0.068207
-0.082942
0.027151
0.134364
-0.049854
-0.033915
0.057013
0.090816
-0.031100
0.264486
-0.019141
-0.073438
0.067914
0.047569
0.053762
0.026959
0.073403
-0.024608
-0.066447
0.118790
0.011647
-0.033647
-0.058331
0.021739
-0.071459
0.129178
-0.049282
-0.022071
0.065592
0.097158
-0.081004
-0.129305
0.086108
-0.044027
0.063380
0.113467
0.134762
0.064451
0.135168
-0.167454
0.040620
-0.063546
0.054943
-0.097036
-0.052845
-0.008286
0.084385
-0.136145
-0.090499
-0.045452
0.016694
0.011052
-0.008872
-0.009784
0.045987
0.095074
0.022063
0.054309
0.128903
0.005968
0.054836
-0.049656
-0.128974
-0.270012
0.073861
0.028193
-0.087006
-0.106703
0.075013
0.040483
0.100190
-0.012600
0.087823
0.017076
-0.007615
0.082243
-0.132077
0.085821
0.056540
0.045031
0.168464
-0.038862
0.019873
0.061080
0.164280
0.007671
0.063649
0.028121
-0.019605
-0.120288
-0.065134
-0.069925
0.021342
0.004108
-0.015484
0.006495
-0.063469
-0.054377
0.012589
0.011135
0.054283
0.001276
-0.126089
-0.023671
0.028716
0.094126
0.060895
0.034316
-0.022554
-0.009478
-0.016044
0.064517
-0.020849
0.109202
-0.165749
0.145490
-0.024957
-0.067795
0.082814
0.095420
-0.027512
-0.085001
0.023437
-0.064550
0.030354
0.029287
0.018662
-0.094165
0.089259
-0.039999
0.023780
0.038884
-0.037469
-0.120186
0.074390
0.164919
-0.055443
0.028976
-0.053816
0.053197
-0.082497
-0.023470
0.135958
0.112463
0.139691
-0.049354
-0.108663
0.079209
0.013238
-0.013908
0.093395
-0.008473
-0.002396
-0.004234
0.064061
-0.154544
0.183952
0.074807
-0.155156
0.005815
-0.002387
0.079131
0.002942
-0.073208
-0.051460
-0.189448
-0.074268
0.073951
0.069285
-0.077610
0.060773
0.030742
-0.032765
0.018606
0.039034
0.042145
0.050043
-0.167934
-0.042531
-0.029750
-0.005410
0.083778
0.067638
-0.070484
-0.043756
0.077681
0.029209
0.062095
0.053099
0.063884
0.039887
-0.056488
0.026558
0.034629
0.016782
-0.079167
0.006621
0.051398
-0.063129
-0.091601
-0.213699
0.150499
0.072663
0.185652
0.039068
-0.077683
0.055800
-0.172681
0.052734
-0.070703
0.119405
0.035209
0.012934
0.183229
0.080286
0.096100
-0.085544
0.108787
-0.058991
-0.136841
-0.065494
-0.035620
-0.096910
0.135504
-0.103247
0.025258
-0.270897
-0.034255
-0.015526
0.162625
-0.054630
0.132870
-0.047030
0.003234
0.228759
0.054641
-0.006007
-0.197314
0.090699
0.068787
0.073021
-0.016448
0.013809
0.010245
0.056129
-0.011989
-0.130226
0.064600
-0.033580
-0.058227
-0.016011
-0.008622
0.133725
0.079326
0.142339
-0.073168
-0.056310
-0.125281
-0.034713
0.032432
0.019275
-0.040552
0.054738
-0.001064
-0.038771
-0.116941
-0.056487
0.091647
-0.006905
0.080373
0.042833
0.009011
0.218161
0.001505
0.108059
0.094667
0.049493
-0.084804
-0.026243
0.003969
-0.088158
0.088206
-0.198753
0.045051
0.045903
0.000547
0.016433
-0.044368
0.086770
0.145236
-0.103999
0.049791
-0.014326
0.016833
-0.054776
-0.021955
-0.021228
-0.098372
0.168074
0.079902
0.035487
-0.061812
-0.053152
-0.160769
0.011084
-0.006355
-0.014445
-0.081039
0.029518
0.010462
-0.020726
-0.046315
-0.068310
0.020621
0.132982
0.006664
0.003772
0.093252
-0.192141
-0.053961
-0.120749
-0.008069
-0.056369
0.016352
0.023248
0.001850
-0.042121
-0.090354
0.049950
-0.089110
-0.004845
0.094630
0.039221
0.073284
0.026341
-0.046427
-0.063819
0.078117
0.092851
-0.065113
-0.127316
0.003942
-0.014996
-0.127242
-0.027736
0.178004
0.091411
-0.055148
-0.054085
0.067839
0.062872
0.001031
-0.127706
0.106325
0.049486
-0.052528
-0.053362
0.023913
-0.067370
0.046404
-0.032105
-0.195060
0.043319
0.001103
-0.056466
0.092392
0.045646
-0.092703
0.061010
0.049720
0.017904
-0.024511
-0.026624
-0.086191
0.117259
0.008178
-0.117807
0.228420
0.039798
0.172198
0.197761
0.040733
0.092830
0.115365
-0.037796
0.096167
-0.061766
-0.132759
0.178767
-0.097062
-0.042810
-0.011940
-0.035079
-0.049022
-0.068944
0.026553
0.018020
-0.049700
-0.034680
0.018322
0.055075
-0.003847
0.080193
-0.156705
0.059742
-0.018889
0.035275
0.058999
0.023756
0.012404
-0.021992
0.114868
-0.124791
-0.115459
-0.194451
0.158621
0.003985
0.099147
-0.069753
-0.067485
-0.016712
0.103843
-0.063805
-0.096779
-0.061993
0.105011
-0.150264
-0.062682
0.085951
0.192064
0.036537
-0.097723
0.005314
-0.104427
-0.043140
-0.032144
0.015368
-0.164004
-0.039808
-0.116331
-0.101557
-0.078880
-0.045383
-0.107704
0.016499
-0.111904
-0.068038
-0.028988
0.015467
0.037059
0.031768
0.049682
-0.093630
0.100604
-0.000921
0.036556
0.044770
0.103194
0.104491
0.024327
-0.022012
0.013484
0.003480
-0.019127
0.048328
0.032566
0.160228
-0.128023
-0.089559
0.107275
0.046001
-0.056849
0.101606
-0.050366
-0.063292
-0.031429
0.113527
-0.121992
0.052600
0.026723
0.025299
0.093656
0.036566
0.038926
-0.137380
-0.117918
-0.092950
-0.061237
-0.084817
-0.118574
-0.125702
-0.251514
0.072627
-0.068952
-0.033103
0.056199
-0.090259
-0.036955
0.108731
0.074882
0.020461
-0.096037
0.141661
-0.028641
0.017272
0.111894
0.024918
-0.000073
0.053757
-0.026452
-0.032149
-0.054166
0.015279
0.024075
0.066016
-0.176794
0.028194
-0.043504
-0.169212
-0.087966
-0.114080
0.095195
-0.136849
-0.037337
0.079921
-0.015800
-0.130246
0.031098
-0.068496
0.057987
-0.081662
0.138992
0.027844
-0.005744
0.107441
0.014619
0.086290
-0.223020
-0.039151
0.038414
-0.100787
-0.040666
0.055320
0.081344
0.001743
-0.128493
0.062860
-0.005565
-0.021222
0.001849
0.057267
-0.080283
-0.030792
-0.003327
-0.081780
0.024592
-0.057387
-0.066156
0.028072
-0.001784
-0.128471
0.019419
-0.056219
0.010713
0.046174
-0.033630
-0.077536
0.036072
0.101833
-0.120487
-0.034199
0.072114
0.042890
0.082603
0.082526
0.030772
-0.001576
0.057989
-0.126735
-0.007440
0.093706
-0.020757
0.056479
-0.006196
-0.081591
-0.041937
0.030541
-0.051203
0.075382
0.108388
0.018898
-0.087240
0.095497
0.084213
-0.182654
-0.112949
0.121481
0.088526
0.049598
0.172629
0.093196
0.187337
0.068407
0.147330
0.056669
-0.027560
0.110465
-0.073374
0.129622
-0.136125
-0.003198
0.124530
-0.025564
-0.132717
0.016287
-0.121677
0.011236
0.047867
-0.105500
-0.030928
0.001421
0.116093
0.070036
0.017649
-0.054627
-0.005422
-0.099449
-0.003977
-0.002707
0.009647
-0.124943
-0.038626
-0.071692
0.002255
0.014724
-0.012787
0.000817
-0.025373
0.009104
-0.003012
0.017190
0.006635
0.082154
-0.029532
-0.076845
0.134023
-0.117449
-0.096902
0.047957
-0.004633
0.050866
-0.049016
0.034694
0.079214
0.013461
0.057305
0.137782
-0.097178
-0.032760
-0.005431
-0.008514
-0.125052
-0.032568
0.061137
0.017477
0.101400
-0.141719
-0.099578
-0.125329
0.104917
-0.074958
-0.142370
0.018208
-0.098791
0.004128
-0.013977
0.005492
-0.037028
0.049465
0.070207
-0.118059
-0.004761
-0.081532
0.050186
0.045476
0.070710
-0.138832
0.147343
0.028882
0.011422
0.046370
0.041488
0.120434
-0.016328
-0.121434
-0.031654
0.085142
0.074752
-0.097609
0.040280
0.106280
0.024256
-0.087779
-0.243912
0.049653
0.051651
-0.051263
-0.184391
-0.053743
0.145193
-0.001732
0.034728
0.153626
-0.097126
0.002380
0.019677
0.003188
0.082266
-0.080558
-0.093385
0.033767
0.070799
-0.168587
0.131674
-0.041242
-0.099324
-0.079202
0.080105
-0.018244
0.022624
0.144156
0.150955
0.092747
-0.055009
0.059316
-0.085904
-0.094331
-0.023918
0.036401
0.109647
-0.079956
-0.068006
-0.050093
-0.322811
0.085085
0.102630
0.177965
-0.130517
-0.001153
-0.060813
-0.020397
0.027265
-0.133899
0.201590
0.039547
0.001851
0.144498
-0.086410
-0.004627
0.151372
-0.086015
0.149982
0.012171
0.004395
0.107985
-0.127628
-0.026364
0.003548
-0.085638
-0.107339
0.113214
0.088405
0.152980
-0.019661
-0.133333
0.030881
0.088289
-0.002754
-0.077604
-0.158978
-0.078226
0.026648
0.019928
-0.114265
-0.009775
-0.142367
-0.063446
0.132497
0.140421
0.036292
0.027108
0.106104
-0.031470
-0.104821
0.024706
-0.009486
0.002081
0.099618
-0.142062
-0.086389
0.056813
-0.078811
0.002153
-0.059689
-0.035548
0.016383
-0.019727
0.158752
0.031091
-0.173854
0.013280
0.091705
-0.061830
0.264602
0.077908
0.064650
0.087254
-0.011307
0.004799
-0.122776
0.072257
0.097215
0.040913
-0.105576
-0.053445
0.113544
0.021572
0.035878
0.148352
0.035587
0.091441
-0.060245
0.074861
-0.051017
-0.046031
-0.088720
0.087476
-0.123968
-0.024551
0.017378
0.009993
0.031284
0.012895
-0.101918
0.022906
0.068377
-0.115956
0.071485
-0.017727
-0.038391
-0.115452
-0.060109
-0.011205
-0.000890
0.047086
0.109619
0.084864
0.005176
-0.081419
-0.228780
-0.040268
-0.040319
0.014998
-0.068036
-0.041244
-0.208543
-0.051057
0.068986
0.171467
-0.008359
0.074709
-0.000688
-0.018315
0.032885
0.001863
-0.017523
-0.071652
0.104109
0.065609
0.021502
0.130739
-0.162501
-0.044311
0.097821
0.053430
-0.291203
0.042063
0.040267
-0.075482
-0.006405
-0.016199
-0.026872
-0.038033
0.041644
0.086300
0.053154
0.122638
-0.054169
0.071459
-0.038991
-0.003535
0.176333
-0.112422
0.049820
-0.021914
-0.014394
-0.020494
-0.028654
-0.043081
0.050143
-0.072258
0.130008
-0.058119
0.027833
0.111278
-0.044645
-0.048486
-0.043488
0.007354
-0.072945
-0.107649
0.005089
0.132002
-0.013407
-0.215663
0.025434
-0.093815
-0.165026
0.047107
-0.068411
-0.013157
-0.059656
-0.063175
0.125735
-0.067906
-0.039081
-0.048541
0.026496
-0.166398
-0.125276
0.090698
-0.033645
-0.041779
-0.104209
-0.052749
-0.190316
0.145477
-0.050581
-0.029588
0.042756
-0.034574
0.034882
0.067110
0.049479
0.116174
-0.061840
0.044753
0.104034
0.105740
0.089412
0.024033
0.021615
0.116471
-0.093952
0.037128
-0.049094
0.077242
0.101653
-0.064739
0.009278
-0.113145
0.036723
-0.076679
0.007013
-0.005533
0.044989
0.007280
-0.050288
-0.105126
0.009160
0.178910
0.028327
0.003467
-0.024048
0.006480
-0.047114
0.204980
-0.065618
-0.015297
-0.056773
0.129567
0.122055
0.032100
-0.064271
0.009911
0.060043
0.086086
0.098594
-0.064466
-0.089140
0.200716
0.013902
0.100998
-0.075191
-0.045005
0.048901
0.088170
0.158617
0.061701
-0.026025
-0.011459
0.115777
0.112694
-0.038835
0.124246
0.120167
0.006447
0.087489
0.140031
-0.051349
0.015826
-0.074010
-0.032488
0.100569
-0.049393
-0.009149
-0.030393
0.074312
0.035301
0.071600
0.114155
0.152168
-0.052415
-0.134410
-0.119413
0.006573
-0.122998
0.019311
-0.100618
-0.029629
0.020333
-0.056352
0.052970
-0.051974
0.047288
-0.054968
-0.049333
0.017516
0.034971
0.023313
0.177286
0.015617
-0.030188
-0.057343
-0.107040
0.017632
0.106811
-0.146084
-0.048608
-0.081543
0.028753
-0.082226
-0.121164
0.052028
0.077806
0.088085
0.002343
-0.053918
-0.036255
0.090123
-0.100007
-0.026884
0.230603
0.011140
0.027020
0.171012
-0.044230
-0.039466
-0.052842
0.049769
-0.078099
-0.056492
-0.159900
0.071949
0.060752
-0.067889
0.058142
0.129625
0.126481
-0.111401
0.024685
-0.012626
-0.033782
0.086650
0.090180
-0.073411
0.030413
0.058811
-0.075349
0.188196
-0.065428
-0.161993
-0.087080
0.012579
0.157887
0.117269
0.009305
0.246631
0.005469
-0.167515
-0.184759
-0.088307
0.058225
0.065032
0.038432
0.029082
-0.133988
-0.105880
-0.049896
-0.052845
-0.027378
0.059396
0.025282
-0.076101
-0.027347
-0.045254
0.008775
-0.013250
0.034844
0.086181
-0.053396
-0.055048
-0.115939
0.029561
-0.102723
-0.003243
0.031353
0.122892
0.070347
0.112418
0.076432
-0.011283
-0.098092
-0.140482
-0.014895
0.085491
0.005576
-0.164336
-0.012935
0.131740
-0.162420
0.058349
0.010861
-0.077373
0.032664
-0.138168
-0.004674
-0.031218
-0.036203
0.159162
-0.023527
-0.032254
-0.203448
-0.075442
0.067889
-0.229339
-0.101506
0.063125
-0.030301
0.032057
-0.116604
0.157061
-0.002901
0.111868
0.003838
0.172085
-0.119695
-0.014487
0.035538
0.011436
-0.036801
-0.011940
-0.021405
-0.158426
0.050221
-0.135672
-0.044575
-0.066903
-0.011799
-0.119408
0.070889
0.041726
0.045112
-0.057140
-0.072042
-0.110086
0.054767
0.006804
-0.204692
0.065242
-0.021497
-0.002267
-0.088325
0.104708
-0.152588
0.120481
0.011520
0.030070
0.111867
-0.024952
0.038642
0.112101
0.066455
-0.006147
0.042822
-0.118770
-0.032191
-0.108214
-0.049997
0.135306
-0.008686
0.021352
-0.121209
0.156809
0.084641
-0.042132
0.120882
0.053445
0.143099
0.019114
0.123359
0.119462
-0.049066
-0.015113
-0.031814
0.085443
0.014613
-0.113435
-0.045517
-0.015947
-0.001803
-0.010806
0.034528
-0.066144
-0.034297
-0.051979
0.118937
0.072018
0.085799
0.010311
0.087261
0.106923
0.013576
-0.060219
0.037452
-0.009538
0.100399
0.019727
-0.093546
-0.035656
0.052792
0.043072
-0.064716
-0.108089
-0.079244
-0.006316
-0.040698
0.082655
-0.049250
-0.016779
-0.002340
0.039927
0.013112
0.045025
0.020480
0.219087
-0.115169
0.020586
-0.007231
-0.187683
0.071772
0.049363
0.045835
-0.028447
0.030876
0.040407
0.115747
0.081510
0.008665
0.018434
0.062121
0.114122
0.030672
-0.063180
-0.054910
0.102848
0.109919
0.107350
-0.010677
-0.037895
-0.202225
0.102713
0.028632
0.049667
0.057651
0.035797
-0.072262
-0.078580
-0.216388
0.057192
-0.006131
-0.001697
0.062626
-0.001251
-0.066292
-0.042098
-0.043285
-0.115730
-0.109722
0.007838
0.060537
0.000437
-0.116040
-0.060314
0.075588
0.085158
0.048432
0.038612
0.099732
0.075676
0.144555
-0.079117
0.021362
0.026326
0.058532
0.108433
-0.052883
0.111605
0.068647
0.141470
0.000003
0.020036
0.162618
0.065995
0.043173
-0.010661
-0.012629
-0.013288
-0.012700
0.011598
0.001758
-0.039090
-0.090583
0.023262
0.026902
-0.009080
-0.090575
0.087243
-0.009983
-0.034819
-0.059486
-0.120348
0.010519
-0.074931
0.084926
-0.148740
-0.048678
0.043666
0.010486
0.031193
-0.045252
0.065078
-0.004156
0.046459
-0.113112
0.009775
-0.071970
-0.039065
-0.078806
-0.176267
0.023838
-0.020122
-0.135096
-0.067122
0.015110
-0.022229
-0.111233
0.157939
0.040246
0.107899
-0.191548
0.043670
0.134741
0.006812
0.007703
0.030838
-0.104320
0.114171
0.074270
0.078761
0.063991
0.074697
0.054554
0.013749
0.037204
0.006338
-0.064628
-0.028328
-0.072292
0.077441
-0.087996
-0.040069
-0.084471
-0.141131
-0.060248
0.084770
0.106442
0.172422
-0.119374
-0.036683
0.028534
0.034413
0.000728
-0.032181
-0.077172
-0.054198
0.131800
0.027267
-0.076554
-0.111987
0.058679
-0.095232
0.021958
-0.046937
0.021629
0.031522
-0.040362
-0.041441
-0.053426
-0.024983
0.029048
0.143409
0.082920
-0.071101
-0.095492
0.021001
0.085981
0.085222
0.052151
-0.029097
-0.130215
0.023350
-0.036146
0.105870
-0.058412
-0.286588
-0.013811
-0.100986
0.030943
0.017559
-0.124547
0.011712
0.018033
0.008268
-0.128446
-0.052574
-0.064399
0.060381
0.011896
-0.061306
0.024340
0.080955
-0.001533
-0.055887
-0.048769
0.065770
0.022625
-0.145614
-0.026582
0.140657
0.061266
0.056942
0.020830
0.028884
-0.015410
-0.067526
0.004821
0.055689
-0.100334
-0.026506
-0.058236
-0.001294
-0.027625
-0.036428
0.028214
0.073483
-0.048363
-0.021818
-0.098864
0.003284
0.014907
0.004334
-0.002863
0.014151
-0.036190
-0.087407
-0.046335
0.182367
-0.050594
-0.015991
-0.068298
-0.072554
-0.062022
0.150417
0.027893
0.121571
0.015989
-0.077333
-0.023178
-0.040661
-0.065383
0.125414
-0.021704
0.086887
-0.096240
0.028949
-0.103382
-0.004977
-0.073474
-0.047827
0.018698
-0.059658
0.030749
0.068658
0.031737
0.216510
0.090729
-0.044252
0.001094
0.001846
-0.069621
0.050403
-0.117657
0.051236
0.033404
-0.031833
-0.076404
-0.020106
-0.006159
0.006899
0.101763
-0.088641
-0.169256
-0.002691
0.115512
0.124881
0.009086
-0.025141
-0.102204
0.056827
0.114256
-0.105305
0.042038
-0.089353
0.149037
0.048361
0.085364
-0.009320
0.043291
-0.035431
0.048179
-0.157019
-0.130761
-0.124570
0.159778
-0.002172
-0.176133
0.181872
0.008367
0.129426
-0.071515
-0.037338
-0.126720
0.037508
0.064912
0.183310
0.164911
-0.019453
-0.050933
-0.064958
-0.058206
-0.055480
0.017777
-0.023650
0.062606
-0.169036
0.196063
0.084664
0.044827
0.059876
0.076409
0.045080
0.009992
0.064118
0.100926
-0.013300
-0.027736
-0.058420
0.053546
-0.052186
-0.072038
0.035055
0.074801
0.052328
0.068279
-0.057723
0.199028
-0.003241
0.103482
0.015078
0.052406
0.018504
0.156525
0.024489
0.229912
0.037715
-0.036184
-0.022959
-0.082329
0.044877
-0.075218
0.094766
0.107222
-0.011825
-0.004759
-0.005026
-0.006139
-0.055242
0.021608
0.146275
0.021922
-0.007809
-0.144214
0.105012
0.094287
0.055705
-0.029985
0.045487
-0.070311
-0.037255
0.148377
-0.111839
-0.014854
0.114934
-0.119195
-0.164051
-0.250511
-0.034770
0.023673
0.040391
-0.098127
-0.109788
0.000607
0.028603
0.016123
0.103591
0.052532
0.033720
-0.004936
-0.069784
0.038857
0.076041
-0.063263
0.075127
0.113731
0.005406
0.091459
-0.109507
0.020789
-0.033764
-0.130405
0.071705
-0.043418
-0.032685
0.069833
-0.015188
-0.083051
-0.102900
0.140550
-0.000781
0.069492
0.043886
-0.047715
0.011236
-0.075104
-0.075237
0.068489
0.069206
-0.028283
-0.039776
-0.106894
-0.108167
0.095305
-0.133903
-0.110068
-0.028336
-0.140196
0.051395
0.097569
0.043645
0.096650
0.029067
-0.003708
-0.115276
0.069168
0.053265
0.103590
-0.061348
0.072412
-0.076746
0.090241
-0.055889
-0.131373
0.101359
-0.097460
-0.130388
0.022896
0.031227
-0.013153
-0.030634
-0.060986
0.066433
-0.031582
-0.113575
0.126913
-0.050308
0.037702
0.061838
-0.005553
-0.028960
-0.073691
0.072482
0.086715
0.037334
-0.002667
-0.023938
-0.083049
-0.028328
0.144502
0.131245
-0.028636
0.060939
-0.075006
0.068692
-0.008932
-0.039983
0.011663
-0.010943
-0.019000
-0.026337
0.096879
-0.107857
-0.144172
-0.004325
-0.076057
-0.056685
0.044105
-0.093701
0.028404
-0.039468
-0.136112
-0.000351
-0.145365
0.032129
0.066197
-0.126601
0.076700
0.032509
0.155787
0.108024
0.040172
-0.038256
0.136615
0.147861
-0.018555
0.034074
0.206007
0.018181
-0.083303
0.012370
0.106408
0.005076
0.133526
-0.033866
-0.075413
-0.061060
0.025107
0.244000
0.025517
-0.035011
0.026549
-0.003715
0.091703
0.005768
-0.038988
0.051209
-0.006749
0.054211
0.071204
0.035128
0.080113
0.014662
-0.166344
-0.047338
-0.093024
0.032319
0.030191
0.036279
0.019810
-0.114120
0.131124
0.007197
-0.014296
-0.077099
-0.032687
-0.039040
-0.003250
-0.146544
-0.015625
-0.019707
0.145432
-0.204197
0.000676
0.037786
0.027881
0.105842
-0.088307
-0.002050
0.143273
-0.097306
0.067508
0.016068
-0.106062
-0.065358
0.109687
0.063580
-0.001339
0.156048
-0.037234
0.024266
0.032406
0.093167
0.037920
0.131532
0.085895
0.054548
-0.205825
-0.086565
-0.109979
0.037105
0.065912
-0.087716
0.065621
-0.064282
-0.035873
0.068207
0.022804
-0.134085
-0.125870
0.070556
0.082137
0.081055
0.090609
0.118972
0.147646
0.155465
0.043284
0.038377
-0.100551
-0.086864
0.118355
0.017072
-0.055309
-0.017181
0.079105
-0.119014
0.084067
-0.076350
-0.044963
-0.056364
0.042137
0.011291
-0.008961
0.045880
0.045986
-0.107913
-0.001701
-0.089176
-0.022076
-0.003324
-0.016194
-0.009138
-0.185010
-0.002871
-0.057448
0.094086
0.029899
0.021017
0.052573
-0.026299
0.018216
0.087526
-0.077598
0.229973
-0.035653
0.012791
0.140124
0.028826
-0.011867
0.089447
-0.054789
0.148094
-0.035127
-0.101758
-0.032201
-0.038308
0.109039
0.079563
0.160332
-0.037334
-0.061033
0.069003
0.056800
-0.101346
-0.181192
-0.028318
-0.038227
0.044755
-0.005148
-0.028147
0.012453
0.006125
0.019681
0.013077
-0.018908
-0.013540
0.011301
-0.182904
0.041519
0.095376
-0.083236
0.079133
-0.038483
0.022042
-0.040627
-0.011955
0.041144
-0.099737
-0.077814
0.234379
-0.052813
0.087083
-0.074137
-0.003838
0.014984
-0.026045
0.037241
-0.024733
-0.050414
-0.036271
0.175952
0.169614
-0.125274
0.074234
-0.093921
0.056130
-0.005739
0.079017
0.146094
-0.045287
-0.037023
-0.064485
-0.052595
-0.087363
-0.022846
-0.071973
-0.098738
-0.104613
-0.198299
-0.209172
0.032477
0.028983
-0.006870
-0.105055
0.140243
-0.043275
-0.014961
-0.019445
-0.002720
-0.158088
-0.067733
-0.025026
0.070425
0.061601
0.029194
0.003770
-0.048743
-0.002515
0.070177
0.103001
-0.050179
-0.007877
-0.238309
-0.110956
-0.110175
0.038372
0.170690
-0.016168
0.095360
-0.013796
0.150381
-0.041211
-0.086395
0.065604
-0.071493
0.056896
0.017992
-0.056467
-0.025169
0.007347
0.061539
0.091883
0.041336
-0.136616
-0.062042
0.050111
-0.154217
0.127754
0.232365
-0.029212
0.028747
-0.087055
-0.084463
-0.075868
0.100073
0.057317
-0.058471
-0.103574
-0.028004
-0.152784
-0.085014
0.015662
0.027765
-0.112051
-0.040824
-0.146748
-0.017246
-0.066472
-0.100528
0.113478
0.067101
0.051517
0.057708
0.032206
-0.075264
-0.098589
-0.013090
0.065077
0.059960
0.080725
-0.043384
-0.274747
-0.003926
0.063321
0.048281
0.005848
-0.229380
-0.129345
0.107821
-0.063807
-0.071593
0.127258
-0.068202
0.080099
-0.032777
0.009914
-0.074593
-0.043041
-0.027064
-0.088168
-0.037619
0.007121
0.014380
-0.093750
-0.136698
-0.071135
0.010156
-0.049182
0.004501
-0.052519
-0.013078
0.067967
0.110023
-0.037553
0.109968
0.065170
0.031316
0.037615
-0.104679
0.116591
-0.003969
-0.113982
0.008212
0.026523
0.080448
-0.059937
0.076766
0.033142
0.038919
0.121105
-0.009082
-0.045603
-0.026560
0.021959
-0.037140
0.027522
0.061169
0.095740
0.166852
-0.037283
-0.105506
0.142984
0.046704
-0.035022
0.072515
-0.068036
0.131752
0.108101
-0.220296
-0.168322
-0.098937
-0.007568
-0.031596
0.095378
-0.047709
0.047229
0.017884
-0.033541
-0.045779
0.122246
0.071239
-0.099281
-0.144182
-0.023452
0.060046
-0.058384
-0.008980
-0.020302
-0.117104
-0.032647
0.098292
-0.104998
0.033269
-0.009816
0.065786
0.091167
-0.108316
0.036320
0.021671
0.012546
-0.045924
-0.018302
0.024262
0.001914
0.031026
-0.092626
-0.062925
0.184894
0.012168
-0.004227
-0.136243
-0.024678
-0.079583
0.006614
0.212353
0.073078
-0.088820
0.048145
0.120696
0.070392
0.126900
0.047577
0.043299
0.083352
-0.010802
-0.098714
0.096764
0.059682
0.061781
-0.041686
0.028026
0.131069
-0.153511
-0.054915
0.073905
-0.108985
-0.100368
0.042022
-0.027013
0.037942
-0.092995
-0.097351
-0.068368
0.136008
-0.019223
-0.079497
0.034838
-0.105309
0.109795
-0.017629
0.048198
0.057860
0.041980
-0.036038
0.126088
0.036929
0.068313
0.127850
-0.128347
0.172156
-0.120396
-0.075273
-0.128714
0.086072
-0.007651
0.034267
-0.035873
0.000673
0.029158
-0.188320
0.000613
0.002048
-0.035928
-0.006624
0.089868
0.063909
-0.004865
-0.004765
-0.061248
-0.030622
0.046036
0.128159
0.052878
0.027903
0.007363
0.100457
-0.012134
-0.139515
-0.027934
0.105460
-0.024209
-0.084745
0.049820
0.000314
0.019464
-0.052503
-0.058047
0.024956
0.119978
0.007807
-0.052668
0.023084
-0.015857
-0.139312
0.003756
0.030177
0.103683
-0.081803
0.043788
0.056629
-0.010012
0.021144
0.095369
0.069260
-0.139338
0.146031
0.011592
-0.118508
-0.108912
-0.177694
0.228381
-0.084377
-0.061169
0.070879
0.017425
0.084572
0.019329
-0.072916
0.080972
0.083691
0.005838
0.032887
0.076563
0.089379
-0.148430
0.019015
-0.016948
-0.059681
0.018981
-0.010137
-0.070881
0.097017
0.016963
-0.112721
0.102573
0.047516
-0.109502
-0.080909
-0.015984
0.064158
0.069330
-0.014579
0.077598
-0.056232
0.014774
0.111641
-0.129717
0.015961
-0.102745
0.014350
-0.069076
0.070930
-0.040391
-0.052572
-0.069384
0.014925
-0.011421
0.009072
-0.009237
0.093181
0.056013
-0.067541
-0.136898
-0.004297
-0.037790
-0.092599
-0.053306
-0.025897
0.013488
0.083032
-0.036796
0.133021
-0.050813
0.059202
-0.129384
-0.046095
0.069828
0.155254
0.041990
-0.028970
-0.029258
-0.087347
0.002482
0.117973
0.032882
0.041689
0.055209
0.039881
-0.043331
0.112609
0.081295
-0.203973
-0.019925
-0.030772
0.062885
0.040091
0.107058
0.043509
0.114125
0.151211
-0.070994
-0.124098
-0.037036
-0.022605
-0.007335
0.076696
0.169697
-0.050553
-0.080866
-0.096287
0.066661
-0.080393
0.156959
0.008960
0.012638
-0.067938
0.037544
-0.062118
0.040062
0.062373
-0.009558
0.109783
-0.065723
-0.014664
-0.017980
0.029555
0.029590
0.028187
0.110107
-0.002213
0.016433
-0.048771
-0.031670
0.100452
0.059508
-0.041513
-0.047710
-0.007528
-0.074894
-0.082499
-0.137251
0.060589
0.052486
0.116159
0.031394
-0.207479
-0.027013
-0.004263
0.060564
-0.075520
-0.038029
-0.006426
-0.126403
-0.201695
-0.030493
-0.039996
0.036102
-0.070593
-0.057532
0.051391
-0.057038
0.057166
0.010570
0.058742
-0.082110
0.074128
-0.015785
-0.052810
-0.070016
0.062739
-0.112180
0.101040
0.052397
-0.047117
-0.007631
-0.000530
0.084972
-0.009641
0.016438
0.054929
0.127210
0.005224
0.011361
0.066030
-0.069783
-0.123579
-0.125864
-0.116846
-0.062097
0.047552
0.144538
0.233226
-0.022429
0.120371
0.035962
0.049690
-0.098793
0.044991
0.024235
0.060187
0.033477
0.023588
-0.043938
-0.024365
0.060190
-0.007795
0.044810
0.048041
0.128433
0.075381
0.006997
0.005928
-0.134327
0.055042
0.039420
-0.009405
0.002999
-0.059404
0.223008
0.014821
0.212693
-0.027368
0.017395
-0.119175
0.057434
-0.014636
-0.001567
-0.096923
-0.122682
0.041518
0.023383
-0.007928
-0.041300
0.044418
0.023645
0.001672
-0.039537
-0.079954
0.025961
-0.054907
-0.199422
-0.170559
0.027303
-0.130800
-0.146944
-0.048609
-0.035910
-0.040956
-0.017999
-0.056227
-0.065730
0.169378
0.112557
0.000675
-0.115712
-0.008993
-0.175092
-0.034277
0.005471
-0.082015
0.034910
-0.127641
-0.083043
0.106928
-0.140128
0.024152
-0.066584
-0.086443
0.102054
0.073452
0.051709
0.076804
-0.087822
-0.060897
-0.144350
0.006098
-0.057288
0.029248
-0.006171
0.085397
0.135590
-0.041945
-0.003283
-0.025034
0.079691
0.144127
-0.079436
-0.110870
-0.103655
0.057685
-0.064687
-0.058653
-0.053713
-0.069726
-0.061184
0.069067
-0.068911
0.099929
-0.009555
0.155500
-0.199055
-0.203225
-0.168622
-0.107808
-0.036235
-0.016865
0.080191
0.132246
0.065928
0.103871
-0.005772
-0.096845
-0.056750
-0.158463
-0.088443
0.004245
0.024457
0.057024
-0.003547
-0.000213
-0.031231
0.034399
0.008016
0.010142
0.110141
0.088667
-0.104717
-0.094005
0.016457
0.069592
0.159482
-0.055777
-0.067344
0.007481
-0.174023
-0.126568
-0.024196
0.022191
-0.069469
0.105086
-0.063354
0.096647
-0.010986
0.119314
0.120464
0.016532
-0.217249
0.077230
0.000903
-0.068459
0.208453
0.053610
0.042543
0.067421
0.066430
0.081854
0.127623
-0.025604
0.029415
0.023045
0.086254
0.133566
-0.116894
0.071637
0.028504
-0.046418
-0.083523
0.078513
-0.066054
-0.028999
0.106060
0.093859
0.004952
0.184333
0.051711
-0.108472
0.054960
-0.176332
0.031726
-0.051970
-0.045831
0.103883
-0.031967
0.072938
0.052076
0.110149
0.013182
0.003160
-0.099328
-0.042667
-0.097017
0.054714
0.067599
0.003839
-0.048188
0.034977
-0.083445
0.014901
0.115894
-0.036547
-0.050922
0.038625
0.001463
-0.233714
-0.012614
0.062543
0.036687
0.036691
0.144658
-0.053258
-0.004348
-0.042484
0.126071
0.143430
0.074603
0.124434
-0.001817
0.120877
-0.021974
0.137144
-0.070692
-0.052558
0.098726
-0.070846
-0.155563
-0.144297
-0.026525
-0.012687
-0.009187
-0.010770
-0.008529
-0.041212
-0.078290
0.064782
-0.030685
0.057142
0.030487
-0.125302
-0.044912
-0.033912
-0.030741
0.151253
0.062538
0.087044
0.124597
-0.041256
0.138934
0.110762
-0.141268
0.089356
-0.101490
-0.022020
0.119019
-0.090074
0.017371
0.028659
0.010289
-0.021040
-0.074537
0.081933
0.124055
0.046143
-0.024362
-0.137089
0.207433
0.049813
-0.140638
-0.025889
-0.029982
-0.055155
0.013299
0.004456
0.013145
0.200229
-0.125040
-0.091248
0.013399
0.129566
0.001459
-0.168386
-0.005799
-0.065571
-0.032511
-0.020272
-0.059116
0.039221
0.079587
-0.039270
-0.180515
0.106703
-0.112765
0.023016
-0.019228
-0.052108
-0.064661
-0.083798
-0.123223
-0.000776
-0.023171
-0.005852
0.042230
-0.020409
0.084980
0.053690
0.083231
0.104467
-0.087222
-0.054018
0.029192
-0.063381
0.027243
0.033996
0.063542
0.055000
0.123298
0.031370
-0.083737
-0.078212
0.018730
-0.061443
0.019480
-0.033936
-0.060613
-0.116828
0.066235
-0.005969
-0.068448
0.101596
0.103888
-0.084828
0.201772
-0.030214
-0.106136
0.099287
-0.061861
-0.074031
0.024336
0.023144
0.127173
0.009028
0.154705
0.031192
-0.056157
-0.033013
0.094822
-0.083499
0.109630
0.104943
0.125339
-0.122703
-0.031397
-0.040874
0.169327
-0.057630
0.001049
-0.028413
-0.056838
0.010976
-0.084710
-0.195409
0.057214
0.091578
-0.067905
0.044309
-0.077435
-0.026280
0.138575
0.078255
-0.017477
0.212738
0.031579
0.124143
0.011617
-0.207272
-0.194169
0.057126
-0.038351
0.041197
0.116502
-0.173999
-0.044297
0.014456
-0.083971
-0.107345
-0.041248
-0.022759
0.058402
0.117762
-0.032778
0.132117
-0.061816
0.024568
0.015769
-0.071101
0.001240
0.034717
-0.081917
0.154589
-0.085098
0.020251
-0.116715
0.028868
0.324215
0.108229
-0.047727
-0.037887
-0.117896
-0.082666
0.180797
0.016179
0.097664
-0.028005
0.120468
0.057289
0.037624
0.105244
-0.026560
-0.079418
-0.022628
-0.011047
-0.020560
0.068629
-0.001831
0.013575
-0.095604
0.208833
0.020091
-0.003977
0.051621
-0.034978
-0.064466
0.002599
-0.151098
0.055811
-0.100810
0.058425
-0.054978
-0.073796
0.041980
-0.035685
0.004825
-0.066236
0.016254
0.047993
0.000398
-0.015802
0.028621
0.034637
-0.080831
-0.086923
-0.086144
0.052991
0.040286
0.044307
0.083599
0.074410
-0.052903
-0.008266
-0.050071
-0.080862
0.025672
0.083782
0.010614
0.140712
0.006990
0.114997
0.059983
0.017465
-0.118262
-0.131380
0.130207
0.075028
-0.082572
0.015787
0.164977
-0.061412
-0.065257
-0.151241
-0.040346
0.087150
0.101478
-0.003269
0.116099
0.049560
-0.005366
-0.017459
0.090696
0.014586
0.103953
0.007588
0.016254
0.048035
0.187594
0.012716
-0.032767
-0.018388
0.105534
-0.078142
0.088247
-0.226039
0.029858
0.007177
-0.050206
-0.055247
-0.077260
-0.094442
-0.081694
-0.090213
-0.052528
-0.036051
0.087489
-0.078910
0.077133
0.024336
-0.121510
0.066452
-0.090071
0.016399
0.022055
-0.085654
-0.028174
-0.113992
-0.026811
0.075058
0.130058
-0.066688
0.070636
0.066133
-0.122125
0.081736
-0.066370
0.104839
-0.162178
0.093266
-0.072497
-0.145062
-0.032219
-0.003512
-0.007572
-0.037377
0.070883
0.039684
0.016656
0.084322
-0.068580
-0.059862
0.074889
0.132071
-0.114031
-0.044169
-0.213864
0.063748
-0.075608
-0.103082
-0.049662
-0.038697
-0.077142
-0.074446
0.034897
-0.077932
-0.044084
0.071213
-0.149207
0.038179
0.048813
-0.046710
0.010495
-0.162746
0.122621
0.102111
-0.048004
0.057942
0.069342
0.076855
-0.079817
-0.084963
0.037457
-0.075912
0.006960
0.019626
0.061171
0.154184
0.000807
-0.078372
-0.069587
0.022974
-0.043349
-0.035164
0.026169
-0.097686
-0.044910
0.033323
0.102780
-0.063789
-0.059852
-0.021192
0.063762
-0.019531
0.114773
-0.135056
0.013440
0.000525
0.031567
-0.041866
0.037060
-0.131094
0.000864
-0.141299
0.050736
0.045251
-0.036016
-0.074814
-0.048563
-0.051533
-0.036032
-0.011035
-0.022860
0.049153
-0.005359
0.025807
-0.036898
-0.002929
0.015293
0.023610
-0.017980
0.021674
0.085228
0.052663
0.025913
0.058545
-0.115820
0.059364
-0.069249
-0.049206
-0.141120
0.010583
-0.037217
0.066155
0.016352
-0.019556
0.102194
-0.023337
-0.006115
0.064720
-0.159738
-0.148538
-0.044239
-0.042700
0.000208
0.093235
0.021996
0.163959
-0.062588
-0.052888
-0.089732
0.036365
-0.115157
-0.046278
0.016374
0.050365
0.088735
0.019006
0.165986
0.049420
-0.004651
-0.184515
0.031494
0.011833
0.057481
0.173478
0.021503
-0.072794
-0.038518
-0.062460
-0.044915
-0.074470
0.017343
-0.054161
-0.054711
-0.111718
-0.063033
-0.022745
0.000503
0.079008
-0.107296
0.175459
-0.024747
0.027055
-0.049109
-0.190282
-0.040072
0.065365
-0.101493
0.022282
0.001528
-0.058705
-0.016932
0.124211
-0.130631
-0.036397
-0.177166
-0.042264
0.007741
-0.142615
0.004759
-0.027469
0.044101
0.050836
0.101170
0.228933
-0.120619
-0.056457
0.100555
0.096246
0.004172
-0.086755
-0.074013
0.042588
0.013664
-0.069585
0.174024
0.036325
0.095599
-0.006328
0.105207
-0.043506
-0.020052
-0.041453
-0.078289
0.058987
-0.185147
0.019950
0.018504
-0.003287
0.084240
0.066561
-0.082219
0.054893
-0.015134
0.031102
-0.063219
-0.044419
-0.002816
0.013816
-0.107667
-0.054345
-0.248054
0.046494
-0.008642
-0.081555
-0.127786
-0.039589
-0.093045
-0.003636
-0.071853
0.058397
-0.076799
0.065992
0.094667
-0.098087
0.174999
0.053094
0.095612
0.005917
0.005171
-0.012238
0.000931
0.089028
-0.034644
-0.126966
0.053301
-0.032960
-0.082807
-0.127581
-0.008506
0.041540
0.047474
0.024954
0.015199
-0.033042
0.073483
0.118645
0.038093
0.029883
-0.018541
0.003467
-0.096959
-0.048608
0.117895
-0.048611
-0.030829
0.086681
0.148030
0.028550
0.067766
-0.058674
-0.089502
0.009413
-0.068712
0.045422
0.047263
-0.084266
-0.094149
0.030406
-0.165165
0.049612
0.049850
-0.016733
0.075879
-0.019182
-0.035321
-0.131240
0.026093
0.106971
-0.031849
0.008207
0.088458
0.162192
-0.046450
0.148081
0.042757
0.031239
0.187172
0.078239
-0.097632
-0.027058
0.133517
0.049214
-0.067055
-0.106154
-0.087026
0.040478
-0.108826
0.029445
-0.028374
-0.033913
0.120586
-0.078723
-0.120036
0.122139
0.110114
-0.050580
-0.057199
0.051967
-0.160158
0.057373
0.015501
-0.066258
-0.012347
0.018879
-0.033971
-0.194582
0.089401
0.103124
0.069018
0.071272
-0.039052
-0.017544
0.074052
-0.155659
-0.006322
0.189682
-0.048859
-0.108878
0.024906
-0.037077
0.072044
0.052254
-0.049549
0.047199
0.069554
0.104971
-0.144131
-0.016068
0.010959
0.026775
-0.084646
-0.008486
0.070600
0.023663
0.159324
-0.010949
0.013659
-0.046220
0.033669
0.075899
0.105275
-0.050383
0.074338
-0.059696
-0.034296
0.043427
0.086346
0.112396
-0.075745
0.007917
-0.136583
0.079754
-0.040625
0.070610
0.092892
-0.193453
0.160016
0.032350
-0.011505
-0.005982
0.043261
0.068030
-0.198553
0.091923
0.116304
-0.016111
0.033344
0.024003
0.088004
-0.014981
-0.022308
0.083520
-0.000393
0.125873
0.035483
0.030328
0.137133
-0.158763
0.113736
0.037281
-0.014977
-0.118985
0.008621
0.004695
0.100647
0.047672
0.006531
-0.086469
-0.079180
-0.040685
-0.044739
-0.048783
0.040963
0.123195
-0.036235
0.113998
0.002180
-0.084648
-0.080180
-0.014902
0.041296
0.228336
0.039483
-0.036130
-0.003159
0.104556
-0.055754
-0.049435
0.154814
0.013516
-0.072410
-0.014728
0.019909
-0.020158
-0.045271
-0.027180
0.065369
0.046578
-0.127975
-0.073337
0.038210
0.020291
-0.038284
0.130452
-0.045775
-0.025971
0.098702
0.098412
-0.073801
0.077267
-0.073273
0.102387
0.075839
0.101242
0.100870
0.070880
0.002424
0.035823
-0.084866
0.013961
-0.074839
-0.081626
-0.089077
-0.030362
-0.112139
0.052226
0.156734
-0.112122
0.046425
0.129900
0.061877
-0.068641
-0.066852
-0.010684
-0.021895
-0.054013
0.026727
-0.010867
-0.044530
-0.142721
0.009614
0.048623
0.073487
-0.033526
-0.050029
-0.017040
-0.015943
-0.047191
0.063535
-0.007493
0.114187
-0.053175
-0.038020
-0.178732
0.004420
0.017870
0.081543
0.024188
0.034701
0.135036
0.000028
-0.045925
0.029861
-0.008734
-0.031222
-0.040261
0.083229
-0.052179
-0.019275
0.106347
0.026683
-0.047206
-0.017811
-0.001956
-0.208201
0.079653
-0.078126
-0.002148
0.037903
-0.070278
-0.141951
-0.029770
0.159276
-0.062995
0.078599
-0.105721
-0.054905
0.198781
-0.146891
-0.072192
-0.059648
0.030241
0.004669
0.096295
0.062695
-0.015035
0.041510
0.105343
0.077958
0.113006
-0.018893
-0.075976
0.065608
-0.057425
-0.141161
0.029621
-0.038538
-0.121849
0.112822
0.190209
-0.021510
0.030967
-0.135115
0.064813
-0.046745
0.151902
0.053817
0.068445
0.106076
0.018290
0.012437
-0.200771
-0.100774
0.022038
0.007276
0.045084
-0.152740
0.149552
0.007404
0.139140
0.004513
0.031469
0.052715
-0.054506
0.006489
0.049089
0.140906
-0.008615
-0.080100
0.010775
0.046264
-0.137620
0.055812
-0.049358
-0.108300
-0.069303
-0.004981
-0.006306
-0.047557
0.176431
0.058687
-0.127798
-0.012532
-0.006798
-0.063520
-0.159760
-0.021072
0.126708
0.006337
-0.042207
0.132286
-0.058423
-0.078082
0.001508
-0.074922
-0.092766
0.034789
0.021879
-0.081411
-0.026316
0.052114
-0.068347
-0.085881
-0.000445
0.032692
-0.026070
-0.053716
0.080845
-0.146060
0.116718
-0.007678
0.005268
-0.033752
0.045403
0.088581
-0.004125
-0.033842
0.099935
-0.013157
-0.050127
0.088253
0.099170
0.073344
-0.002453
0.223077
0.098770
0.022874
0.103275
0.025957
0.065353
-0.049425
-0.006072
0.005584
-0.100451
-0.037826
0.040497
-0.037348
0.013512
-0.047786
-0.074563
-0.014547
-0.023663
0.096717
0.014077
0.127544
0.013184
-0.012364
0.041467
-0.034965
0.076536
-0.065409
-0.095001
-0.047648
0.015761
-0.039586
-0.008994
0.095216
-0.031460
-0.017117
-0.078817
0.213284
-0.002818
-0.076774
-0.078630
-0.185064
0.064532
-0.005830
0.003777
0.156321
-0.023709
0.108532
0.114452
0.128822
0.082365
0.013982
-0.036747
0.071769
0.059325
-0.088173
0.102314
0.016664
-0.009641
0.013133
0.006787
-0.119315
-0.036973
-0.078630
-0.140642
0.002342
-0.020308
0.215513
-0.072435
-0.097412
-0.067026
0.093539
-0.099668
-0.031734
-0.025706
0.018019
-0.028296
-0.086026
0.103622
-0.068624
0.032596
-0.158505
-0.080547
0.147634
0.035323
0.082703
0.063924
0.012950
-0.047381
-0.155162
-0.105028
0.150595
0.005365
-0.076666
0.117574
-0.113405
-0.175530
-0.090268
-0.038641
-0.000366
0.181629
0.035882
0.062400
0.133175
-0.071479
-0.152223
-0.050729
0.076174
0.006010
-0.041861
-0.068958
-0.158258
-0.025467
-0.007590
0.118938
-0.092434
-0.097397
-0.164887
0.009440
-0.003554
-0.193028
-0.109587
-0.117480
0.080027
-0.067360
-0.121520
-0.087067
0.100701
-0.073964
0.033211
-0.092735
0.042715
-0.100987
0.014346
-0.088195
0.042659
-0.026814
-0.092749
-0.030279
-0.106343
0.073932
0.090781
-0.034667
-0.019146
0.050466
0.093130
-0.037710
0.040990
0.184325
-0.045417
-0.126617
-0.052359
-0.064524
0.004510
-0.011526
0.091082
0.024107
0.022466
-0.114934
0.198204
0.017805
-0.097674
-0.017424
-0.091312
0.017396
-0.004893
-0.035769
0.013605
-0.078492
-0.006362
0.055052
-0.053861
-0.093714
-0.022798
-0.073867
0.006884
-0.134913
0.003153
-0.105386
-0.139989
0.025906
-0.067984
0.024944
0.034351
0.093855
-0.012298
0.075566
0.026095
0.040132
0.019430
0.108969
-0.090912
-0.001798
-0.048328
0.012878
0.183786
-0.108256
0.166221
-0.042507
-0.217842
0.065098
-0.031707
0.080160
-0.024611
-0.180899
0.027673
-0.041271
0.032256
-0.035822
0.076529
-0.084030
0.018352
-0.123572
-0.088626
-0.012763
0.162431
-0.068582
0.052012
0.061441
-0.052745
0.055995
-0.136088
-0.006401
0.037387
0.093042
-0.010962
-0.053724
0.077174
-0.075827
0.027106
0.019452
-0.079999
-0.044762
0.022088
-0.171389
-0.049691
0.040012
0.127397
0.005176
-0.016152
0.012027
0.013339
-0.015927
-0.018822
0.086657
0.075888
0.007476
0.084784
0.014485
-0.078439
0.049901
0.060420
-0.138517
0.032384
0.138961
-0.000906
0.006623
-0.057155
-0.001032
-0.023270
0.107109
0.071583
0.016516
-0.131654
0.029818
0.077265
-0.008627
0.028253
-0.057381
0.063494
-0.014041
0.080698
-0.056101
0.044244
-0.070339
-0.061963
-0.030249
-0.031793
-0.025705
-0.087102
-0.033076
-0.085594
-0.006651
0.016487
0.008790
-0.050884
-0.016055
-0.004288
-0.047905
0.063768
-0.190574
0.000885
0.146826
0.032198
0.128082
-0.200469
0.031159
-0.029983
0.076708
0.119777
0.005490
-0.025980
0.059462
-0.183006
-0.121839
-0.104222
-0.091013
-0.046301
-0.111712
0.077839
-0.006061
0.061613
0.086531
0.042665
0.140426
0.025339
-0.159097
0.016298
-0.052920
-0.085755
-0.023155
-0.081015
0.002780
0.092062
0.028510
0.071995
0.124790
0.120175
0.053384
-0.074646
-0.019008
0.057714
0.053364
0.057257
0.081113
-0.187010
-0.041186
-0.042385
-0.044702
0.017656
-0.030779
-0.006442
0.026965
0.018329
-0.222111
0.082806
0.008816
0.086479
0.028814
0.066557
-0.158476
0.055662
-0.058951
-0.032523
0.031593
0.068266
-0.139021
-0.035550
0.047955
0.018598
0.072821
0.093511
0.018231
-0.034098
0.014653
-0.069538
-0.045537
0.097540
0.098466
0.096639
0.020105
-0.108427
-0.030395
0.023193
0.154284
0.016708
0.042798
0.000676
-0.027417
0.077102
0.109388
-0.073306
0.048192
0.032583
-0.026099
-0.007021
-0.051400
-0.015728
0.126081
-0.015182
-0.114545
-0.059347
0.002786
0.125747
0.065149
0.057686
0.153861
0.013372
-0.046604
-0.032740
-0.024836
-0.068327
0.007694
-0.028280
0.110485
-0.041155
0.108017
0.062950
-0.036605
0.233594
0.081129
-0.133249
0.015145
0.059801
-0.136569
0.078706
-0.121827
-0.016809
0.015952
0.060057
0.028695
0.174678
-0.061392
-0.149112
0.078238
0.236921
-0.020178
0.012544
0.039362
0.037538
0.047439
0.168025
0.108579
0.025727
-0.052059
-0.171776
0.040007
-0.042459
-0.079483
-0.004589
-0.011007
-0.093954
-0.073795
-0.099955
-0.098100
-0.000252
-0.022866
-0.090539
0.008440
0.167313
0.129653
-0.010746
-0.038335
0.049797
-0.105947
0.054836
-0.072586
0.085307
0.027954
0.029101
-0.065334
0.020807
0.149656
0.048999
0.057008
-0.031435
-0.133213
0.017903
-0.125663
0.086300
-0.045312
-0.121172
0.106069
-0.058090
0.076139
-0.044616
-0.012704
-0.179971
0.133215
0.024554
-0.082273
-0.048295
-0.020074
0.054093
0.150551
-0.052826
0.085769
0.008179
-0.059846
0.006587
0.153177
-0.088077
-0.070994
0.027730
0.030181
-0.107923
-0.030787
0.030216
0.004221
0.049040
-0.001553
-0.138678
-0.100450
-0.159491
0.104130
0.115531
-0.010404
0.172906
-0.024843
-0.107090
-0.172620
-0.086558
-0.064619
-0.008781
-0.069017
0.212859
-0.022776
-0.035859
-0.130465
-0.082034
0.017549
0.004204
0.002485
0.086372
-0.053487
-0.033817
0.020907
0.070536
-0.034875
-0.090700
0.037160
-0.056361
0.075088
0.117376
0.092525
-0.009002
0.098643
0.057222
0.050342
0.070771
0.076644
-0.166724
-0.085705
-0.040421
0.117435
0.090388
-0.092683
0.086914
-0.031743
-0.035091
-0.039843
-0.062958
-0.026723
0.061693
0.120642
0.050160
-0.065569
-0.021461
-0.035147
-0.039909
0.039952
0.060879
0.050024
-0.013137
0.048728
-0.005414
0.063694
-0.078680
-0.033827
0.022948
-0.020828
0.170210
-0.043477
0.221811
-0.016215
-0.063918
0.070501
-0.223908
-0.012917
0.010439
-0.086498
0.040010
0.127635
0.066528
-0.054914
-0.064971
0.006116
-0.086758
-0.008865
0.109877
-0.014165
-0.083037
-0.003968
0.060147
-0.088734
-0.001859
0.092597
-0.003999
0.061438
0.138712
-0.023418
0.086927
0.024255
0.022262
0.029350
-0.017444
-0.017792
-0.081304
0.099281
-0.040585
-0.112135
-0.085332
-0.051287
-0.046826
0.091256
-0.043284
-0.044895
0.054392
-0.038316
-0.080644
0.126154
-0.014074
-0.020868
0.226678
-0.048839
-0.021978
0.058221
0.122172
0.065794
-0.187596
0.014948
-0.034212
-0.046441
0.037444
0.160673
-0.038313
-0.148154
-0.053389
-0.031943
-0.098716
0.030786
0.036521
0.044455
0.062592
-0.067004
-0.023234
-0.149150
0.046556
-0.097945
-0.062530
0.127280
0.014218
-0.051760
0.023968
0.095332
-0.025656
0.008434
-0.087866
-0.024762
0.119042
-0.019788
-0.025736
-0.135564
0.141212
-0.204675
-0.014857
0.048083
-0.080995
0.096776
-0.165910
-0.120021
0.003884
-0.081193
0.102148
-0.077614
-0.147325
0.080129
-0.063062
-0.115698
-0.042796
0.065558
-0.131100
0.154758
0.016064
-0.014195
0.052869
0.089206
0.010979
0.020549
-0.009302
-0.047582
0.029695
-0.108170
-0.037799
-0.001499
0.105668
-0.016754
-0.100026
-0.113821
-0.159904
-0.078895
-0.028451
0.058392
-0.019398
0.149813
0.037031
-0.001861
0.057892
0.100008
0.061198
-0.031590
0.094306
-0.011068
0.058186
0.022194
0.053275
0.034216
0.065417
-0.092691
0.007038
-0.052542
-0.029619
-0.025833
-0.153414
0.236106
0.052914
-0.003532
-0.061092
-0.001199
0.041111
-0.003707
-0.084112
0.055744
-0.014809
0.063822
-0.046313
-0.064518
-0.058750
0.040417
0.035323
-0.017161
0.013018
0.017999
0.055673
-0.107724
-0.042065
0.088075
-0.077531
0.145018
0.016873
0.130842
0.052276
-0.015092
0.032527
-0.119942
-0.074776
0.086568
-0.196993
-0.135655
0.024348
-0.151034
0.143204
-0.055955
0.016360
0.037182
-0.034395
0.071748
-0.059446
0.008312
-0.088094
0.154440
-0.082677
0.016077
-0.063015
-0.020841
-0.004249
0.073375
0.039073
-0.103387
-0.062374
-0.155805
-0.133901
0.097356
0.090606
-0.038669
0.030927
-0.124219
0.045933
0.006087
0.201027
-0.017247
0.056707
0.007367
-0.040226
0.060978
-0.061068
0.056494
0.090576
-0.068547
0.151113
0.130443
0.065594
0.047914
0.046691
-0.050736
0.081471
0.022041
-0.023199
-0.013019
0.017632
-0.071691
0.065611
-0.062316
0.064305
0.016568
-0.027869
0.060084
-0.097019
0.080062
0.078487
-0.032933
-0.092650
0.036234
-0.037217
-0.229987
-0.135511
0.117783
-0.047553
-0.015268
0.007534
-0.060543
-0.052550
0.102601
-0.002463
-0.009552
0.088491
0.076793
0.139615
-0.076353
-0.047901
-0.155001
-0.070665
-0.027451
-0.019328
0.131278
-0.048687
0.051058
0.065287
-0.039480
-0.042149
-0.015206
0.047680
-0.100146
0.007214
0.258316
-0.001442
-0.059168
0.057001
0.015908
-0.159565
-0.073993
-0.029994
-0.024240
-0.043383
0.115457
-0.032781
0.113596
-0.041233
-0.105624
0.130332
-0.001335
0.022650
0.115622
-0.008635
-0.019428
-0.100410
0.059139
-0.085750
-0.024610
0.055227
0.047613
-0.051430
0.075711
0.133692
0.013827
-0.114637
-0.115478
-0.112746
-0.067094
-0.018084
0.020299
0.055640
0.122924
0.039284
0.054805
0.003498
-0.052716
-0.088691
0.045398
-0.104210
-0.029677
0.075394
0.013114
0.044890
-0.113483
0.086034
-0.035254
-0.044260
-0.013032
0.050845
-0.084846
-0.193607
0.135103
-0.053334
0.092507
-0.043728
-0.017278
0.052559
0.010426
-0.072663
-0.177898
-0.090068
0.023676
0.050095
-0.068346
-0.117289
0.145235
0.066407
0.070333
-0.195113
-0.028478
0.035734
-0.185999
0.086365
-0.115439
-0.003807
-0.004493
0.073703
-0.003201
-0.164420
-0.024414
-0.030356
-0.045165
0.034933
0.074168
0.080780
-0.047854
0.051141
0.028711
-0.002381
0.010372
0.020432
0.009967
-0.046104
0.005454
0.056136
0.101581
0.021724
0.025553
-0.034256
-0.010843
0.038413
-0.068848
-0.033848
0.075925
-0.013094
-0.006452
-0.113429
-0.049932
0.029507
-0.017641
0.031680
-0.030889
0.074630
0.028143
0.034199
-0.126248
-0.071828
0.111923
0.013385
-0.151920
0.147405
-0.069671
-0.060997
0.114399
-0.125728
0.241915
0.133550
0.018781
-0.034770
-0.091962
-0.035957
0.122578
-0.139241
0.016959
-0.036543
0.046628
-0.084923
-0.014746
0.125304
0.015586
0.110523
-0.031740
-0.032624
0.012158
-0.165212
0.015499
0.046909
-0.172635
0.042304
-0.120118
0.258379
0.172642
-0.092452
-0.022810
0.091912
-0.043792
-0.147608
0.132443
0.021083
0.036647
-0.007195
-0.063356
0.056232
0.130021
-0.006432
-0.024821
-0.112198
-0.066811
0.102380
-0.020657
-0.028052
0.008398
-0.094109
-0.121536
-0.039882
-0.099223
0.072958
0.023800
-0.024000
0.066197
0.030015
0.080208
0.098880
-0.153110
-0.076606
-0.062917
0.008997
-0.008545
-0.037206
0.020225
-0.080787
-0.017868
-0.058625
0.080774
0.018848
0.077144
-0.048181
-0.109491
0.045614
-0.020786
0.085401
0.054791
0.035982
-0.018134
-0.029613
0.074714
0.085359
-0.144457
-0.028421
0.003934
-0.083238
0.133374
-0.041276
-0.007076
0.115637
0.007551
0.074081
0.108217
0.052509
0.104264
-0.042483
-0.012756
-0.011877
0.071861
0.041312
0.000265
0.023354
-0.148070
0.026623
0.086100
0.023925
0.049234
0.010196
0.194219
-0.067088
-0.065065
-0.003303
-0.048265
0.053232
0.068602
0.086647
0.054679
-0.049902
0.049156
0.054783
-0.061123
-0.003958
0.031945
0.019485
-0.026871
-0.081547
0.102823
0.043312
0.011480
-0.095154
0.101765
0.058163
-0.001443
0.106441
-0.088656
-0.054640
-0.041524
0.064356
0.078676
-0.066879
-0.123864
-0.112664
0.104496
0.027369
0.051697
-0.039512
0.097539
-0.215127
-0.079265
0.042950
-0.081826
-0.173026
0.145615
0.113353
0.107913
-0.079488
0.065263
0.055308
-0.134013
-0.025399
0.146243
-0.011834
-0.076152
-0.139983
-0.055348
0.048782
0.026393
-0.051556
-0.083208
-0.044079
0.000453
0.068796
0.048483
0.046395
0.133954
0.118340
0.097621
-0.040645
-0.149752
0.084580
-0.228958
-0.019900
-0.037184
-0.034343
0.057767
-0.049690
-0.031926
0.058047
0.044431
-0.081828
-0.050455
0.007851
-0.095556
0.012561
0.013011
0.004550
-0.049947
0.001281
0.056317
0.055212
-0.005768
0.075879
-0.067433
0.094340
-0.030693
-0.019716
0.147828
0.087008
0.106036
0.022329
-0.055012
0.036082
0.036384
0.089608
-0.007323
-0.016870
0.015639
0.032765
-0.030569
-0.000467
0.074088
-0.071416
-0.049582
-0.088687
-0.038744
-0.177537
0.013354
0.055643
0.029217
-0.019202
-0.043565
-0.080743
0.062477
0.009054
0.089150
-0.022405
-0.027636
0.029420
0.123321
-0.019860
-0.014477
-0.055015
-0.039059
-0.152310
0.105201
-0.085807
-0.003037
-0.060068
-0.042523
0.152816
0.061976
0.043101
0.044080
-0.014798
-0.092600
-0.022800
-0.096124
-0.103076
-0.008413
-0.001975
-0.083862
-0.075790
-0.087671
-0.067408
-0.212620
0.028603
-0.050386
0.080023
0.042857
-0.106952
0.177285
-0.123451
0.080062
-0.159818
-0.120397
-0.012058
0.098699
-0.083266
0.103007
0.030383
0.001492
-0.247989
-0.135357
0.093481
0.041620
0.074381
0.012696
0.135237
-0.015128
0.037432
0.070199
-0.107076
-0.041938
-0.009936
-0.020158
0.019516
-0.255910
-0.026893
0.109007
0.048988
0.010032
0.049105
-0.035081
0.012318
0.031191
-0.057765
-0.000771
0.084013
0.109916
0.081749
0.024110
-0.035281
0.040489
0.118057
0.048163
0.104738
0.122240
-0.046119
0.045000
-0.086888
0.083835
-0.035817
0.025474
-0.003955
0.029606
-0.030121
0.013912
-0.018416
0.024109
0.079656
-0.070272
-0.019667
0.061391
-0.151640
-0.139983
0.159785
0.109183
-0.069446
0.002631
0.041404
-0.116883
0.128725
-0.119148
-0.077206
-0.049374
-0.146974
-0.005694
0.049685
-0.038204
-0.104481
-0.068996
-0.075231
-0.070443
-0.113429
0.018814
0.096269
-0.071174
0.046605
0.036931
0.175600
-0.101698
0.030940
-0.118430
0.097658
0.032714
-0.258043
0.014061
0.101024
0.015164
-0.023261
0.053578
0.083963
0.064403
0.130525
-0.003348
-0.010493
0.064841
0.176099
-0.049020
-0.024710
-0.083263
0.008537
-0.047464
0.073824
-0.073337
0.028105
-0.097886
-0.086046
-0.001826
0.078981
0.124505
0.076261
-0.011998
0.051652
-0.097522
0.171405
0.016922
-0.026113
-0.052831
-0.080933
-0.068884
0.010780
0.096588
0.159255
-0.030566
-0.149153
-0.074438
0.127648
-0.045541
0.044611
-0.061794
0.003000
-0.002639
-0.030785
-0.013733
0.050514
-0.121143
-0.064804
-0.046520
0.086622
-0.011641
-0.086132
0.056352
-0.022467
-0.078827
-0.086541
0.032976
0.155269
-0.121383
-0.007054
-0.121853
0.011442
0.012927
0.028724
-0.080877
-0.092284
0.071031
0.078841
-0.000528
0.060005
0.009346
0.142054
-0.084062
0.104794
0.127232
0.019625
0.020194
0.185619
0.024903
0.068460
0.040493
-0.005590
-0.064515
-0.027635
-0.133886
0.104489
0.131707
0.104182
-0.240520
-0.116206
-0.126429
-0.001122
-0.077359
0.011056
-0.090611
-0.006353
-0.100441
0.134443
-0.022274
0.148652
-0.099897
0.041176
0.012337
-0.114916
-0.047717
0.150254
0.064794
-0.031441
0.008844
0.055230
0.091731
0.046909
0.023612
0.014303
0.021024
0.008833
0.102822
-0.027700
-0.066836
-0.046929
0.061903
0.033332
-0.006823
0.036232
0.058506
0.084481
-0.099452
0.124854
0.106708
-0.093757
-0.153308
-0.007139
0.083974
0.130507
0.033582
-0.040885
0.127814
-0.032625
0.040764
-0.082985
0.046692
-0.016511
-0.079954
0.039799
0.115848
-0.025975
-0.057524
-0.000675
0.030227
-0.027288
0.224905
0.108841
-0.214789
-0.055643
-0.097027
0.099914
0.052848
0.022555
-0.054150
0.020519
0.034561
0.120980
0.000689
-0.065247
-0.026877
-0.008390
0.006973
-0.054836
0.042970
-0.158782
0.114478
0.032499
0.030777
-0.017748
0.139484
-0.025925
-0.127037
-0.101967
0.057760
0.073994
-0.060764
0.016521
-0.015261
-0.029855
-0.141229
-0.088818
-0.087713
-0.009982
-0.138417
-0.071506
-0.024167
-0.029558
0.042828
-0.011990
-0.007800
0.023456
0.038390
-0.114977
-0.137201
0.044781
-0.008670
0.041005
-0.035423
-0.014872
0.098486
-0.055237
0.048154
-0.139397
-0.097752
-0.003071
-0.130878
-0.040783
0.061515
0.013220
-0.094369
0.029932
0.010370
-0.121821
-0.007537
-0.044985
-0.010302
-0.020208
-0.058914
-0.060528
-0.036041
-0.028001
0.039756
0.012531
-0.142898
0.073710
-0.023285
0.057472
-0.133414
-0.122536
0.094908
0.025764
-0.026552
-0.012665
-0.021062
0.006242
-0.072434
0.016010
0.033000
0.050064
-0.006178
0.074273
0.150290
0.104589
-0.204513
0.040329
-0.012617
0.066191
0.026172
-0.080974
0.167168
0.022630
0.135301
-0.027754
-0.083039
-0.023622
-0.035913
-0.015044
-0.012147
-0.100522
0.092223
0.041744
0.094591
0.105228
0.052357
0.068938
-0.103603
0.052950
0.089803
-0.031116
0.022461
-0.064171
0.134432
-0.032455
0.000995
-0.050431
-0.153955
0.155372
0.144866
-0.050278
-0.143851
0.073794
-0.131124
-0.200696
0.045996
-0.135501
0.168936
0.041262
0.090029
0.036900
0.044712
-0.063681
0.009072
0.076656
0.021071
-0.074372
0.069781
0.022102
0.054890
0.006887
0.015724
-0.086097
-0.073228
0.071476
-0.174318
0.003600
0.134349
0.070906
0.142391
-0.037160
-0.032449
-0.063523
-0.023842
-0.044831
-0.056465
-0.061729
-0.043166
0.065406
-0.115394
-0.093836
0.017292
-0.065361
0.030841
-0.078738
0.009295
0.023221
0.064388
-0.003612
0.088085
-0.049244
0.159803
0.085077
0.070722
-0.018498
0.076271
-0.091368
-0.053236
-0.058445
0.048092
0.081666
0.055454
-0.032665
-0.006858
-0.049200
0.069427
0.049160
0.166606
0.067796
0.019015
0.023885
0.114531
-0.043434
0.034789
-0.070537
0.041012
-0.025495
0.039535
-0.022552
0.062872
0.089952
-0.062569
0.015223
0.024197
0.039959
0.188693
0.062297
0.001376
0.035667
-0.055292
0.097756
0.006572
0.040733
0.125983
0.148074
-0.025001
-0.166564
-0.026551
-0.076445
0.058798
-0.010924
-0.009986
0.015757
0.077063
0.058133
0.048464
0.111106
0.017364
0.160501
0.089387
0.016069
-0.042479
-0.049750
0.053668
-0.015115
0.046650
0.047633
0.182065
-0.123599
-0.106809
-0.045486
-0.027104
-0.031707
-0.084939
0.087595
0.095200
0.136712
-0.090131
-0.012938
0.142926
-0.079611
0.013606
0.030122
-0.093684
0.012916
0.036548
-0.013001
0.052986
-0.099676
0.019740
0.065244
0.122627
-0.075238
0.257469
0.043275
0.103737
0.117349
0.017747
-0.043746
-0.073639
0.042020
-0.082216
-0.098109
-0.034194
-0.175329
-0.108937
-0.022236
0.018604
0.038932
0.023451
0.158735
0.007152
0.100642
0.014662
0.110574
-0.108986
-0.104923
-0.013040
0.095015
0.011931
0.143838
-0.016352
-0.026452
0.002392
0.039712
0.081720
-0.117894
-0.036697
0.056683
-0.032367
0.133908
0.096847
0.014145
-0.073799
-0.091861
-0.043160
0.030687
0.005001
0.073214
-0.077293
0.101757
-0.069217
-0.102045
0.194862
0.139090
-0.048420
-0.012479
-0.011412
-0.130488
0.064415
-0.130315
-0.055644
-0.199995
0.033455
0.027692
0.004393
-0.030919
0.036897
-0.069583
0.163061
-0.019146
-0.055916
0.004512
0.026718
-0.036617
0.062305
0.035259
0.022910
0.042665
0.014679
0.078061
-0.012304
0.166789
-0.036017
0.125496
-0.073314
0.031762
0.059632
0.026159
0.057012
-0.187358
0.082413
0.039731
-0.102426
-0.036767
0.101815
0.029701
0.003823
0.094518
-0.057747
-0.140889
-0.040528
0.120029
0.003622
0.033214
0.020969
-0.137198
-0.101097
0.021366
0.044708
-0.011900
-0.016397
-0.092070
0.003908
0.000657
0.027986
-0.001561
-0.083283
0.050652
0.001156
0.035451
0.062980
0.178255
-0.074036
0.042323
0.024178
-0.033134
0.039257
0.029436
-0.047359
-0.073554
-0.109222
-0.075832
-0.055211
-0.071427
-0.055815
-0.041930
0.058829
0.005054
-0.040246
-0.001001
-0.004467
-0.053883
-0.128205
0.097421
0.073123
0.002572
-0.046786
-0.004247
0.092207
0.026824
-0.008425
0.024104
-0.033333
0.123676
0.122147
-0.101751
0.016400
-0.038098
-0.004618
0.040572
-0.015533
0.133319
-0.003954
0.060959
0.079385
-0.172330
-0.042972
-0.083428
0.080555
0.106982
-0.037115
-0.016893
-0.016805
-0.035856
-0.039335
0.054317
0.025955
0.029063
0.003226
0.056504
-0.056987
-0.160033
0.021494
-0.009574
0.074239
0.051995
0.003718
-0.050294
0.047450
-0.002067
0.056059
-0.086452
0.039751
-0.007117
-0.081721
-0.053906
0.051227
-0.073642
0.013050
-0.077560
0.036174
0.048516
-0.047636
0.082959
0.139360
-0.004169
-0.072662
-0.106046
0.062409
-0.147150
0.008487
0.011387
0.069363
0.002237
0.148651
0.047510
-0.000020
-0.022226
0.001945
-0.225747
0.141626
-0.017445
0.011943
0.059357
0.075291
0.005366
0.013168
-0.033449
-0.046221
-0.081747
-0.122681
-0.014924
-0.010705
-0.120287
-0.069462
0.072226
0.144021
0.016725
0.061939
-0.034989
0.007003
-0.074156
-0.051200
-0.008822
-0.044310
0.032276
-0.019891
0.021670
-0.020646
-0.014343
-0.117870
0.028960
0.083136
0.192090
-0.094562
-0.126345
0.011347
0.089158
-0.025958
0.031468
0.058272
-0.113671
-0.096111
-0.038903
0.038988
-0.037446
-0.036162
0.089316
0.084969
-0.000612
-0.004117
0.070145
-0.129261
-0.150869
0.113858
0.127254
-0.031587
-0.087405
0.171848
0.206412
-0.032540
0.096701
-0.003430
0.048461
0.155426
0.031194
0.039023
0.014673
-0.046921
0.056826
0.145278
0.045397
-0.004048
0.073809
-0.043674
0.006120
0.102858
-0.070628
-0.056671
0.004094
-0.170949
0.039094
-0.084768
0.084973
0.115454
-0.038225
-0.127053
0.013465
0.127781
0.045041
0.007616
0.057654
0.077647
0.064782
-0.031343
0.004808
-0.012693
0.032587
0.062423
-0.021350
-0.078702
-0.098943
0.056444
-0.210081
0.031928
0.035317
-0.138037
0.121010
-0.106560
-0.101472
-0.090182
0.138693
0.267994
0.112562
0.110232
0.117772
0.029475
-0.072613
-0.017600
0.182519
0.054435
0.084223
-0.041200
-0.121111
-0.041608
-0.022775
0.188435
0.024976
-0.052586
0.181349
0.076082
0.098805
0.078684
0.138663
-0.023489
-0.134995
0.094177
0.027220
0.011388
0.050009
-0.060624
-0.075088
-0.176349
-0.058848
-0.031153
-0.163963
0.040874
-0.060924
-0.060560
0.097242
0.088074
-0.057783
0.075670
-0.223586
-0.078709
-0.086302
0.074515
-0.027202
-0.035520
0.068794
0.122559
-0.100747
-0.087855
-0.024123
0.071741
0.065728
0.104479
0.064976
0.018269
0.132673
0.030596
-0.015066
-0.046579
0.170418
-0.146258
0.086169
-0.043139
-0.040888
0.117309
-0.025471
-0.084948
-0.051602
0.032069
0.207858
0.135053
-0.000432
-0.091122
0.053093
0.009785
-0.071427
0.119683
0.073483
0.106019
0.100906
0.065813
-0.010070
-0.020443
-0.016755
-0.047246
0.074956
0.175302
-0.050587
-0.056718
-0.096909
-0.007613
0.039839
-0.017911
0.094363
0.083638
0.003922
0.061573
0.101097
-0.024734
0.004472
-0.027614
0.013480
0.072273
-0.076744
-0.102969
0.050039
-0.005902
-0.027716
0.116783
-0.058250
-0.150391
0.028642
0.004590
0.060333
0.090888
-0.069504
-0.058275
0.035168
-0.072277
-0.013396
0.033779
-0.000977
0.089888
-0.057118
0.098339
0.104345
-0.047525
-0.022549
0.072874
-0.115848
-0.052053
0.025306
-0.234032
0.019683
-0.002070
-0.059968
0.015512
-0.084109
0.159529
-0.051862
-0.034308
0.061881
-0.048946
0.107689
-0.018786
0.137313
-0.097153
-0.089552
0.021665
0.135451
0.132613
0.051135
-0.055024
-0.082447
0.077201
0.173324
-0.139708
0.013451
0.011586
-0.064427
0.076776
-0.063022
-0.110135
0.025620
-0.027406
0.178601
0.055479
0.029032
0.173337
0.020184
-0.066273
-0.098907
0.021318
-0.022927
0.015878
-0.108579
0.132872
0.116967
0.051889
-0.123583
0.073788
-0.137438
0.034260
0.091917
0.148446
0.023296
-0.038938
-0.031436
-0.068493
-0.044777
-0.036930
-0.053205
0.059795
0.082184
0.131120
-0.152957
-0.119146
0.008501
0.045449
-0.104993
0.142354
0.041506
-0.068894
-0.068158
-0.094792
-0.122876
-0.099697
0.211970
-0.045129
0.013613
0.083901
0.030184
0.112863
-0.053418
0.120351
-0.056853
0.133748
-0.001226
-0.072761
0.044130
-0.047094
-0.159154
0.065897
-0.034638
0.064113
-0.057468
0.094907
0.075382
0.111137
-0.092153
-0.047690
0.054619
-0.200732
-0.068075
0.054412
-0.067812
-0.069458
0.062395
-0.007793
0.021740
-0.101057
-0.019282
-0.005170
0.016450
0.013106
-0.105058
-0.200908
0.151835
-0.070925
-0.030270
-0.168424
-0.004986
0.025068
-0.016998
-0.004252
-0.098267
-0.029154
-0.059621
-0.028840
-0.069296
-0.016500
-0.099295
0.005162
-0.047074
-0.046844
-0.012010
-0.081691
-0.086243
-0.006140
0.038210
0.099664
0.025218
-0.183362
0.060543
-0.115155
0.118320
-0.004329
0.047004
-0.014453
-0.135347
0.040298
0.042566
-0.013312
0.037788
-0.029502
0.156653
0.153589
-0.062950
-0.042960
0.016834
0.128279
0.082549
-0.003735
-0.131676
0.145607
-0.025668
-0.137965
0.015149
0.013319
-0.048345
0.088180
0.017122
-0.113376
-0.043146
-0.024745
0.120793
0.012126
-0.027663
0.103785
0.044531
0.018416
0.041843
-0.028675
0.099078
-0.025081
-0.063195
-0.161304
0.100670
0.016255
-0.001088
-0.032623
0.009339
-0.062926
0.012383
-0.093593
0.181489
-0.103725
-0.019699
-0.052891
-0.020341
0.020192
0.064947
-0.112652
-0.138100
-0.005497
-0.078812
0.101570
-0.115327
-0.038784
-0.034438
-0.008454
-0.008063
-0.008372
-0.053870
-0.067711
0.020586
-0.069014
-0.074749
0.043310
-0.004842
0.145847
-0.160263
-0.128933
0.002996
-0.102908
-0.041084
-0.081590
0.000339
-0.090392
-0.001180
-0.028434
-0.131164
0.072677
0.063522
0.034775
-0.091093
-0.129033
0.025228
0.049112
-0.050706
-0.017281
0.040384
-0.021827
0.079670
0.143340
-0.005816
-0.012026
-0.074288
0.027228
-0.141709
-0.066211
-0.067269
0.000011
0.011173
0.025650
0.016117
0.016598
-0.068887
0.001124
0.040685
0.040956
0.030920
0.051853
-0.049660
0.187378
0.123398
0.126552
-0.056318
0.028107
0.105772
0.033553
-0.016643
0.040294
0.011571
0.114691
-0.036318
0.054433
0.072929
-0.053832
0.043618
-0.127071
-0.100840
-0.036857
0.018287
0.013482
0.119349
-0.063689
-0.097348
0.060504
-0.113445
-0.105326
0.069799
0.030180
-0.048519
0.076872
0.055582
-0.011937
-0.027748
-0.055994
0.072457
0.028654
0.041474
-0.003381
0.071356
-0.041413
0.115538
-0.077518
0.012761
-0.116072
-0.032096
0.057223
0.101472
0.001258
-0.016650
0.042257
0.048539
-0.090477
-0.004490
0.113636
0.161627
-0.000143
-0.147874
-0.083552
0.013288
-0.044542
-0.081416
0.034925
-0.023865
0.060812
-0.043185
-0.064745
0.089924
0.007455
0.303908
-0.088378
0.101264
-0.036039
-0.061226
-0.117250
-0.074840
-0.097797
-0.056019
-0.002732
0.053376
0.006817
0.031983
-0.055710
-0.136200
0.078212
0.007574
0.100513
-0.136483
0.053664
-0.073871
0.033401
-0.046036
-0.080223
-0.052854
0.119939
0.064437
-0.156234
0.023579
-0.033162
-0.078764
-0.064567
0.093819
0.087268
0.072001
-0.114835
-0.045366
0.181322
0.042523
-0.016291
-0.055543
0.034206
0.053661
0.105141
0.100172
-0.059661
-0.020293
0.003006
-0.114581
-0.035457
0.170309
-0.067996
-0.016673
-0.107648
-0.133240
-0.071685
-0.105476
-0.027472
0.076786
0.076374
-0.030998
0.039736
0.077747
0.025238
0.035456
-0.167397
0.125167
-0.096123
-0.026897
0.053894
-0.058593
0.151850
-0.056081
-0.103654
-0.059802
0.145274
-0.023310
-0.028334
0.054723
-0.039234
0.014985
-0.111242
-0.008035
-0.022803
-0.167974
-0.021205
-0.052296
0.008366
-0.060288
0.100199
0.131392
0.021820
-0.021556
0.017072
0.040049
-0.007993
-0.062942
0.229927
-0.098438
-0.064185
-0.090710
-0.056869
-0.107938
-0.069102
-0.098927
-0.014093
-0.045480
-0.149370
0.015454
-0.101076
0.014202
0.096893
-0.064347
-0.006195
0.017231
0.091779
0.091059
0.050031
-0.048587
0.083798
0.076160
0.018974
-0.016863
0.037822
-0.079545
-0.053096
-0.056849
0.011529
-0.166096
0.012068
-0.057171
0.057299
0.013752
0.098664
-0.031659
0.190315
0.053292
-0.102777
-0.117429
0.001164
-0.103778
0.091920
-0.084087
-0.070041
0.007057
-0.079598
0.019426
-0.028322
0.015625
-0.017405
0.024318
-0.061204
-0.052501
0.026732
-0.040613
-0.082469
-0.006080
0.094601
0.048573
0.022337
0.012743
0.026706
0.022011
0.000377
-0.003240
-0.002562
0.041115
-0.016389
-0.272604
0.076551
-0.050792
-0.065982
0.074792
0.034834
-0.017662
-0.002477
-0.010437
-0.155627
-0.210336
0.169856
0.053780
-0.087597
-0.033808
-0.023295
-0.119780
-0.080493
-0.003038
-0.030461
-0.044666
-0.009500
0.090286
0.040578
0.006678
-0.083488
0.063674
0.013798
0.058227
0.001029
0.023759
-0.084957
0.000374
-0.042369
-0.089655
0.036966
0.019106
0.088841
0.032749
0.024754
-0.030701
0.025491
-0.068353
-0.002307
-0.081190
0.079609
0.090195
0.036880
0.038009
0.053558
-0.132196
-0.100987
0.131496
0.027336
-0.101345
0.055525
0.036693
-0.065837
0.057188
-0.147112
0.058405
0.055494
0.014584
0.009334
-0.033093
0.039454
-0.074479
-0.114995
-0.054911
-0.093767
0.047814
-0.051012
0.001121
-0.098238
-0.087380
-0.137409
0.079318
-0.106712
-0.115863
0.056037
-0.010184
-0.039365
0.161490
-0.079862
0.036061
0.060122
-0.038419
-0.162354
-0.058271
-0.040619
0.125996
0.007996
0.096899
-0.076623
0.052629
-0.129848
0.057349
0.054172
-0.048214
-0.013532
0.049244
-0.035067
0.202524
0.028965
-0.165837
0.069124
0.001146
0.009035
0.068959
-0.060823
-0.047470
-0.119920
0.042897
-0.004232
-0.124936
0.018253
-0.083176
0.275446
-0.030090
0.090179
-0.047590
0.322383
-0.030975
0.134912
-0.015814
-0.146424
-0.119618
0.078786
0.090003
0.066283
-0.012262
0.118407
0.018954
-0.033516
-0.020916
0.023092
0.076812
-0.055064
-0.159281
0.072959
0.161817
-0.072041
0.092212
-0.005335
0.030600
-0.081432
-0.017221
-0.085955
-0.127189
-0.029998
0.047733
-0.043266
-0.091363
-0.101713
-0.044638
-0.122983
0.048723
-0.104958
-0.089324
0.054950
0.097760
-0.081551
0.130680
0.103100
0.069440
-0.030616
0.021342
-0.000763
0.069651
-0.013216
-0.084364
-0.106876
-0.146398
0.061557
0.092376
-0.095440
0.019829
0.018075
0.024400
-0.056973
-0.003995
-0.079781
0.042144
-0.063067
-0.012943
0.017791
-0.035673
0.055838
0.003454
-0.047194
-0.005112
0.009319
0.114099
0.034796
-0.093319
0.123764
-0.074640
0.100557
0.092920
-0.020230
0.059781
-0.044745
-0.080026
0.063695
0.136698
-0.128622
-0.054665
0.024623
-0.136322
0.174607
0.008201
0.129271
0.060123
0.076394
-0.079823
0.048247
-0.002800
-0.089941
0.122011
-0.039282
0.040208
0.036253
-0.004476
-0.065309
0.047450
0.038090
0.009775
0.109445
0.266376
0.162056
0.167749
-0.077212
0.017986
-0.217976
-0.111501
-0.058294
0.187731
0.095000
0.073143
-0.011206
0.054443
-0.029658
0.098444
0.005864
0.123408
0.198935
0.016621
0.127995
-0.005367
0.105651
0.013019
-0.068856
0.029909
0.052815
0.003238
0.026905
-0.051688
-0.034111
0.043376
-0.019414
-0.104776
-0.139891
0.012984
-0.012627
0.204128
-0.000545
0.066794
0.036410
-0.032304
0.172798
-0.162963
-0.197244
0.041867
-0.105063
-0.060368
-0.041619
0.002490
-0.109669
-0.037441
0.015114
0.001133
0.024742
0.085075
0.131918
0.110608
-0.020806
-0.064718
-0.021691
0.195508
0.011767
-0.002702
0.192248
-0.080299
0.151723
0.004245
-0.112072
-0.089132
-0.037651
-0.020978
0.007975
0.156266
0.136905
0.025925
-0.120069
-0.161035
-0.118672
-0.019483
0.052697
0.063297
0.047389
0.097552
-0.058521
-0.090606
0.011748
0.024360
0.050050
-0.080779
0.109364
0.033747
0.173732
-0.073069
0.006637
0.133076
0.036623
-0.094141
0.085812
-0.078600
0.087213
0.074211
0.093764
0.023996
0.052765
0.082249
0.210227
0.079457
0.012810
-0.022867
0.056006
0.039623
0.019412
0.008289
-0.019047
0.039862
0.025937
0.047820
0.030415
-0.050276
0.103451
-0.048189
0.030781
0.072128
0.049784
-0.049859
0.185940
0.044657
-0.043488
-0.165522
0.016591
-0.005671
0.094691
-0.044820
0.011543
0.048758
-0.172199
0.248215
0.042245
-0.025635
0.135055
-0.019708
0.006064
-0.221021
-0.000119
0.002086
-0.172331
0.015014
0.037257
0.083769
0.087626
0.116342
0.096786
-0.039254
-0.098159
-0.044047
0.098334
-0.041902
-0.065691
0.073279
0.106110
-0.069675
0.053410
-0.029436
0.111114
-0.026792
-0.097808
0.061663
0.052387
0.023631
-0.050784
-0.167857
0.043082
-0.152844
-0.054729
0.027836
-0.064387
-0.032681
-0.026103
-0.067127
-0.118415
0.054471
0.058016
0.046685
0.036484
0.065644
0.080780
0.072239
0.041619
-0.157700
0.157301
-0.135050
0.074159
-0.077377
-0.014315
0.162360
0.015816
0.024459
-0.024789
0.028449
-0.038302
0.120992
0.022834
0.045568
0.008308
0.017450
0.092455
-0.076926
0.060152
-0.033969
-0.019912
-0.058517
-0.005584
0.130402
0.091097
-0.069734
0.018191
0.047400
0.027777
0.050444
-0.113209
0.039374
0.135157
-0.012221
-0.149485
-0.086824
-0.171056
0.011958
-0.064995
0.059825
0.005473
-0.047717
0.030513
0.122558
0.085672
0.087480
-0.001289
-0.029134
0.063342
-0.071714
0.011000
-0.023667
0.043830
0.006667
0.085479
0.005711
0.005274
-0.037872
0.078357
-0.070820
0.013004
-0.029166
-0.057888
-0.008240
-0.072257
0.055144
-0.069800
0.009946
-0.023564
0.146083
0.055808
0.075844
0.006455
0.009393
-0.061339
0.102459
-0.056243
-0.063024
-0.059060
-0.101458
0.040360
0.140720
0.052764
0.066660
0.020164
-0.138486
-0.022307
0.155832
0.029523
0.095752
0.047122
0.034969
-0.052645
0.047604
-0.002475
0.089689
-0.040948
-0.108971
0.016986
-0.001252
-0.131694
-0.108911
-0.156666
0.146418
0.127719
-0.062167
-0.059276
0.016467
-0.027793
-0.156167
-0.053300
-0.083248
-0.068456
0.111662
-0.201174
-0.142839
0.065347
-0.045358
0.000066
0.082580
0.129813
0.006062
0.028959
-0.029392
0.095467
0.042775
-0.040256
0.094656
0.028471
0.164004
0.070900
0.084114
-0.066239
-0.108831
0.174409
-0.086182
0.124080
0.058049
-0.001023
-0.148537
0.060361
0.058676
-0.054512
-0.048410
0.030568
-0.100819
-0.005950
0.098203
-0.072970
0.027816
-0.013232
0.007361
-0.217999
0.026730
-0.154936
0.002902
0.066969
-0.020909
-0.023696
0.081405
-0.052675
-0.041881
0.134568
-0.163937
0.036621
0.118386
0.153329
-0.059784
-0.028665
0.005994
0.051348
0.180438
0.028263
0.001553
0.071036
0.047808
0.026534
0.097842
-0.054901
0.114538
-0.154474
0.014637
-0.061149
0.016199
-0.006065
0.030144
-0.009133
-0.162917
-0.079451
-0.078571
0.045780
0.015934
-0.007532
0.050071
0.082871
0.006246
0.067862
-0.134169
0.153011
0.091377
-0.123679
0.082309
-0.219445
0.197825
-0.000813
0.015344
-0.009602
-0.006781
-0.021195
0.065604
-0.054782
0.041288
0.146513
0.022004
0.056986
-0.117907
-0.058608
-0.150803
-0.056646
0.002310
-0.005900
-0.101641
-0.025799
-0.002525
0.061251
-0.004098
-0.036983
0.118563
0.010596
0.031829
0.194725
0.032054
0.262618
0.048711
-0.040196
0.061837
0.079989
0.177648
-0.025210
0.174815
-0.096457
-0.084494
-0.025169
-0.075244
-0.027564
-0.018578
-0.023947
-0.048024
-0.073004
-0.078947
-0.054526
0.065649
0.024241
0.001763
-0.007404
-0.156027
-0.048285
-0.075993
-0.116877
-0.092813
-0.064433
-0.045336
-0.089205
-0.036848
0.108886
-0.061720
0.010788
0.012098
-0.042888
0.223191
0.096911
-0.047602
0.054490
-0.019623
-0.046527
-0.059245
-0.025617
-0.042226
0.090621
-0.054426
-0.022506
0.167985
-0.016329
0.028571
-0.014310
0.012235
-0.028247
-0.105799
-0.092864
0.102409
-0.015819
-0.015485
-0.067896
0.035977
-0.124002
-0.009583
0.013427
-0.030011
-0.078378
-0.075360
-0.051523
-0.063719
-0.067795
-0.051357
-0.053759
-0.158010
0.018903
0.025242
0.001556
-0.026655
0.108888
0.161796
0.099057
-0.026918
-0.107487
0.165615
-0.131869
0.014638
0.017730
-0.051630
0.029441
0.046884
0.061466
0.054736
0.078842
-0.006649
-0.111900
0.073307
0.029650
-0.080622
-0.016254
0.016664
0.075993
0.048109
-0.015811
0.012712
0.021522
0.046646
-0.061364
0.038980
-0.049119
-0.127822
-0.069733
-0.099615
0.061008
-0.058133
0.080140
0.028096
-0.019636
0.072026
0.047125
-0.050836
-0.208955
0.158185
0.087250
-0.025292
-0.100565
0.042840
0.007388
0.132097
-0.053203
-0.033882
-0.069279
0.056053
-0.182459
0.032889
-0.006031
-0.060864
-0.075762
-0.025218
-0.029316
0.018825
0.127249
-0.014968
0.006449
0.028494
-0.074227
0.046984
0.042892
-0.135649
0.114018
-0.012720
-0.000626
0.047015
0.104599
-0.037094
-0.100779
-0.152448
-0.002548
0.001704
0.092697
0.021462
0.153557
0.074819
0.059066
-0.149386
-0.014614
-0.122264
0.172715
-0.163755
0.201366
-0.161872
0.114358
0.087698
-0.043951
0.018594
-0.026429
-0.019072
-0.033757
-0.090988
-0.017349
0.148478
0.087716
-0.099868
-0.044648
0.000583
0.000208
0.070699
-0.057685
-0.068813
-0.105157
-0.062551
-0.006001
-0.051614
0.197610
-0.113536
0.088456
-0.026280
-0.013301
-0.142199
0.046740
-0.034917
0.056907
-0.042782
0.001949
0.058628
-0.063991
-0.023550
-0.078784
0.036639
-0.004286
-0.092667
-0.009656
0.044214
0.114468
-0.011476
0.039820
0.085420
-0.011078
0.049930
-0.023764
-0.114582
-0.038425
-0.037444
0.193464
-0.051607
-0.053528
-0.010795
-0.044558
-0.009276
-0.089948
-0.077313
-0.126451
0.108505
0.049810
0.014784
0.023620
0.182239
0.047610
-0.072523
-0.004321
-0.048524
-0.047961
0.004862
0.028348
0.049986
-0.008484
-0.048713
-0.003876
0.053905
-0.049911
0.014111
-0.114035
0.076721
0.054387
-0.045067
-0.015343
0.138090
0.030716
0.056083
0.030963
0.012558
0.030671
-0.046711
-0.009933
-0.121063
-0.090784
0.032551
0.146182
-0.124741
-0.013473
-0.081114
0.227893
0.070661
0.136470
-0.045155
0.048250
0.036995
0.002511
0.155542
-0.079283
-0.052056
0.011375
0.194403
-0.013222
-0.027482
0.050728
0.004664
0.118687
0.004408
0.038410
-0.003263
-0.062776
-0.121256
0.003457
0.043815
0.068956
0.026484
-0.092802
-0.168169
0.029441
0.011826
0.036516
-0.116958
-0.147214
0.062208
0.008967
-0.000528
-0.037757
0.029681
-0.007219
-0.071103
0.033266
0.019517
-0.006435
0.083517
0.192879
-0.038903
-0.031796
-0.036651
-0.004055
-0.058346
0.111721
0.118349
0.006303
-0.098160
0.003014
-0.038631
0.028878
0.047458
0.096092
-0.082914
0.018689
-0.051375
-0.017752
-0.021173
0.141336
0.073024
0.020788
0.146767
0.008281
-0.022840
0.008510
0.047131
-0.057141
0.032720
0.061484
-0.003004
-0.003424
0.116058
0.038832
0.088274
-0.023536
0.090543
0.069928
-0.021340
-0.004470
-0.017082
-0.027515
-0.046595
-0.027902
0.004999
0.020882
-0.055459
0.086008
0.054272
0.206308
-0.018515
0.062815
0.026714
0.024106
0.096919
0.067672
-0.061745
-0.072547
0.012098
0.046871
-0.057009
0.045497
-0.098373
0.048228
0.001083
0.098268
-0.098849
0.031994
-0.095874
0.021285
0.107023
-0.119368
0.013185
-0.024863
0.136813
-0.088482
-0.152604
0.088208
0.166393
0.036742
0.001483
-0.100775
-0.013771
0.005468
0.019629
-0.009431
-0.041625
-0.225115
0.020216
-0.019380
-0.089365
0.048266
-0.120589
0.154794
-0.017878
-0.042757
0.004037
-0.080825
0.046171
0.076456
0.041714
-0.055692
0.004519
0.002270
0.004846
0.059943
0.146564
0.013089
0.009718
0.154236
0.043175
0.092196
-0.024056
-0.067835
0.117228
-0.171284
-0.036435
0.031256
-0.026314
0.027970
-0.067750
-0.118779
-0.088613
0.092894
-0.045314
0.140280
0.128208
0.074190
-0.123262
-0.061751
0.014366
-0.118156
-0.154632
0.051115
-0.012360
-0.055066
0.126410
-0.000066
0.010907
-0.097982
-0.009770
0.085668
-0.089798
-0.070428
0.013633
0.002069
0.076763
0.035390
0.067204
0.025884
-0.109133
0.016482
-0.120065
0.051683
0.040184
-0.080215
-0.014935
0.003658
-0.074111
0.060382
-0.084792
0.033235
0.105988
0.001560
-0.006237
-0.061213
0.024088
-0.065849
-0.110381
0.035719
-0.054796
-0.046792
-0.015299
0.076186
0.066982
-0.015586
-0.000346
0.094510
-0.076998
0.052420
0.078005
0.111036
0.024865
0.031167
-0.160679
-0.042372
0.040843
-0.057817
0.096188
-0.094914
-0.044444
-0.053776
0.098918
0.059285
-0.049832
0.068940
0.004756
-0.077012
-0.017171
-0.174843
0.038305
-0.057635
0.122781
0.036614
0.111590
0.102542
0.108584
-0.074428
-0.108141
-0.039547
0.104423
-0.069635
0.055828
0.000705
-0.076935
-0.018002
-0.047980
-0.055834
0.042953
0.091854
-0.029588
-0.239773
-0.002010
-0.066409
0.201306
0.029190
-0.055534
0.003110
-0.034167
-0.029516
-0.023823
-0.119282
0.088894
-0.065833
0.083055
-0.023708
-0.003637
0.164063
0.102254
-0.045477
-0.056089
0.088786
-0.003007
0.004529
0.102624
-0.020904
-0.046791
-0.012948
0.090206
0.016833
0.053695
0.138611
-0.019155
-0.057708
-0.120383
0.007941
-0.021009
-0.249076
-0.002878
0.081175
-0.011467
0.091727
0.120842
-0.122980
0.129659
0.173693
0.006447
-0.064928
-0.049759
-0.107903
0.138332
-0.104154
-0.155748
-0.172427
-0.109998
-0.089338
-0.017863
-0.026845
0.075914
-0.006201
-0.035098
0.068965
0.062572
0.037695
0.055572
-0.033934
0.044539
0.021197
-0.055068
0.091006
-0.017806
-0.005490
-0.038290
0.083835
-0.010180
-0.046256
0.004391
0.000216
-0.097836
0.114742
-0.021568
-0.072019
-0.116011
-0.091905
0.041883
0.053166
-0.045021
0.053947
-0.066102
0.100611
0.070456
-0.079349
-0.010558
-0.025573
0.198059
0.027463
0.058134
0.023247
-0.130414
0.031322
0.007851
0.140154
0.096646
0.075038
0.041890
-0.107170
0.062369
0.012051
-0.015081
-0.018263
0.125005
-0.058031
0.046040
-0.018808
0.045841
0.011758
0.085158
-0.089089
-0.137301
0.052742
0.094722
-0.066830
0.028503
0.170820
0.012382
-0.129491
0.017510
-0.010050
-0.046446
0.035341
-0.059526
0.068145
-0.092884
-0.048274
0.021600
-0.064489
-0.051373
0.021220
-0.104382
-0.109593
-0.096743
-0.024270
0.047114
0.067948
0.074816
0.108358
0.112774
0.120285
0.133141
0.236271
0.040636
0.013985
-0.073318
0.166672
-0.043263
0.075172
0.092979
0.030926
-0.018004
0.166518
-0.104343
0.100035
-0.034856
-0.019869
0.016459
-0.191257
-0.024374
0.101719
0.018483
-0.041638
-0.024945
0.066379
-0.168282
0.068369
-0.016823
-0.005242
0.013686
-0.138129
0.191957
-0.048950
-0.035293
-0.070979
0.024998
-0.109621
-0.051262
-0.008078
-0.155317
-0.146054
0.029762
0.011364
0.033776
0.157740
0.093075
-0.007985
0.059490
-0.003939
-0.050873
-0.025552
0.132301
-0.020096
0.162278
0.004437
0.013431
0.098530
0.160556
-0.005724
0.005332
-0.071834
-0.022956
-0.011375
0.109729
0.008677
0.119485
0.043434
-0.133855
-0.016485
0.041693
-0.145735
0.074152
0.109121
-0.005353
-0.021656
0.030496
-0.110058
0.087901
-0.045545
0.006181
0.083474
-0.105585
-0.046595
-0.077972
0.037882
-0.053324
-0.067657
0.065843
-0.068329
-0.035366
0.126410
-0.019900
-0.033054
0.099581
0.175164
-0.057757
0.207280
-0.073334
-0.137245
0.040008
-0.045909
-0.056480
0.083612
-0.034660
-0.085963
0.200469
0.109933
-0.044267
0.150328
0.057469
0.046250
-0.013020
-0.021941
-0.021541
0.042325
-0.068999
0.044412
0.018157
0.016021
-0.028372
-0.112432
0.140942
0.100469
-0.073945
0.027439
-0.083444
0.024482
0.045853
-0.062711
0.051956
-0.005880
0.071698
0.057335
0.050498
-0.155167
-0.175758
0.057669
0.010145
-0.022599
0.063710
-0.065029
0.042311
-0.021144
0.004436
0.184097
-0.046962
-0.027953
-0.010660
0.057661
-0.014367
0.003650
0.083596
0.043443
0.059290
-0.115298
-0.004831
0.070409
-0.070117
-0.019989
0.042970
0.052343
-0.023258
0.081510
0.057572
-0.111462
-0.062539
-0.032383
0.117943
0.020432
0.076030
0.125619
0.044541
0.050749
-0.138958
-0.080616
0.033108
0.060643
0.020499
-0.025802
-0.021503
-0.053556
0.079825
0.078064
-0.014184
-0.029707
0.078804
-0.151233
0.051009
0.093884
-0.075705
-0.084133
-0.124822
0.053620
-0.042105
-0.083706
-0.009460
0.108683
-0.097767
-0.004112
-0.077584
-0.035287
-0.058677
-0.038628
-0.136471
0.091830
-0.010839
0.045496
0.014592
0.065077
0.111025
0.000820
0.023640
0.066147
0.057951
-0.086347
-0.058114
-0.063277
0.039830
0.101120
-0.060424
0.131157
-0.051749
-0.000768
0.041240
0.137476
-0.064326
-0.004394
-0.046786
-0.063062
-0.085998
-0.065141
0.057492
0.035786
-0.051782
-0.177355
0.051426
0.048857
-0.007138
-0.011605
-0.175414
-0.018597
-0.000322
0.001905
-0.030615
0.118768
-0.028819
-0.094099
0.069101
0.047973
0.080959
0.012862
-0.011379
0.021772
-0.157303
-0.117476
-0.181905
0.228275
-0.023547
-0.022301
-0.027272
0.091027
-0.099330
0.032962
-0.053210
0.047212
-0.074101
0.042834
-0.121868
0.104062
-0.011379
0.111051
-0.114696
0.135507
-0.003880
0.023912
0.060249
0.071061
-0.023006
0.011785
-0.132735
-0.150836
0.005780
-0.007282
-0.169217
0.050058
0.004115
0.002605
-0.050061
-0.033023
0.054079
0.084013
-0.049251
-0.003210
-0.038967
-0.069795
-0.138217
0.007483
-0.102372
-0.089327
0.138867
0.027281
0.066934
0.020292
0.084480
-0.116528
0.055996
0.041817
0.094736
0.004668
-0.008922
0.045162
-0.013442
0.046274
0.098962
0.069134
-0.070585
-0.104378
-0.042382
-0.014029
0.055261
-0.011738
-0.065735
0.084699
-0.129458
-0.046424
0.002500
-0.029960
0.009257
0.092729
0.043461
0.059889
0.072538
-0.047663
-0.019710
-0.013743
0.017165
-0.050177
0.048276
-0.041199
0.038877
0.133422
0.026076
0.075122
0.068298
0.087440
-0.084165
-0.047240
-0.007183
-0.029177
-0.068354
0.084130
-0.112268
0.011403
0.092109
-0.029354
-0.002929
0.022779
0.123007
-0.087439
-0.021123
-0.143034
0.122104
0.162222
-0.130786
0.085003
-0.096911
-0.021371
0.130971
-0.037009
-0.076165
-0.109810
0.065421
-0.073831
-0.028513
-0.057874
-0.007100
0.168261
-0.035624
0.081833
0.012002
0.043771
-0.039809
-0.102625
0.056320
-0.018861
-0.077528
-0.065292
-0.058426
0.070432
-0.128201
0.033748
-0.029762
-0.138716
-0.023976
-0.109687
-0.032508
-0.058498
0.107181
-0.039788
-0.059568
-0.068116
0.109544
0.032962
0.133219
-0.023595
-0.024150
0.070859
-0.012975
-0.032449
-0.079050
-0.004395
-0.026200
-0.063365
-0.074420
0.085623
0.033430
-0.131466
-0.003557
-0.028999
-0.031903
0.111082
-0.053705
-0.284744
0.078159
-0.187877
0.004368
0.068403
0.047394
-0.123178
0.009374
0.016316
0.019066
-0.123068
-0.058121
-0.072083
0.093629
0.096894
0.050490
-0.095352
-0.099653
-0.100860
-0.049946
0.044323
0.030374
-0.018224
-0.117385
-0.072892
0.068352
-0.048013
0.112351
-0.022359
0.110990
0.031993
0.006427
-0.028133
0.061919
0.105146
-0.213298
-0.050075
-0.103246
0.076429
0.018704
-0.031729
-0.205549
-0.009622
0.131389
-0.045596
0.009201
-0.042799
0.167509
-0.029318
-0.087006
-0.082585
0.044552
-0.000878
-0.000575
-0.112299
0.054284
-0.106957
0.076451
-0.107971
-0.056851
-0.090914
0.101664
0.213895
-0.033191
0.062316
0.026512
0.147571
0.074293
0.069421
-0.025128
-0.098224
0.156680
-0.082525
0.009441
-0.104894
0.017817
0.009576
0.158224
0.141355
-0.009187
-0.073515
-0.199584
0.055149
-0.064810
-0.004131
-0.067589
-0.068285
-0.083186
-0.025619
-0.265937
-0.009368
-0.058166
0.032578
0.039595
0.022585
0.000396
0.059480
-0.026157
0.069370
0.111434
-0.063502
0.051121
-0.041055
-0.072285
-0.126815
-0.076542
-0.046016
-0.064747
0.050699
0.127454
0.013606
-0.098383
0.011281
0.093303
-0.016545
-0.017978
-0.080466
-0.028365
-0.103256
-0.057491
0.070353
0.127631
0.095774
-0.090612
0.014758
0.102718
0.059332
-0.129871
-0.119828
0.023753
-0.163752
-0.048029
0.103024
0.038228
0.068532
0.090355
-0.034022
-0.028831
0.061643
0.009677
-0.078181
0.032532
0.006388
0.029300
-0.009810
-0.201107
-0.074254
-0.000314
0.008304
-0.066665
-0.034078
-0.013969
-0.028726
0.001733
-0.016082
0.012160
0.110142
0.010905
-0.112155
-0.033586
0.001988
-0.046826
0.053844
0.165923
0.027206
-0.022321
0.010444
-0.079293
-0.092264
0.032291
0.029957
0.097546
0.017693
0.071765
-0.059682
-0.009174
-0.054101
-0.003017
0.172104
-0.040896
0.044475
-0.066634
-0.051199
-0.090050
0.007107
0.050572
-0.055807
-0.176989
0.042771
0.006150
-0.078840
-0.041641
-0.003308
-0.122299
-0.007316
-0.102041
-0.071539
-0.010935
0.012783
-0.100599
0.114174
0.096670
-0.019388
0.114230
-0.018642
-0.083173
0.162739
0.081750
0.048715
0.085045
-0.085633
-0.054021
0.068041
-0.011419
0.004599
0.014741
0.045292
-0.055679
-0.182668
0.021210
-0.106680
-0.092261
0.148978
0.013721
0.019195
-0.015010
-0.061821
-0.168971
0.006401
-0.020601
-0.016466
0.008137
0.009161
-0.050572
0.034049
-0.103717
-0.013764
-0.043863
0.101391
0.003956
0.144928
0.008663
-0.013845
-0.080586
-0.066591
0.005561
-0.058935
-0.029242
-0.070876
-0.031805
-0.002418
-0.022801
0.059059
0.016650
-0.010525
0.020659
0.009194
0.064647
-0.147782
-0.058109
0.003856
0.089351
-0.083711
0.102684
0.035045
0.009192
-0.042457
0.091258
0.069262
0.030097
0.152163
0.081338
0.031943
0.072474
0.000521
-0.039023
-0.054720
0.020827
0.027274
-0.075780
0.091366
0.027344
0.100325
0.055402
-0.112196
0.056085
0.053052
-0.040030
-0.061368
-0.157741
0.139219
0.083854
-0.072387
0.001216
-0.026233
0.011471
-0.019419
-0.079147
-0.041836
-0.022854
-0.120162
0.043331
0.090599
-0.034731
0.080384
-0.077053
0.058438
-0.011239
0.058763
0.043430
0.011632
0.194532
0.055232
-0.011426
0.055142
0.011637
0.021655
0.126582
-0.091775
0.041355
-0.067397
-0.014374
0.180868
-0.088689
-0.077479
0.040092
-0.077947
-0.025169
0.128369
0.041070
-0.010886
-0.012967
0.146396
-0.254362
-0.064974
0.045259
-0.141018
0.012857
-0.090705
0.060679
0.023858
0.065099
-0.118357
0.050992
-0.089336
-0.117896
0.096514
0.204101
-0.046194
0.047205
0.083067
0.011904
0.021209
-0.051844
-0.044090
0.094777
0.081294
-0.061540
0.095965
-0.032126
-0.075926
0.016703
-0.063971
-0.009050
0.018261
0.110059
0.092279
-0.099984
-0.011900
0.118483
-0.009754
-0.107447
0.002356
-0.051537
0.066552
0.041537
0.063400
0.022965
0.140606
-0.070507
-0.071645
0.031077
0.075093
-0.085184
-0.093833
-0.028830
-0.117227
0.026093
0.030018
-0.047382
0.040447
0.015330
-0.052929
0.004924
-0.037142
0.015569
0.108548
-0.009565
0.064241
-0.157180
0.060396
0.012371
0.038350
-0.097273
-0.011392
0.035992
-0.054333
-0.069036
0.127785
-0.044675
0.006825
0.064261
0.050460
0.045834
-0.016240
0.006558
-0.168417
-0.002275
-0.033259
0.167820
0.080831
0.090626
0.025576
0.018873
-0.078518
-0.055442
-0.058946
-0.189854
0.007439
-0.038372
-0.084093
-0.155101
-0.048432
-0.019598
0.002205
-0.052321
-0.039767
-0.088428
0.028490
-0.053875
-0.110126
0.119204
0.003929
0.014327
-0.047156
-0.010416
0.097772
0.082056
0.124672
-0.009840
-0.047239
0.041019
0.043839
0.185774
-0.014096
0.073460
-0.085013
0.074358
0.001544
0.094705
0.098780
0.157303
0.063032
-0.042184
0.032514
-0.163490
-0.057378
0.129982
0.025461
-0.074449
0.141002
0.052423
0.024841
-0.012594
0.024607
0.049154
0.002645
0.038277
0.029067
0.045886
-0.071339
0.094621
0.093273
0.046092
0.117562
-0.036196
-0.018067
-0.035925
-0.121755
0.077455
-0.034292
0.174603
0.155404
0.009920
0.057416
0.016548
-0.047697
0.120692
-0.083479
-0.025474
0.034511
-0.084306
-0.089557
-0.041360
-0.134183
0.019373
0.050374
0.150858
0.070463
-0.053845
0.181758
-0.019016
0.052256
-0.033509
0.017898
-0.016741
0.148967
-0.135829
-0.025619
0.021830
0.020424
0.166470
0.113520
-0.054578
0.147792
-0.004933
-0.128710
0.010623
0.041228
-0.090814
0.095384
-0.089070
-0.059706
-0.026691
-0.125911
0.106322
-0.042549
-0.027105
0.060057
-0.042612
0.138225
0.016081
-0.005601
-0.062828
0.051440
0.121442
-0.036244
0.066152
0.064379
0.072383
-0.047383
-0.012964
-0.049122
0.024848
-0.130325
-0.124701
-0.009374
-0.167868
-0.067722
-0.132413
0.148426
0.114132
0.026778
0.128084
0.013015
0.013635
0.002150
0.011383
0.018500
0.134280
0.116432
-0.182702
0.191758
0.002099
0.117690
-0.057483
0.094526
-0.049442
0.065391
-0.025758
-0.053539
0.005230
0.005519
0.056730
-0.011276
0.061514
0.123166
-0.020482
0.010766
-0.039363
0.067197
0.046893
-0.197212
0.275921
0.050320
-0.146394
0.092063
0.058223
0.040474
0.118520
0.059445
0.176311
0.005016
0.043920
-0.039327
-0.032920
0.036172
-0.014747
-0.106802
0.035675
-0.068038
0.241227
0.051237
0.104530
-0.147170
0.040819
-0.135877
-0.019696
0.020432
-0.012862
-0.064227
-0.015403
-0.092402
0.064390
-0.021932
0.025389
-0.016429
0.040779
-0.072899
0.022185
0.025487
0.016707
-0.012377
-0.023193
0.023838
0.015713
0.056564
0.033811
0.029957
0.013337
0.004875
-0.080182
-0.027191
-0.034207
0.030102
0.022847
-0.071165
-0.014256
0.119009
0.045965
-0.064438
0.015883
-0.094626
0.127705
0.095220
-0.123349
-0.082822
0.026125
0.082609
0.133981
0.006567
0.011029
-0.094251
0.033540
0.082409
0.036165
0.013517
-0.022810
0.052610
0.130960
0.066314
-0.153243
-0.052158
-0.057624
0.028807
-0.038254
-0.090428
0.013644
-0.064885
-0.058605
-0.058016
-0.004869
-0.100818
-0.064541
-0.126280
0.060618
0.004362
0.036590
0.040562
0.066268
0.118669
0.054823
-0.049286
0.013839
0.062684
-0.038985
-0.061563
-0.069554
-0.012818
0.137959
0.041281
-0.090927
0.193461
-0.051536
-0.016580
-0.041311
-0.117103
-0.018393
-0.158193
0.082043
0.107017
0.027229
-0.023182
0.043281
0.029763
0.096324
0.029471
0.071018
-0.072167
0.023474
-0.018387
0.018276
-0.002864
0.118368
-0.075265
0.016463
-0.057737
0.018360
-0.067726
0.158443
-0.088581
-0.068548
0.057842
-0.049100
-0.006248
-0.049762
0.004269
-0.023203
0.087822
-0.120582
-0.060778
-0.037648
0.062423
-0.057701
0.044227
-0.263829
-0.052794
-0.075812
0.101233
0.172123
0.063283
-0.120775
0.124049
-0.154673
-0.151086
-0.097328
0.002826
0.155855
0.141617
-0.054501
0.075791
0.088100
0.046974
0.127128
-0.025969
0.055036
0.055509
0.245054
0.041987
0.029450
0.108799
-0.027457
0.067470
-0.200061
0.068130
-0.102350
0.095455
0.024752
-0.117607
0.116132
0.025531
0.074771
-0.056090
0.121909
0.116711
0.150689
-0.163078
0.010633
-0.129624
0.079895
-0.042252
0.083831
0.015305
0.133791
0.085943
-0.071613
-0.040594
-0.041716
-0.088570
0.031367
0.106636
-0.131619
0.082560
-0.000957
0.117051
-0.070402
0.001617
0.042520
-0.012833
0.102552
0.039884
0.039233
0.114454
0.014622
-0.065888
-0.111013
-0.021179
-0.023353
-0.048975
0.087883
-0.143319
0.100966
-0.016696
-0.046681
-0.219120
0.068642
-0.160926
-0.022132
0.032504
0.208163
-0.020948
0.051631
-0.041105
-0.060245
-0.123225
0.185251
0.079705
-0.085178
-0.096802
-0.012749
-0.025435
-0.152725
-0.015806
-0.048685
-0.045920
0.155369
-0.051932
0.012265
0.053553
0.045482
0.017678
-0.047509
-0.017034
0.034016
-0.010993
0.096367
0.081092
-0.130259
-0.072156
-0.064105
0.002578
0.036748
-0.028013
-0.057638
-0.021458
0.060414
0.111795
-0.044747
0.031325
-0.022827
-0.002821
-0.014531
-0.079046
-0.081012
0.030824
-0.001531
0.122619
0.234517
-0.013957
-0.143047
0.102520
0.054160
-0.141528
-0.108415
-0.094680
-0.047401
-0.053691
-0.095198
0.030264
0.094626
0.114720
0.024521
-0.022394
0.074371
-0.036306
0.022253
0.011271
0.120900
-0.050656
0.132320
-0.006988
-0.032725
-0.032008
-0.093115
0.124526
-0.146157
-0.101048
0.046796
-0.054566
-0.127477
-0.152433
0.037662
-0.002937
0.019693
0.025662
0.204463
0.037416
-0.128175
0.035894
-0.017800
0.029903
0.148204
0.158253
0.108335
0.162082
-0.050439
0.018536
0.011133
-0.080945
-0.008822
0.065151
-0.007313
-0.012507
-0.065250
0.037769
-0.035765
-0.042763
0.037436
0.027273
0.071715
-0.069909
-0.058610
0.111821
-0.020674
-0.034363
0.077035
0.070810
0.091515
0.019664
0.083093
0.092261
0.023609
-0.051135
-0.068513
-0.158328
0.081569
0.089309
-0.060241
0.097821
0.000398
-0.035532
0.015647
0.124325
-0.011048
0.054033
0.003707
-0.033358
-0.101053
0.004808
0.150501
-0.204849
-0.072835
0.071018
-0.031118
0.038505
-0.011482
-0.003427
-0.009488
-0.115504
-0.061209
-0.037786
-0.003009
-0.013773
-0.031322
0.013648
0.119514
0.007849
0.067763
0.012043
-0.052711
-0.007540
-0.140379
0.000115
-0.103997
0.035556
-0.103105
-0.026508
0.003574
0.073460
0.108207
0.088428
-0.036019
0.083240
-0.058675
-0.080659
0.183597
-0.030290
0.138132
-0.095200
0.131088
0.043010
-0.089039
0.116387
-0.048403
-0.200716
-0.002517
-0.112887
-0.026818
-0.043957
0.174552
-0.048863
-0.096153
0.022026
-0.129232
-0.004620
-0.041698
0.040035
-0.068090
-0.018162
-0.013951
-0.054793
0.052411
-0.015416
0.074264
-0.172084
-0.049581
-0.094022
0.080191
-0.045847
0.028573
0.011779
-0.004299
-0.000661
-0.150092
0.021345
-0.091244
-0.042482
0.070435
-0.005657
-0.035860
-0.050130
0.110073
0.104028
0.005318
0.008593
-0.015024
-0.097358
-0.119198
0.043938
-0.020001
0.067019
0.002827
0.022073
0.003797
0.115455
0.021341
0.170831
0.154937
0.010167
-0.034977
0.170968
-0.049942
-0.144104
0.069512
0.086797
-0.082633
0.017602
-0.019034
-0.171352
-0.199050
0.013155
-0.027575
0.121998
-0.064285
-0.048639
0.099948
-0.026969
-0.071652
0.056152
0.056792
-0.066320
-0.049007
-0.137435
0.113538
-0.095378
-0.147535
0.026434
-0.076302
0.048964
-0.013784
-0.009141
0.019150
-0.053548
-0.112839
0.017521
-0.086718
0.051407
0.070441
0.041506
-0.072536
-0.044984
-0.058466
0.165396
0.080321
-0.073542
-0.044315
-0.028587
0.019306
-0.060812
-0.001730
-0.048157
0.098785
-0.155868
-0.114957
0.055514
0.061830
-0.111768
0.041236
0.061404
-0.092347
0.016169
-0.102318
0.057849
-0.035240
0.201592
-0.010158
0.055437
0.049589
-0.030314
0.057607
0.096369
-0.095476
0.099744
-0.029546
0.041419
0.211735
0.165307
-0.005004
-0.132147
0.017636
0.101433
0.074796
0.120987
0.012548
-0.038660
0.060332
-0.011968
0.197076
-0.010654
0.007281
0.023511
0.041878
-0.070901
-0.071581
0.112343
-0.046016
-0.053946
-0.040989
0.051887
0.005187
-0.086370
0.034324
0.009059
0.026561
-0.094739
0.073555
0.018511
0.042587
-0.065198
0.015021
0.078592
-0.008273
0.017061
-0.004678
0.070310
-0.046985
0.180982
0.100919
0.111000
-0.126511
0.034464
-0.055129
0.100034
0.057153
0.053441
-0.086422
-0.116017
0.033275
0.085013
0.088948
0.030256
0.007723
0.028168
0.103434
-0.080469
0.014485
-0.116914
-0.055753
-0.049962
0.132391
-0.058632
-0.053593
0.048359
-0.056513
-0.089930
-0.095763
-0.060906
-0.076070
-0.013599
-0.188527
-0.046513
0.015950
-0.277841
-0.047547
0.038884
0.007908
0.007759
-0.162042
-0.009995
-0.144895
0.087661
-0.033737
-0.028848
-0.054338
0.020417
0.023347
0.102665
0.069512
0.009805
-0.078747
0.070667
0.016527
0.126535
-0.024322
-0.036806
-0.045716
0.057307
0.001418
0.046023
0.055918
0.092135
-0.029652
-0.034311
0.115794
0.101575
-0.046298
-0.074858
-0.025237
-0.053583
-0.044841
0.135959
0.103920
-0.065905
-0.002281
0.003037
-0.026180
0.002357
-0.060786
0.185356
0.170883
0.283740
0.118191
0.086259
0.047313
-0.070157
0.087805
0.105101
-0.096963
-0.036213
0.037710
-0.045010
-0.078463
0.048558
-0.016018
-0.034737
0.002119
-0.080270
-0.035506
-0.060383
0.037366
-0.012894
-0.111387
-0.099093
-0.043195
0.107681
-0.112712
-0.126684
-0.065070
-0.051666
-0.078245
0.053738
-0.173499
0.136012
0.014635
0.100073
0.008008
0.044001
0.149948
-0.105269
0.015935
-0.064057
-0.074940
0.127507
-0.126635
0.215858
-0.012322
-0.021722
-0.030837
0.017650
0.063698
-0.058762
0.043098
0.012974
0.038242
0.003170
-0.080256
-0.093322
-0.087774
0.123420
-0.026752
-0.136469
0.035018
-0.038772
-0.099152
0.098712
-0.003822
-0.011204
-0.086866
-0.062516
-0.033834
0.046263
0.036679
-0.003179
-0.072980
0.025887
-0.077940
-0.010491
0.042932
0.066294
-0.084413
0.096150
0.055194
-0.006048
-0.027488
-0.169900
-0.156751
-0.023410
-0.065587
0.024081
-0.110512
0.116981
0.038998
0.023708
-0.004413
0.007421
0.063015
0.161155
0.080324
0.132055
-0.063534
-0.083736
-0.015592
0.031000
-0.019044
-0.063920
0.141774
-0.051981
-0.073867
-0.066670
-0.040537
-0.169335
0.028109
-0.008462
-0.049433
-0.026840
0.015720
0.043125
0.131115
0.016758
0.004089
-0.004846
-0.015295
0.000131
-0.033060
-0.081672
-0.026582
0.086926
0.010711
-0.125705
0.030486
-0.076392
-0.091291
-0.042434
-0.053426
-0.029725
-0.005174
0.017519
0.045297
-0.010288
-0.070185
-0.003911
0.048142
-0.069633
0.042644
0.021213
0.096003
-0.001937
-0.050370
-0.080877
0.020545
0.239568
-0.072417
-0.158544
0.004272
0.031509
0.038202
-0.016548
0.050234
0.024274
-0.048963
0.016622
-0.027580
-0.065237
0.041521
-0.036854
0.110713
0.018650
0.010521
0.078317
0.024177
-0.145600
-0.011610
-0.011337
-0.152464
-0.243835
0.060821
-0.328748
0.052747
-0.049500
-0.003635
0.020794
0.017152
0.006889
0.163694
0.009083
0.019004
-0.119052
-0.026768
0.004703
-0.031234
0.077608
-0.020426
0.171089
-0.010449
0.179635
0.085414
-0.149418
-0.161769
0.001096
-0.016830
0.089449
-0.063746
0.113057
0.018099
0.039926
0.034392
-0.028869
-0.066114
0.049763
0.136138
-0.095530
0.080488
-0.062876
